#include "stdint.h"

int16_t conv_weight_q15[186][1][8][30] = {
	{
		{
			{204, -413, 3992, 2301, 2395, 3753, 2737, -1041, 1074, 1321, 408, -3797, -4903, -6436, -6441, -738, -3887, -6344, 661, 2645, 3369, 1045, 3458, 3284, 5587, 8334, 6074, 2274, -4991, 4341, },
			{-1255, -1117, 623, -1062, -234, 1874, 2368, 828, 3499, 3088, -1835, -2045, -4528, -6148, -5998, -743, -2407, -5799, -3037, 1692, 3463, 39, 1745, 3035, 1959, -1037, -3458, -2325, -4368, -583, },
			{160, 3321, 1629, 1896, 772, -1767, 2403, 211, 1911, 477, 645, -651, 1182, -3690, 230, 1979, -2710, -4360, -2698, 2874, 5346, 2666, 3663, 2300, 2336, 484, 621, 1213, 963, 4007, },
			{-3998, 275, 4449, 2023, 3518, -899, 1855, -414, 876, -2114, -2832, -3304, -2861, -4377, 314, 870, -2232, -2953, -354, 221, 1205, -2948, 1107, 1617, -69, 379, 567, -2082, -3259, 1720, },
			{-1950, -351, 1403, -1019, -2368, 247, 3965, 921, -2116, -6599, -5687, -2077, -3784, -3735, -226, 2620, 489, -2261, -6469, -1135, -2032, -4371, 897, 5177, 5772, 152, 2627, 944, -2415, 7936, },
			{-3392, -606, 1419, -3431, -3097, -1115, 2916, 603, 2733, 623, -173, -2674, -1212, -3366, 851, -111, 134, -3291, -2695, -1418, -2760, -4201, -759, 1133, -1742, -4051, -2257, 438, 2280, 5185, },
			{-4668, -43, 98, -3222, -289, -163, 4090, 5223, 4440, 1660, 3769, 2595, 623, -2819, -841, 2380, 3742, -3747, -3755, -1875, -6393, -6142, 797, -3112, 459, -4482, 391, 5065, 3050, 5923, },
			{-826, 1641, 1840, -2022, 1985, -734, 1907, 1735, 3843, 1481, 3643, 573, 2349, -774, -1504, -199, 3805, 197, -1110, -3002, -3776, -721, 3765, 5971, 6602, 3928, 10911, 10543, 4210, 2568, },
		},
	},
	{
		{
			{1976, -3683, -9476, -8068, -2422, -3391, -285, 1875, 3346, 4843, 5569, 1625, 1151, -2947, -5186, -4800, -1501, 4664, 1606, -2441, -3592, 2234, 1028, 772, 3487, -758, 1177, 2347, -872, -1513, },
			{2559, -4006, -5527, -5729, -3411, -3050, 1607, 6957, 8780, 8562, 5309, -2095, -3174, -2954, -11644, -9737, -95, 7151, 439, 2807, 4967, 5084, 5603, 142, -256, -618, 2949, 1811, -1550, -7, },
			{1384, -839, -4036, -4890, -2548, 3603, 4519, 7259, 5949, 4680, 1406, -4499, -3638, -4989, -10851, -7770, 1918, 5504, 896, -1365, -1483, 1940, 1667, 521, 224, 2215, 3194, 1722, 1705, 867, },
			{-611, -2772, -3558, -6584, -6264, -144, 326, -996, -4155, -2644, -364, -2460, -4384, -8156, -2113, -5641, 3722, 6057, 3304, -1382, 2179, -1090, 44, -2490, 2545, 2135, 940, 1506, 2287, -1108, },
			{-1503, -4797, -5319, -4226, 446, 5501, 11781, 7379, 4834, 5167, 2098, -4252, -6206, -7610, 756, -2455, 8023, 7097, 4501, -2212, -2637, -2397, -2892, -3271, -391, 1178, 69, 3078, -2960, -2650, },
			{289, -3053, 2088, 5968, 5041, 7401, 7930, 7109, 4191, 4917, -1166, -6366, -4525, -6543, -123, -1862, 7088, 5405, 1334, -6086, -7337, -8499, -7368, -3581, -1114, 382, -1950, -2126, -4111, -3321, },
			{1648, 11, 2867, 5204, 2634, 4440, 4907, -466, -3418, -2406, -7752, -8230, -4667, -3153, 471, -849, 7570, 7402, 776, -6253, -6062, -6940, -6820, -5278, -2922, -2138, -214, -1591, -2856, -300, },
			{370, 3494, 2173, 6980, 6570, 7923, 9410, 5412, 2926, 3486, -2483, -5268, 3172, 3371, 2307, 2561, 10709, 10676, 3130, -479, -1236, -5165, -561, -4302, -1733, 1414, 4227, 2989, 1299, 1161, },
		},
	},
	{
		{
			{4992, 1096, -3538, 193, -2362, -1186, 40, -1709, 4310, 4907, 3994, 1602, 2576, -689, -337, 2006, -3581, -1559, -1500, 1998, 1314, -159, -3342, 2327, 2439, 7045, 3821, -494, 1056, 51, },
			{-1310, 1556, -3731, -489, -2629, -3468, -427, 203, 1530, 1596, 1205, -1698, -3142, -3588, -2763, 774, -4829, -6666, -8645, 69, 1158, -2051, -8735, -4589, -516, 1652, -2723, -614, -420, 2281, },
			{647, 2965, -1004, 629, 598, -1353, -1285, -2394, 275, 2081, -1273, 361, -710, -2561, -3459, -1720, -4041, -5440, -5499, -2647, 1651, -2412, -6361, -5004, -2592, 1781, -1819, -1904, 2534, 4130, },
			{519, -514, 506, 2965, 2456, 2035, 2214, -1806, 651, 2491, -1875, 2355, 2818, -1871, -1017, 2115, -4775, -2621, -5482, 2196, 3563, -805, -5020, -2458, -370, 3447, 1932, -371, 4132, 7973, },
			{-363, -2695, -3332, 120, 998, 1502, -83, -2358, -1865, 473, 209, 3399, 772, 295, -1081, 1600, -7289, -4715, -4602, 4680, 3267, -766, -2803, -3965, -3678, 431, 729, 897, 4209, 6964, },
			{1957, 1168, -2853, 221, -2289, 2029, -530, -4026, -984, 121, 1299, 3727, -2994, -317, -1785, -697, -7257, -9292, -6653, 1645, 1637, 94, -4950, -4847, -3471, 339, -688, 1859, 3892, 4990, },
			{3442, 4638, 2868, 4559, 3246, 2834, 2316, -1710, -3626, -1276, 765, 217, -2585, 173, 156, -2450, -7767, -6248, -466, 3800, 4227, 3379, -3769, -4913, -5371, -2149, -505, 1219, 2599, 8112, },
			{2733, 3004, 4591, 3871, 2565, 1711, -550, -1391, -2247, -1856, -2300, 4617, 3967, 3577, 2547, -320, -3584, -3572, 366, 6812, 8396, 5041, 459, -486, -2666, 617, -298, 2524, 3678, 8890, },
		},
	},
	{
		{
			{501, 726, 2776, -2206, -3591, 263, 1494, 2141, -2112, 1638, 458, 3980, -502, 232, 1099, 4446, 3222, 1557, 4653, 3480, 816, -8295, -10124, -4850, 4085, 3287, -3300, -929, 4241, 3385, },
			{2678, 124, 4535, 731, 75, 681, -949, 4202, 2117, 3105, 1161, 3453, -538, -964, 733, -477, -3963, -3565, -1279, -1095, -2956, -8437, -7002, -881, 5621, 2508, -2425, -3182, 4600, -270, },
			{1606, 2778, -403, -675, -5483, -3340, -1181, -1987, -957, -694, -1324, 58, 852, -983, -1546, -2847, -3915, -6020, -2361, -1310, -2771, -7204, -5890, 1072, 7132, 5095, -2295, -1738, 2520, 2578, },
			{875, 4474, 1997, 625, -4722, -1760, 1223, 2407, -120, -292, 2722, 2207, 881, -78, 1112, 1088, -393, 191, -3, -3216, -2145, -5214, -3254, 2855, 9198, 6669, -1059, -1715, -1148, 3116, },
			{-1282, 2892, 5440, 1284, -2907, -1427, -247, 2755, -385, 2058, 784, 706, 542, 2326, 2856, 3090, 1487, 941, -414, -3136, -1139, -4235, -2489, 6301, 13123, 5174, 335, 1601, 2211, 2502, },
			{-1560, 1838, 1658, 892, -2830, -3974, -931, 2204, -1031, 1687, 1343, -101, -191, 2320, 4761, 5289, 2014, 905, 2955, -2268, -4907, -6445, -6420, 6482, 12310, 5511, -79, 4106, 3690, 1151, },
			{399, 46, 1058, 2097, -1524, -399, -3173, -2449, -2634, 1140, -5813, -4284, -4650, 630, 1585, 2699, 141, 2525, 2010, -2894, -5074, -8152, -5414, 4312, 10189, 3541, -2925, 1508, -238, 4176, },
			{2096, 3023, -141, 1698, -1753, 973, -796, 658, 1022, 3017, 866, -3302, -3699, -1227, 584, 4741, 5259, 3038, 194, -3602, -5457, -5547, -2619, 4278, 15536, 10058, 1246, 757, 313, 4494, },
		},
	},
	{
		{
			{-3190, 3191, -602, -2157, 890, 1690, 2478, -1678, 2435, 3894, 1664, -3866, -2921, -5354, -1705, -3091, -2590, 67, -535, 5948, 3544, 4697, 4080, -6703, -5879, -3731, -3595, -4222, -938, 199, },
			{1472, 1682, -2208, -1225, 821, -972, 253, -5939, -130, 3782, 2929, -1902, 1482, -753, -2869, -599, 2110, 5786, 4096, 2656, -1853, -2013, -2264, -8525, -6046, -1232, 794, -1918, -1010, -3307, },
			{-3149, -2152, -2394, -3008, 2701, 193, -3516, -5848, 250, 938, -1930, -1024, 185, 219, -1411, -961, 2217, 6940, 5777, 4139, 5504, 5445, 7620, 4832, 3949, 5857, 5636, 2055, 576, -899, },
			{437, -3393, -146, -831, 2089, -138, -1289, -3297, -3577, -1139, -2005, -333, -5046, 946, -533, -513, 3636, 2155, 4674, 5897, 7229, 4810, 4262, 1297, 6447, 7236, 5682, 5157, 5559, 2064, },
			{-523, -384, 2399, -3038, -1595, 692, 1952, -1199, -1576, -977, -580, -1125, -4107, 600, -2116, -885, -3048, -3821, -5278, -2114, 863, -700, 2042, 1313, 3137, 5049, 7554, 3357, 227, 1747, },
			{2945, 2440, -1226, -177, 2625, 2606, 721, 3031, 388, -3459, -3259, -2421, -1152, 1355, -2814, 191, -347, -4067, -4340, 1428, 3349, 862, 24, -3476, -1759, 208, 1356, 2274, 2034, 4919, },
			{1022, -2735, -2028, -122, 754, -1352, -147, 425, -1344, -3882, -354, -2978, 19, -1124, -3808, -3067, -692, -4019, -8023, -5763, -1022, -6542, -2125, -3921, 2860, 9038, 7062, 5037, 8786, 2849, },
			{-3361, -5064, -199, 97, 2329, -305, 968, 2697, 3604, 1242, 5033, 774, -1833, -1322, -631, 4025, 1062, -2590, -3852, -4373, -104, 1979, 5288, -558, -2332, 26, -554, 2188, 8592, 1975, },
		},
	},
	{
		{
			{5186, 5183, 4797, 2688, 1878, 838, -4749, -2640, -3609, -4262, -2912, -4449, -4683, -299, -1113, 725, 1932, -21, 860, 364, 4549, 5794, 5247, 580, 79, 1758, 338, 6443, 6225, 3575, },
			{3120, -365, 5012, -1929, -3180, -4624, -7021, -3265, -3018, -2425, 165, -2671, -2327, -320, 1623, 205, 1126, 282, 365, 1478, 2735, 4598, 2483, 1578, 2079, -571, 2069, 3819, 5797, -5585, },
			{665, -5061, -1504, -3357, -5364, -7763, -6652, -5967, 108, -2451, -570, -2159, -3246, 2, 198, 770, 1194, -1446, -1402, -930, -1760, -492, -2418, 644, 785, -1235, -2369, 1697, -1728, -3480, },
			{6147, -1896, 2585, 965, -2268, -5770, -7050, -2442, -1490, 906, -191, -2751, -717, -1653, -2057, 693, 4187, -3468, -1956, -2139, -3025, 1496, -245, -647, 395, 62, -2328, 4423, -844, -2159, },
			{4152, 1797, 6370, -542, -914, -477, 1340, 2255, 4264, 3061, 3861, -2570, -108, -1997, 21, 675, 117, -2538, -1832, -3441, -88, -533, 1029, -1835, -1020, 949, -648, 3348, -1720, -2779, },
			{5174, 2560, 2018, 2177, 260, 2542, 6145, 5047, 8098, 6170, 5288, 3287, 3770, -2336, 480, -129, 1046, 661, -583, -853, 992, 2375, -2163, -3338, 1074, -547, -1733, 2741, -628, -812, },
			{5223, 3212, 1159, 4728, -2328, -1272, 2513, 3898, 5476, 5080, 2120, 2983, 2764, 312, -2399, 455, 3032, 3020, -1018, 1515, 2251, 3722, 3152, 3365, 144, 1714, 1968, 5728, 6138, -400, },
			{849, 3513, 742, -740, -2114, 558, 3320, 5774, 4949, 5891, 2859, -1871, -47, -349, 554, 1965, -1194, -1552, 2796, -1853, -3309, 832, 1493, 469, 12, 3334, 4091, 5859, 9503, -1071, },
		},
	},
	{
		{
			{-1989, 793, 2989, 7515, 6070, 1506, 186, -1413, 2135, -2999, 1214, -3341, -2450, -354, -4642, -4251, -2501, -2378, 632, 784, 2156, -196, -8191, -3370, -444, -615, 972, 3213, -3244, -2160, },
			{1939, 6680, 4346, 2883, 4898, 1091, -582, -3706, -218, -1964, -523, -4966, -4274, -2256, -2233, 501, 204, 75, 1790, 2911, 5220, 1285, -3184, 5243, 4868, 1899, 7498, 7041, 1404, 1907, },
			{1136, 158, -45, 4537, 4669, 4625, 1264, -3778, -128, -1892, 125, -2480, -1671, 1817, -174, 1621, -205, 3996, 1829, 1428, 3260, 2624, 1869, 4180, 1403, 377, 3092, 799, 1889, 3515, },
			{-1274, -691, -582, 4092, 4019, 4938, 4632, -476, -1240, -3811, -3535, -2687, -1916, 1484, -2324, -2621, -3333, 1909, 181, -1902, -2202, -541, 562, 3661, -94, -5585, -893, -1129, 3020, -1295, },
			{211, 1609, -673, -1605, 1407, 4974, 1590, -1451, -1854, -5420, -6249, -975, 2477, 4463, 4429, 1411, -1240, 1095, -3792, -4492, -7070, -3117, 1662, 4692, -1350, -5553, -2262, -1247, -2255, -920, },
			{-2924, 1202, -854, -2622, -3789, 3275, -333, -3573, -570, -3142, -1636, 1750, 6550, 6699, 2226, 690, -1786, -484, -3317, -3136, -7272, -4316, -1473, 2501, -3308, -6782, -3264, -3543, -3249, -2880, },
			{-5798, -409, -1278, -1861, 1737, 694, 1925, -366, 2125, -1685, 906, 587, 2387, 589, 2010, 1193, 418, 2084, 1583, 231, -3544, 275, -505, 3822, 2910, -3474, -4880, 757, -2708, -4531, },
			{-2888, -2428, -1289, -1531, -775, -496, -724, 880, 5171, -2068, 4993, 6896, 4035, 1975, 2973, 2109, 523, -1056, -453, -1137, -666, -1581, -1301, 2749, 2459, -5429, -3315, 1664, -5152, -636, },
		},
	},
	{
		{
			{7579, -248, 3537, 202, -6019, -1433, 1362, -3789, -5801, 2922, 5710, 9281, 6211, 7690, 4279, 3046, -70, -3208, -2517, -694, -3717, -354, 2011, -2244, 2936, 4896, 1945, 1546, 1371, 1981, },
			{4484, -6669, 2684, 146, -1712, -4496, -2098, -2518, -3044, 5841, 2745, 5231, 2397, 2178, 1177, -924, -3499, -1894, 260, 4571, 723, 415, 1077, -3561, 2868, 6555, 1053, 2988, 3299, 2571, },
			{5086, -2768, -102, 265, 1730, -265, 1048, -2502, -901, 3137, 1180, 3224, 52, -1609, -4436, -4508, -1017, -303, -3001, 5655, 742, -668, -1044, -3501, 2347, 2774, 995, 4878, 1887, 5591, },
			{10708, 1932, 6101, 3939, 3307, 1507, -42, 647, -184, 2168, -2821, -703, -6570, -8332, -8059, -2256, 1181, 74, 1299, 3674, 1440, 927, -731, -5419, -1584, 3191, 284, 2882, 890, 3116, },
			{5589, -739, 4651, -2787, -171, -7220, -3974, -5227, -2245, 5544, 3468, 1308, -1441, -3054, -3638, -2876, 1051, -4105, -801, 1928, 1590, 2594, -3415, -5510, 421, 3418, 866, 3377, -496, 3292, },
			{3098, 1574, 6233, 290, -752, -4035, -1376, -3176, 5062, 8082, 6229, 3705, 4529, -3862, -3257, -2940, -2150, -1381, 1732, -1658, -4045, -2365, -2332, -4364, -423, 4026, -2523, 4891, -905, 318, },
			{2063, 1713, 1002, -1552, -953, -2091, -6391, -3454, 3754, 6949, 386, 3466, 5754, 1210, -4267, -1787, -3695, 5257, 4578, 440, -3310, 1856, 720, -3482, -2878, 1785, -2961, -454, 1814, 1125, },
			{3908, 3115, -309, 124, 1303, 363, -5479, -3951, -845, 7665, 33, -49, 2556, -814, -3364, -1607, -579, 2750, 1233, 767, -4194, -2214, -4419, -7396, -4795, -171, -3538, -2641, 6029, 4190, },
		},
	},
	{
		{
			{2278, 205, 2228, -1181, -4394, 235, -1128, -283, -2394, -2255, -791, -4199, -3119, -42, 409, 5802, 5715, 1577, 1490, -1435, -1227, 1601, 47, -3209, -1060, 3413, 913, -5618, -4741, -4542, },
			{3858, 109, -1018, -1443, -9230, -3454, 48, -480, -2977, -2696, 1738, -2086, -2666, -1201, -1178, 5821, 4164, 2153, 3013, 99, 239, -2351, -1802, -3191, 1078, 3995, 3785, -4184, -2035, -302, },
			{2261, 2885, 905, 797, -4192, -777, 575, 1955, -1860, -3026, 953, -4447, -174, -1034, -644, 1376, 3090, 3275, 2986, -467, 1512, 156, -1802, -5310, -329, 4303, -418, -1423, -4760, -717, },
			{1272, 2515, 1491, 355, -3212, -2168, 811, 1052, -4139, -1970, 331, -2250, -702, -1791, -5338, -1171, 479, 3911, 735, -1017, 1226, -308, -58, -3837, -2117, 29, -1599, -2535, -5921, -3786, },
			{554, 3000, -1509, -3676, -6065, -552, 2436, 1726, -2900, -2779, 858, -3713, 876, 1284, -4630, -2315, -1651, 822, 1086, 552, 2385, 1348, -1445, 1034, 1299, 1595, 2681, -505, -400, -1194, },
			{2840, 2001, -542, -887, -5022, 133, 2403, 1007, -126, 1986, 4050, -701, -2120, -1054, -7384, -571, -2345, -4544, -772, -4724, 577, 2000, -904, -193, 1244, 1866, 1804, 1712, -1164, -2148, },
			{5682, 6267, 5897, 1652, 1270, 5261, 7961, 4483, 404, 4748, 6613, 2185, -470, -3953, -4942, -4563, -5548, -6285, -2397, -7010, -2082, 4155, 3500, 107, 1066, 1594, 4624, 951, 886, -974, },
			{6552, 7383, 7945, 3239, 1510, 4096, 8383, 4336, 544, 5160, 4693, 4011, -1273, -2482, -2231, -3655, -8354, -7788, -3990, -4523, -25, 1607, 4361, 2280, 6539, 2083, 7287, 7108, 7464, 4663, },
		},
	},
	{
		{
			{-7648, -6993, -3988, -2296, -447, -3807, -2560, -381, 3, -1211, 941, -364, 2567, 2613, -1614, 880, -400, -2253, -4242, -7566, -4943, 74, 1651, 91, 1760, -41, -1921, 26, 4756, 3688, },
			{-9878, -4453, -2743, 1362, -271, -4941, -3327, 718, -1515, -3171, -2157, -3251, -253, 1860, -468, -657, 1465, -1019, -3813, -4709, -2447, -364, 379, -530, -320, -844, -172, 1091, 2616, 843, },
			{-4322, -2455, -3243, -1574, 646, -1865, -1109, 484, 497, -1398, -802, -423, 995, 1108, 1016, 58, 4176, 1325, -2610, -4651, 1041, -788, 1022, 1630, -44, -3272, -1895, -198, 173, 2013, },
			{1869, 1244, 494, 1348, 5249, 335, -1101, -697, 1862, 1376, 989, -481, -60, -156, 2620, 372, 5767, 3709, -1445, -4484, -2854, -2921, 394, 1442, -1361, -2930, -1974, 1964, 2585, 216, },
			{2514, 3535, 4634, 1204, 4625, 2001, 1804, 933, 5339, 2779, 2626, -1508, -983, 87, 3743, 4679, 6475, 1514, 823, -2045, 3278, 2092, 13, -646, -3607, -1391, -144, 575, 343, -1467, },
			{7122, 9421, 3294, 3437, 3636, 425, 24, 1149, -272, -575, -2342, -503, 69, -758, 2197, 3804, 3212, 402, -5099, -3087, 2314, -398, -1503, -897, -2239, 729, -1014, -2007, -904, 1003, },
			{8052, 11430, 5679, 4714, 3332, -1323, -1454, -306, 33, -2042, 1082, -3338, -1040, -2168, -63, 1297, 5358, 3854, -2585, -1780, 243, -807, 99, 292, -661, -535, -2681, -3358, 621, 1068, },
			{9955, 9315, 6217, 4949, 5574, 138, 2001, 2095, 3899, 403, 2685, -911, -272, -3846, -1452, -2137, 3464, 2515, -556, 75, -556, -1669, -195, -702, 2224, 1676, -295, -2309, 622, 438, },
		},
	},
	{
		{
			{679, 1059, -1215, -3965, -6463, -6166, -4160, -8255, -754, -1082, 6069, 1355, 1989, 4267, -1059, -3042, -10633, -7300, -1667, -3649, -3330, -2071, -3337, -8724, -10250, -5064, -271, 277, -1448, 3322, },
			{2939, -3068, -1533, -1219, -4751, -4356, -6189, -8997, -8958, -2532, 2415, 972, 161, 1216, 1256, 1990, -3823, -2914, 2142, 1358, -4460, -3023, 1585, 457, 2666, 840, -1785, 5059, -16, 4739, },
			{5377, -1904, 2597, 1503, -38, 1679, -4212, -5021, -6224, -3314, 460, -1632, -977, 2939, 3855, 1388, -2280, -1488, 116, 2160, -284, 1244, 1289, -1349, -4384, -3513, -2351, 620, -2544, 863, },
			{6325, 3021, 7138, 5133, 2497, 2899, -84, 280, -2483, -4124, -1455, -6533, -4763, 6383, -2056, -1003, -2489, 1018, 4173, 3677, -890, -3163, 699, -286, 971, 3383, 2265, 3759, -6977, -2603, },
			{3828, 1136, 3497, 6057, 5867, 5952, 3832, 411, -5061, -3694, -3755, -5182, -2630, 3741, -1601, -3333, -591, 2606, 4348, -971, -3957, -2164, 6565, 4800, 3344, -2094, 3184, 6185, -534, -611, },
			{5049, 3848, 8086, 5686, 5720, 6645, 2867, 238, 290, 1096, 4288, -3015, -2120, 3352, 1492, -117, 1916, 2859, -63, -2428, 2384, 5921, 6306, -1359, -1315, 581, 6962, 2280, 66, -103, },
			{4459, 4978, 7344, -76, 458, 1242, 1358, 1566, -2014, -1791, 819, -4153, -2092, -19, -728, 129, -863, 719, 914, -2093, -1289, 3240, 4253, 2268, 3875, 2333, 6876, 5088, 5756, -3312, },
			{8475, 3926, 3094, -1416, -223, 2023, -1015, 2359, 1245, -1484, 2376, -2492, -1282, 672, -798, -1617, 269, -1167, -2325, -6960, -6336, 1360, -260, 1694, 2784, 67, 6055, 4505, 6558, -307, },
		},
	},
	{
		{
			{3284, 3034, 399, -2044, -4431, -2864, -141, 2873, 6411, 4983, 5571, 7588, 7011, 7551, 2428, 2955, 6475, 7105, 6221, -1394, 1516, -6845, -12448, -7422, 1300, 2775, 1427, -2792, -4798, -3015, },
			{-411, -1297, -3521, -3833, -8222, -3226, -1174, -2844, -2700, -3596, 3016, -1449, 1689, -928, -2422, 1403, 2132, -1244, 515, -7258, -4953, -5977, -10694, -5993, -1120, 2066, 565, -953, -5552, -819, },
			{1688, -1585, -18, -1124, -4666, -2431, -968, -5324, -4159, -4056, 1771, -1948, -5040, -2054, -1235, -1881, 786, 1827, 7295, 371, -2760, -4330, -7710, -5155, 984, 2221, 1271, -882, -4633, -1866, },
			{27, 3347, 1327, 36, -4521, -1332, -1716, 1660, 896, 68, 2692, -855, 457, -1409, -2394, -806, 6369, 2711, 4607, 2752, -967, -865, -9248, -4299, -746, 4380, 3940, -1191, -5834, -2006, },
			{2064, -70, -1503, -1551, -1040, -1518, 438, 721, -453, -743, -1855, -3024, -4102, -7085, -2436, 1883, 1633, 3735, 6441, 5746, 3889, 2554, -727, 446, 814, 3408, 2943, -201, -3910, -382, },
			{6023, 1665, -1210, 2285, -1512, 966, 722, 532, -1122, -3449, -3569, -6671, -7332, -9668, -8983, -4921, -134, 2971, 3059, 5898, 7002, 5538, 1982, 2219, 7221, 5123, 4163, 170, -982, 1857, },
			{7056, 6176, 1096, 3023, 4118, 2755, 1093, 712, -1194, 264, 157, -4662, -5270, -2623, -4442, -868, -38, 390, 7761, 11172, 9606, 4251, -3512, 2350, 6123, 4198, 3166, -339, -2740, -1456, },
			{6905, 5255, 4161, 2331, 4584, 4322, 4982, 373, -2873, -3659, -24, 538, -1453, -3036, -974, -5284, -5595, -4721, 2678, 7278, 6547, 775, -8389, -648, 2801, 1088, 3054, -280, -1328, -14, },
		},
	},
	{
		{
			{-2417, -1307, -1666, 416, -560, -3122, -1660, 572, -1441, -3891, -2292, -3759, 1310, -72, -2733, 869, -595, 588, -1535, 737, -3539, -5856, -6423, -7345, -6576, -5155, -2355, 229, 1674, 5663, },
			{-3015, -1374, 706, 1798, 1341, -2382, 678, 602, -1559, 601, -3139, -2582, -2282, -4979, -4224, 1772, 875, 1751, -3493, 1732, 625, -4564, -4328, -3743, -3094, -3797, -608, 1518, 4449, 5124, },
			{-1221, -74, 2635, 5115, 3785, 1617, -39, -1766, -3035, 650, -367, -2293, -2167, -3976, -1968, 669, -2383, -3042, -6352, -1652, -5089, -6564, -5902, -4690, 271, 496, 141, -302, 6043, 6554, },
			{42, 1259, 402, 1384, 2163, -1298, -2211, -2546, -2584, -1123, 2265, 536, -133, -182, -478, 2195, -4706, -1943, -2506, 1100, -4251, -7911, -2872, -2316, 3235, 3633, 909, -342, 5015, 5263, },
			{2136, 274, 3, 3420, 895, -119, -1468, 778, -3927, -1511, -1518, 3391, 1765, 40, -214, 3862, 683, 551, -2354, 2092, 804, -3533, -189, -2173, -1457, 416, 3565, 1072, 4228, 6531, },
			{3256, 156, 2829, 1124, -55, -1679, -1680, -521, -2296, 1405, -245, 2018, 2764, -2431, 1107, 4013, -3709, -2056, -3255, 496, 1509, 213, -72, -1582, -759, 1552, 2942, 682, 2726, 4133, },
			{5772, 5207, 5196, 1872, 1260, -1000, -2745, -2403, -1635, 1818, 1407, 232, -1394, -3584, -1878, 1789, -3880, -1544, -2099, 826, 3024, 2981, 36, 930, 6428, 4784, 1604, -906, -1690, 1237, },
			{9597, 3973, 4469, 3460, 7, -1538, 1249, 4423, 2039, 4176, 2355, 1897, -2828, -1605, -1988, 2502, 1338, 272, -3782, -2508, -871, -1210, 6827, 5612, 6965, 7460, 2587, 2586, -402, -1378, },
		},
	},
	{
		{
			{4140, 823, -24, -12, -2848, -2426, -2897, -4337, -1595, -1024, -552, 1738, -1904, -4874, 282, -2351, -2406, 4132, -28, -1220, 774, 395, -4292, -2221, 699, 6589, 3483, 7192, 5692, 4664, },
			{9354, 4672, -955, -3395, -2449, -4438, -6217, -6059, -2091, -3402, -3607, -2125, -4062, -2857, -6455, -7766, -8626, -3748, -3962, -4157, -2451, -4278, -7369, -4516, -2411, 2169, 480, -159, 2900, 723, },
			{7406, 5826, -1348, -6694, -5611, -7870, -4536, -4835, 1433, -1245, -1451, -561, -97, 3001, -2851, -6858, -6446, -2726, -522, -190, -492, 1039, -5729, -1034, -757, 2984, 2704, 803, 2673, 88, },
			{6497, 4942, 4176, -322, -1548, -4653, -3439, -6794, 207, 1928, -150, 1733, -2443, -741, -1896, -2601, -402, 2670, 5319, 4680, 82, 5345, -2490, -1017, -2179, 1650, 192, 3367, 3687, -1869, },
			{11144, 13602, 11599, 1857, -3490, -1965, 1309, -2818, 822, 3228, 2678, 2244, -77, -313, -1226, -2902, -1402, 371, 1665, 1577, 4099, 711, -2300, -1437, -600, 1821, 215, 156, 1522, 215, },
			{9284, 16367, 12528, 3595, -6925, -2708, -695, -2993, 1662, 3458, 1653, 1010, 439, -623, -4807, -5751, -2678, -171, 3949, 6134, 3184, 1788, -4327, -3978, -3515, -442, -1266, -3202, -2489, -564, },
			{7772, 8907, 9548, 10738, 693, -1462, 1217, -435, 3720, -2563, -943, 2237, 1082, 993, -3621, -1720, -2046, 1930, 3670, 4131, 942, 940, -3534, -5131, -7255, -1643, 383, 100, 1739, 2051, },
			{1749, 3904, 1068, 5723, 4573, 4937, 8299, 2381, 6431, -526, 367, 2772, 4543, 3983, 3364, 171, -995, 236, 3428, 1453, 250, 1660, -2431, -940, 362, 2981, 2941, 4413, 5591, 5034, },
		},
	},
	{
		{
			{3767, 4358, 1102, 4466, -1385, -1875, 1069, 6421, 2733, 713, -2499, -6410, 951, 2514, -774, 2813, -3968, -2709, -312, -16, -5657, -630, -199, 3765, -218, 758, 1405, -84, 1357, 1659, },
			{4310, 8303, 2421, 3376, -2229, -1959, 2821, 3419, 4772, 1149, -774, -5527, 32, -1036, 1018, 725, -7000, -3355, -4119, -182, -3813, -2652, -1260, -3747, -1390, -4521, -2846, -4447, -4986, -2802, },
			{938, 3574, 1510, -405, -1964, -342, 2892, 3088, -692, -3948, -1465, -4894, -145, -5039, -953, -3414, -4522, -3460, -2598, -2949, -7001, -4971, -2010, -984, -3665, -4344, -738, -6260, -1819, -3025, },
			{1882, 4067, 974, -6175, -3621, -860, 2075, 4341, 2405, -2905, -1697, -974, 857, -4579, -2197, -6148, -4681, -4176, 832, -44, -4201, -415, 182, 7214, 2071, 3075, -808, -829, 673, -235, },
			{1240, 5006, 438, -6103, -4543, -4688, -2294, 4846, 987, -1678, -1068, -1719, -2544, -3166, -1707, -5824, -3521, -910, 2714, 3730, -1275, 1258, 285, -3535, -2599, 1624, 2499, 4352, 3764, 269, },
			{807, 923, 383, -1051, -3829, -1268, -198, 4626, -2531, -3855, -5061, -3742, -981, 1120, 1405, -7646, -7030, -4430, -1727, -3213, -8097, -3857, -3047, 209, -3812, 3588, 6597, 4567, 1399, 4713, },
			{5314, 2923, 1558, 3988, -1933, -1819, 107, -295, -2688, -2674, -5296, -1939, 1212, 4739, 2827, -5131, -3095, -402, 1796, -1240, -1609, 2832, 402, 2026, -173, 1140, 5276, 5188, 2856, 8738, },
			{1760, -1143, 7218, 6410, -3379, 930, -2032, -2758, -2846, -809, -197, -3226, 3362, 4354, 3832, -4195, 656, 1982, 5211, 1590, 2109, 5779, 4208, 3692, 22, 1266, 3807, 6761, 3039, 3189, },
		},
	},
	{
		{
			{-455, -883, -1549, -2200, -1081, -2018, -3723, -5930, -3742, -408, -1834, -4617, -4074, -1465, -6089, -2748, -2269, -2036, 588, -1066, 227, 866, -1052, 1678, 4382, 6432, 3816, 4365, 3690, 6493, },
			{-5500, -3702, -3184, -873, -1129, 1889, -1011, -1466, 368, -77, -998, -952, -2709, -2210, -5693, -3720, -2573, -5918, -2327, -1348, -877, 786, -1051, -2449, 372, 2653, 722, 4581, 4664, 5440, },
			{-4857, 449, 2466, 3165, 1100, 2047, -246, -1352, -2087, -1804, -622, 936, -1140, -14, -3365, -2062, -1740, -5900, -2604, -264, -1952, 624, -1818, 424, -690, 5081, 4750, 3174, 5226, 5005, },
			{-5574, 99, 1984, 4200, 3618, 2621, 875, 1229, 2159, -316, -2405, 2566, -733, 68, -1258, -1909, 159, -2436, 3102, 287, 2343, 2341, -1688, -1132, -2657, 383, 848, 600, -157, 5147, },
			{-5705, 413, 3316, 3176, 641, -3137, -175, 1234, 1506, -2636, -1471, 1856, -749, 475, -988, -1635, 1924, 492, 2168, 3828, 4133, -958, 411, -2530, -2512, 5, -765, 2131, 554, 2856, },
			{-5401, 398, 2621, 3392, 205, 1020, 2018, 3173, 3640, 998, 3226, 2136, -3954, -1440, 269, -552, -806, -1453, -1256, 1097, 1260, -2246, -4350, -5374, -3101, -2943, -1070, 1344, -1202, 249, },
			{-1425, 45, 706, -762, 2467, 2899, 3155, 2470, 5012, 2408, 4433, 3892, 630, -1337, 493, 3348, 4742, 1644, -56, 532, -142, -3514, 114, -7391, -7705, -7261, -5196, 261, 1017, 4258, },
			{690, 2104, -149, -1283, 3724, 3357, 765, 2493, 5359, -33, 1774, 1414, 2009, 1663, -2836, -1523, 4087, -971, 2840, -1293, -2319, -2972, 2547, -88, -3258, -4256, -3569, 3725, 3838, 4958, },
		},
	},
	{
		{
			{5185, 5111, 4855, 2822, 4529, 1528, 3725, 4922, 3770, -710, 2581, 3196, 4290, 5193, 4794, 3384, 2377, 586, -1609, -3261, -710, 2949, -603, 1450, 1867, 4908, 4953, 7573, 354, 25, },
			{1341, 1113, -290, -1470, 399, 2932, 1975, 4784, 4206, 2672, 2347, 5203, 3568, 1211, -2297, -3737, -3269, -5893, -6298, -3756, -1156, -161, -705, -2534, -3524, -745, -4549, 1551, -4290, -3137, },
			{1025, -1465, -3177, -4389, -2046, 842, 2254, 1650, 1792, 972, 717, 421, 2548, -3747, -7510, -9899, -8529, -8637, -7927, -3157, -1274, -3966, -5077, -4867, -3091, -252, 1776, 2301, 719, -3019, },
			{-819, -1794, -2575, -2377, 1150, 3774, -2652, -1402, 2934, -22, -643, -1349, 1998, -1595, -2857, -6305, -5444, -2872, -1651, -2519, -577, 282, -1866, 4276, 1020, 1643, 2229, -1221, -2722, 685, },
			{-2529, -98, -3224, -9149, 1775, 1148, -1699, -5113, -758, -5968, -3085, -2382, -5410, -7061, -2110, -1211, 122, -538, -470, 1898, 3301, 2323, 4480, 716, 865, -1506, -3388, 2466, 626, -1854, },
			{2075, 2353, -229, -6970, -321, -737, -931, -3640, 2963, -3349, -5560, -5237, -2041, -1554, -2431, -2628, 1445, 413, 3626, 857, 557, 2451, -2144, -3315, 474, -239, -2315, 1554, -1964, 423, },
			{6242, 2590, 869, -5186, 3107, 3924, -253, 118, -860, -2375, -6108, -6872, -55, 1406, -8739, -6452, 3300, 4045, 3486, 753, 436, -893, 2500, 4094, 3915, 2370, 2682, 7066, 4940, 7157, },
			{6888, -695, -344, -5061, 2898, 1006, -3047, -4940, -1268, -1301, -2508, -1817, -306, -1517, -4266, -4946, 4562, 1531, 6896, 4403, 1976, 4517, 6123, 3385, -766, 3003, 6476, 7311, 8031, 2891, },
		},
	},
	{
		{
			{8470, 6568, 3358, 1180, 2763, -1111, 2427, 4168, 1744, 134, 5449, 7047, 3344, 3797, 1333, -4463, -5105, -3446, -1656, -1721, -1678, -1198, -1756, 2330, 2844, 507, -1735, -54, 1845, 3019, },
			{4405, 3008, 4105, 2628, 1754, 2018, 871, 2989, 2767, 2367, 3633, 8157, 3489, 3157, -305, -4841, -13361, -11693, -6765, -1785, -162, 2264, 509, 3215, -1135, -1469, -4029, -2000, 1642, 1778, },
			{4398, 4671, 1801, -2354, -206, -448, 346, 1122, 2394, -434, 2232, 1015, -2331, -2449, -8462, -9414, -13543, -11789, -8588, -4081, 966, -1937, -2377, 3, -913, -1657, -2804, -2852, -188, 3250, },
			{5355, 4350, 2947, 1433, 1108, 3870, -1106, 1472, 2334, 2366, 6237, 2752, 399, -5817, -6979, -2001, -5851, -3783, -328, 331, 2723, 3651, 1408, 3580, 407, 1490, -93, 1383, 2210, 1766, },
			{2229, -3000, -3591, -5768, -244, -377, -4943, -2992, -4395, -3138, 84, -369, -3612, -9382, -2192, -1003, 420, 4582, 5030, 5678, 7364, 2610, -2688, 827, -1945, 3761, -421, 456, 2043, -2013, },
			{4304, 1188, 242, -4641, -1315, -5214, -5220, -3906, -3324, -7712, -5584, -6323, -4717, -7493, 290, 487, 3862, 3408, 9537, 7256, 7617, 1776, -3440, -2454, -3374, 489, -4631, 215, 628, 2365, },
			{6058, 3745, -546, -3901, -135, -1615, -2676, -723, -1074, -2291, -4134, -4703, -5784, -8664, -1830, 3209, 1803, 1022, 4792, 9573, 10049, 1309, -7675, -4841, -1152, -4762, -4145, 2560, 1471, 5638, },
			{6676, 3210, 1038, -4285, -1399, -335, 829, -213, -2393, 1970, -1166, -196, -3529, -6058, -1561, 4567, 918, 3085, 11750, 14343, 11581, 6559, -3159, -663, 2697, -1561, -3337, 4929, 7562, 2169, },
		},
	},
	{
		{
			{2811, 2328, 1115, -1595, -4777, -5574, -3727, -1920, -3435, -3131, -2739, 1292, 3038, 3427, 654, 311, -892, -2472, -4148, -4076, -1391, -2967, -444, -1898, 1617, 221, 1062, 2050, 1838, 786, },
			{1968, -24, 1563, -2709, -4543, -5554, -3868, -3088, -1314, -1631, -2423, 1465, 3469, 2281, 3353, -1339, -3546, -2718, -2666, -1560, 1890, 2316, 6953, 1950, 291, 152, 32, 4844, 6728, 989, },
			{7027, 553, 3719, 468, -2978, -5386, 58, 1840, 1343, -31, 2797, 1904, 4453, 4537, 3498, -112, -6489, -8024, -6776, -7, 1936, -1052, 1520, -674, -1971, 3763, 236, 6995, 8953, 6544, },
			{9667, 2835, 1925, 2298, -3597, -3495, -1618, 1259, -1143, -689, -928, -1320, 1456, -1387, -384, -806, -4614, -5819, -6697, 2800, 6257, 4274, 5029, 889, -3474, 1243, 3276, 4787, 4285, 2311, },
			{2776, -1727, -1245, -3473, -2438, -6696, -2138, -1686, -422, 1728, 2578, 4833, 2123, -1658, -6192, -9591, -7154, -6255, -2719, 1048, 6228, 6560, 2507, -7006, -7757, -6203, -3564, -2999, -3516, -5716, },
			{2307, -3723, 1913, -3066, -1374, -2144, 251, -53, 2913, 6278, 6800, 5914, 1986, -3414, -3306, -8339, -8455, -6572, -1302, 1205, 6815, 6506, 4369, -4320, -2130, -1357, -1352, -1393, -2373, -4621, },
			{6509, 1380, 3640, -3621, 664, -489, 1579, -210, 3625, 7393, 1547, 3373, 110, -1206, -3303, -3974, -4660, -3582, 2147, 5230, 10803, 7504, 6303, -582, -326, -4088, 48, -1188, 980, 39, },
			{6667, 922, 2335, -1359, 1135, 2020, 2521, 1079, 4010, 7516, 5644, 4513, 2265, -3381, -6730, -4045, -3922, -2337, 2014, 5409, 7347, 6978, 4541, -1640, -798, -1056, -1656, -1701, 911, -2455, },
		},
	},
	{
		{
			{-2372, 1895, -182, -1376, -3861, 1951, 4524, 1346, 2203, 2353, 2484, 2614, 338, -176, -2237, 8239, 1270, -4292, -2226, 318, -4752, -1661, 3261, 3839, 2402, 1436, 853, -3696, 2477, 892, },
			{-303, 2099, -5546, -4383, -2099, -890, 755, 5932, 2766, 4248, 144, -34, -1110, 1706, 258, 1065, 3307, -4599, 1788, 1627, -3209, -2427, 1441, 877, 3512, -1414, 3405, -4809, -2783, -2988, },
			{4293, 1621, -1717, -3075, 1447, -676, 2160, -1732, 1610, -4483, -4109, -4676, -4440, -4203, -532, -2643, -3089, -3288, -1394, -1063, -2071, 802, -994, -2753, 1488, -3435, 45, 318, -125, 416, },
			{-983, -358, 1370, 59, 2886, -3128, 1034, 337, -641, -6076, -2052, -2897, -4911, -1649, 2021, 3428, 4797, 238, 2988, -2905, -1412, -3790, -2984, -5782, -2175, -8090, -1342, 2310, -8090, -1559, },
			{-1075, 7920, 5958, -556, 6030, -1751, 4899, 3618, 4974, -565, 2025, -194, -1723, -3159, -1693, -112, 3209, -1431, 4767, 4363, 3251, 2881, -1584, 178, 7409, 3725, 5240, 4480, -2013, -2504, },
			{-5854, 7261, 2836, -2083, 3259, -4471, 6217, 3737, 9601, 231, 2307, 1570, 749, -2872, -968, 3215, 2845, 2624, 5024, 4647, 4678, 4448, 715, -3110, 5328, 7213, 6019, 5981, 839, 116, },
			{-4090, 4072, -985, -1248, 579, -4083, -2476, -1896, 8661, 3965, 7031, 7215, 2145, -4043, -7432, -3396, 1305, 5333, 5104, 2268, 935, 3623, 1386, -2320, 1622, 3394, 4560, 1016, -909, 526, },
			{164, 5102, -3460, -6867, -6050, -7851, -4733, -3506, 8539, 8445, 9964, 9765, 3450, -3064, -5572, -2384, -4237, 1738, 3710, 1211, -756, 874, -1341, -4655, 1416, 2714, 5058, -1874, -335, 842, },
		},
	},
	{
		{
			{2522, -685, 3298, 3886, 1655, -638, 236, -576, 476, 748, -1142, -1628, -3289, 229, 2148, 794, 2698, 900, -21, -4483, -2652, -23, -308, 3499, -2349, 20, -490, -2099, -172, 10, },
			{3266, 1890, 3229, 2466, -90, -3562, 2693, 562, 1330, 1180, -264, -855, -1568, -733, -1843, 349, -3334, -2359, -2491, -4367, -8063, -1381, 452, 2459, -4895, -466, -558, -1641, 1286, 3564, },
			{1075, 846, 727, 1350, -851, -5430, -406, -199, 1257, 151, -995, -2802, -1395, 397, -811, -909, -4377, -1456, -749, -1492, -3667, 1395, 327, -173, -3356, 1476, -464, -4174, 776, 1791, },
			{-251, 1993, -186, 987, 618, -3473, 1438, -212, 1416, 1659, -930, -56, -1655, -466, 3734, 3465, -2325, 2197, 2503, -471, -3049, -2299, -231, -1963, 1162, 3385, 3401, -689, 406, 297, },
			{3255, 1474, 564, 2288, 401, -5534, -3126, -3929, -175, 1713, 93, 491, 1377, 3186, 4539, 1685, -463, 2677, 4041, -2517, -2078, -984, -2155, 1759, 1463, -991, -788, 511, 600, 687, },
			{5004, 5501, 2324, 1834, 833, -2625, -566, -2494, -12, -2192, -1093, -94, 3259, 2224, 5404, 2692, -3299, -2965, 1811, -2925, -43, -229, -3596, -1961, -2920, -248, -775, -2756, -777, 1122, },
			{3460, 5541, 7233, 2231, 2102, 847, 1523, -809, -325, 314, 1139, 467, 2231, 5033, 6871, 1932, -1826, -2095, 3419, -1991, -1652, 3341, -157, -2771, -2356, -2045, -638, 180, 2129, 4289, },
			{4941, 5749, 5181, 1225, 94, -913, 1585, 455, 1314, 1819, 1477, 1945, 7650, 6258, 8093, 3371, -112, -457, 841, -593, -1526, 1350, 2456, 2522, -340, 1509, 428, 4717, 4210, 5421, },
		},
	},
	{
		{
			{-5614, -4120, -4010, -4367, -6296, -6930, -922, 263, 715, -3233, -3238, -2510, -6806, -9842, -12260, -9391, -3782, 4380, 2986, 2662, -1053, -3332, -7723, -11464, -1762, -4328, -876, -1609, 2383, 2466, },
			{-3337, -3763, -2763, -4368, -5426, -2055, -4234, -2280, 166, -1288, -1501, -4577, -7667, -4883, -7949, -7685, -6044, 6407, 4871, 1639, -711, -1914, -7814, -8957, -2378, 785, 893, -934, 4220, 5087, },
			{-3222, -2327, -5297, -2032, -1038, -3424, -6907, -2090, -1434, -970, -3365, -1922, -1623, -2179, -1603, -1242, 2003, 6669, 3480, -1209, -1574, -6677, -6108, -5662, -906, 398, 3996, -198, 587, -1, },
			{-4379, -2144, -5810, -1047, 1250, 1548, 1215, 2727, 2611, -988, -3049, -5690, -8465, -1743, -1747, 2776, 3014, -382, -5183, -7863, -3296, -7608, -8390, -9651, -2131, 647, 1412, 1585, 3075, 1471, },
			{-4396, -7451, -10371, -3697, -637, 3164, -446, -3070, -827, -2307, -6588, -8126, -9415, -3412, -858, -2744, 1430, 1912, -1250, -4882, -1468, -4335, -7128, -5621, -3456, -68, 1144, -1000, -1234, -1566, },
			{-1602, -337, 3581, 7834, 7703, 10291, 5696, 6171, 3261, 95, 2338, -773, 451, 4152, 5446, 5702, 8378, -1214, -6378, -1641, 453, 4006, -135, 2928, 1943, 5725, 850, -998, 7358, 8903, },
			{-5163, 1570, 6078, 5205, 3940, 10342, 7534, 5562, 6545, 2655, 5828, 2590, -3398, 705, -381, 9192, 3905, -2790, 222, 5716, 6737, 7924, 5491, 2022, 4137, 5875, 2486, 422, 9629, 11502, },
			{-2524, 5123, 8260, 2936, 1406, 4013, 4336, 10084, 7387, 2879, 3523, 3186, 1174, -65, 2519, 2239, 5056, 2303, 2317, 11057, 8906, 10009, 3280, 104, 1846, 4974, 4309, 3481, 10753, 13590, },
		},
	},
	{
		{
			{1940, -720, 2566, 1150, 1089, 5221, -796, 2971, -1045, -614, -947, -1733, -7730, -3697, -2912, -1321, -3480, -7343, -6875, -3270, -5386, -4745, -432, -3740, -3727, -3267, -2459, -2133, 8048, 6999, },
			{-4774, -292, 180, 1402, -1764, 1778, 710, 2041, -1482, -3098, 1544, 960, -5373, 483, -621, -1359, -3413, -4529, -4146, -1070, -7535, -8658, -9422, -10636, -7095, -3941, -591, -5385, 1409, 208, },
			{-2775, -2586, -1220, -643, -4064, -1048, 1800, 1620, 652, -5340, -2114, -441, -1742, 2510, -1081, -2255, -1615, -2545, -952, -4566, -7707, -5952, -8176, -6234, -157, 82, 3132, 557, 3000, 3540, },
			{-2390, -101, 510, 1605, -4736, -5493, -1443, -2274, -2307, -3933, 1187, 1330, -321, -542, -490, 2793, 553, 340, 4074, 3196, 1739, 1495, -4121, 205, 4053, 5183, 5562, 6714, 3958, 2266, },
			{-3822, 2570, 2560, -251, -4402, -4525, -2639, -1196, -224, 1480, -729, -2424, -1811, 463, 970, 4147, 3422, 3820, 3940, 2530, 1519, -1396, -4062, 960, 4274, 4253, 8614, 2955, 2320, 900, },
			{-2427, -1155, 1440, 1759, -2787, -3018, 1805, -1314, 165, 1853, 1599, -2242, -1716, -4068, -524, 3784, 775, 589, -2117, -2281, -4160, 249, -1546, 3880, 7176, 5039, 4908, 1020, -327, 37, },
			{2860, 2335, 1538, 850, -2052, -1876, -757, -2260, 382, 460, 3599, 1005, -1938, -3767, -182, -1131, -163, -1551, 1216, -914, -2074, -731, 2767, 4967, 6765, 4039, 1911, -177, -1461, -2172, },
			{3882, 3522, 1903, 5835, 1226, -431, 2419, 1559, 3309, 2683, 5611, 2449, -1148, 1716, 1105, 3582, 6640, 6303, 8463, 3587, 3833, 96, 4177, 8327, 16843, 10930, 1458, -3929, -8057, -5382, },
		},
	},
	{
		{
			{337, 3895, 2638, 4487, 8125, 4943, 3050, 4522, 6387, 3632, -99, -295, 8125, 1974, 2418, 2629, -775, -3664, -5244, -7291, -6987, -5767, -6992, -9904, -8687, -3746, -1659, -4282, -2172, -27, },
			{801, 2256, -2758, 3712, 9603, 4227, 2333, 3991, 5132, 1683, 3597, 4665, 10102, 5309, 6211, 7619, 5670, 5576, 4235, 2634, 3540, 1907, -3825, -2845, -5101, 2104, 1586, -5002, -2641, -1839, },
			{-323, 29, 625, 867, 3555, 1972, -742, -195, -1763, -1227, 5500, 6204, 4383, 1811, 3392, 4203, 1182, 2035, 1296, -2929, -2104, -3785, -3615, -2619, -3264, 3208, 1577, -3719, -3725, -3166, },
			{-1333, -1528, -1928, -2691, 732, -4250, 304, 718, -963, -3570, 366, 3279, -767, -2132, -5633, -6183, -2611, -3918, -682, -5619, -6823, -4113, -3901, -1581, -996, 1945, 3020, -1438, -2777, -4850, },
			{-2960, -4662, -1917, -3587, -4029, -4070, -1531, 2604, 3719, -2996, 1702, 1598, -881, -1524, -3081, -1765, -229, -442, -2780, -1363, 302, 4904, 4862, 2612, 646, 1995, 5446, -457, -2133, -1880, },
			{-4580, -5856, -4660, -5070, -1964, -4429, -2060, 2141, -425, -3232, 524, 449, -1684, -233, -3475, -5588, -110, 1022, -2337, 1406, 3932, 5182, 5253, 956, 324, 2848, 9774, 844, -1704, -405, },
			{-386, 1314, -526, -1842, 1849, -2382, -1610, -273, -3381, -7605, -2728, -1452, -5766, -2084, -5884, -10502, -2816, 1775, -348, 1655, 6352, 6320, 6122, 5338, 3207, 6652, 11102, 1245, -2911, -1669, },
			{-2314, 1485, -368, -3129, -101, -6184, -288, 1594, 1078, -6038, -2934, -2746, -3049, 515, 2404, 1777, 2766, 7050, 10898, 10759, 9336, 7345, 9870, 7380, 3246, 2207, 3991, 233, -3438, -2628, },
		},
	},
	{
		{
			{3976, 3997, 5223, 2961, 2228, -1828, -4747, -1402, -16, -152, 2860, 1239, -1634, 1334, 2234, -2264, -1080, -2046, -3489, -1435, 361, -1034, -2676, -2358, -400, 2854, 4618, 1137, 3061, 5397, },
			{-980, 2017, 73, 552, 1017, 3402, -661, 2501, 1714, 2201, -1411, -1978, -381, -1185, -1945, -7043, -3837, -2556, -5938, -580, -5179, -4685, -4246, -2412, 844, 3542, 3960, -928, 815, 2023, },
			{1597, -4031, -2016, 4207, -2541, -443, -235, -1031, -470, -41, -2207, -3415, 145, -910, -1556, -4253, -1400, -2182, -5389, 152, -4457, -4322, -7721, -3274, 783, -180, -2375, -1618, 1718, 797, },
			{4920, -1, 1292, 1593, -2614, -916, -4730, 105, 323, 400, -437, -1670, -144, 2722, -919, -2752, -1435, -2326, -268, -998, -1864, -1345, -5162, -706, 1070, 641, -3100, -1698, -1819, 80, },
			{1770, 1045, 1674, -3139, -3050, -485, -1017, -634, -2308, -3101, -2942, -1662, -2183, -1610, 1505, 219, 4731, 1173, -2783, -911, -2869, 3368, 1095, -617, 36, 2738, -3846, 632, -1090, -2649, },
			{2933, -1784, 2007, -2938, -1189, -6347, -1584, 1556, 3095, 1044, 575, -2265, -1499, -1375, 7, 4795, 4595, -1222, -4880, -622, -2235, 2603, -100, 1336, 1423, 3525, 876, -343, 1064, 1713, },
			{6421, -584, 38, 163, 601, 2491, 2187, 2660, 2265, 1720, 3730, 643, -174, -2096, -4609, 155, 3045, -560, -3031, -1719, -2806, -1761, 957, -1546, 2251, -663, 61, -1263, -1636, 2383, },
			{5596, 767, -216, 345, -327, 4311, 2901, 1147, 1591, 2290, 5586, -1909, -1071, -1730, -5307, -644, 5988, -1248, -713, -3379, -3558, 410, 2361, 2180, 3933, 5544, 8296, 2858, 5708, 1856, },
		},
	},
	{
		{
			{3105, -2696, -1085, -4406, 4814, -3262, -742, -2090, 1797, -1479, -313, 5485, 5735, -1275, 1674, -2468, 402, -2853, -1345, -6444, -1509, -4360, 1576, 3450, 629, 2419, -1341, -2847, -1287, -1677, },
			{7510, 1864, -1140, -2514, -2141, -455, 1181, 1386, 3137, -1746, -1667, 5701, -4888, -1179, -2023, -5614, -6510, -1604, 1970, -3957, -1607, -344, 399, 1171, 4130, 2070, -85, -2565, 2507, 4521, },
			{10511, 1945, -1293, -3741, -3421, -9460, -4951, -390, 4988, -1922, 5, 4282, -4680, -874, -2077, -412, -4539, 436, 4896, -204, -4662, -2187, -2112, 356, 4624, 1150, -117, -2575, 5410, 3279, },
			{9946, -702, 1190, -2091, -3929, -6059, -8943, -5796, -3239, -892, -6752, -1877, -214, 2117, 900, 0, -2055, -3989, -3268, -2284, -3728, -1498, -3765, -2454, -1063, 775, -2303, -5214, 1085, -1838, },
			{11974, 5836, 6824, -1214, -3681, -6292, -6650, -3260, -4653, -1120, -2459, -3526, -5357, -3937, -4115, -7180, -3055, -2827, -7818, -2376, 2649, -2721, -4503, -3752, -5406, -1273, -3172, -757, -811, -976, },
			{10512, 7122, 5302, 2816, 2782, 450, 882, 1501, 4666, -616, -3298, 4891, -5171, 2000, 2959, -3857, -7880, -838, -128, -7200, 508, -862, -3267, -2189, -5662, -3277, -3355, -5477, 2028, 3410, },
			{7473, 1732, 2550, 896, 4298, 45, 767, 539, 3220, 484, 2057, 3830, -1636, 2949, 1710, 2561, -2550, 235, 3366, -4703, 1776, -2191, -4074, -5288, -4140, -3522, -4126, -6372, 3610, 532, },
			{532, -4399, -496, -2356, -414, -439, -4874, -4455, -2357, -2137, -4818, -986, -264, -1858, -710, -1087, -2039, -2192, -361, -2270, -539, -97, -7855, -5550, -5186, -2733, -4571, -8416, -5847, -872, },
		},
	},
	{
		{
			{5200, 178, -64, 590, -1910, -2582, -1525, -1642, -263, -697, 1118, 2017, -718, -3848, 1652, 1368, 837, 367, -2567, -3773, 1846, 2439, -11, -34, 6756, 3293, 4497, 3466, 1148, 286, },
			{2157, -1632, -1202, 430, -5586, -4352, -3767, -2910, -1731, -2881, -1183, -3315, -3055, -1724, 9, -1989, -1724, -3150, -3146, -7658, -2184, -3622, -2658, 901, 6744, 7986, 8849, 7225, 6496, 3262, },
			{4615, 1071, -749, 407, -2157, -2269, -2416, -2203, 1688, -3746, -2787, -377, -1453, -602, -3431, -426, 1379, -4478, -3168, -7509, -1624, -608, 142, -2301, 4250, 7318, 6713, 4017, -155, 3130, },
			{7538, 80, -848, 3786, 729, -1396, -4145, -3473, 154, -396, -3703, -567, -3791, -6321, -5999, -1538, 378, -312, -5402, -5174, -1182, -268, -1463, -7855, 396, 2459, 3548, 4462, -1421, -560, },
			{4170, 979, 945, 2579, -154, -3424, -832, -6578, -2766, -188, -2286, -2117, 197, -5292, -3726, -1274, -587, -1313, -2646, -2439, 4433, -1253, -1075, -5575, 584, 2217, 4579, 6533, 619, 268, },
			{6367, 2019, 1470, 4336, -233, 1035, -462, -2863, 1254, -854, 2017, -470, -1734, -2375, 706, 2148, 436, -2573, -16, -275, 893, -3395, -997, -4856, -5092, -5360, -1614, 4429, -1323, -2465, },
			{4619, 888, 3466, 9222, 5279, 2708, 4552, 3200, 3786, 2136, 2771, 3940, 1165, 893, 3855, 5868, 1809, -384, 5236, 3808, 62, 1614, -332, -4836, -10006, -6163, -2733, 267, 1168, 3143, },
			{-2398, -2877, -2487, 5762, 5567, 3819, 6769, 4233, 2917, -148, -1161, 4284, 951, 1722, 5238, 4170, -3609, 492, 5305, 5282, 2839, 1182, 1907, -6404, -7201, -5806, -4585, 1464, 3277, 4206, },
		},
	},
	{
		{
			{803, 203, 3884, 3581, 3806, 109, -3772, -3731, -2572, -1186, -1205, 586, -574, 1414, 628, -50, -584, -930, -5598, -10464, -8976, -3396, -1887, 589, 843, 589, -2115, 3970, 2531, -825, },
			{-255, 1798, 8521, 12185, 12017, 4816, 2359, -435, -2299, -3699, -1972, -5644, -6017, -400, 3787, 1169, 436, 1262, -1071, -6460, -3836, -1128, 1223, 2459, 1471, 2226, 480, 5627, 2731, -1739, },
			{410, -153, 5939, 7460, 8750, 5969, 950, 367, 620, -3460, -4145, -7115, -8988, -3569, 1171, 2053, 3219, 1374, -1510, -5800, -3562, 1408, 257, 3769, 1982, -512, 2708, 3666, 3139, 4491, },
			{-1800, -637, 1005, 6275, 9688, 6676, 3642, 4277, 4055, 1315, -6273, -6693, -4877, -3457, -1476, 573, 4945, 3817, -4933, -3437, -5210, 895, -2640, -2447, -943, 944, 2981, 4911, 3821, 2042, },
			{-5869, -3142, -183, 3013, 6183, 7247, 7251, 4105, 2532, -235, -7351, -7585, -3461, -2277, -1469, -291, 348, 3943, 466, -2578, -2553, -579, -2129, -3583, -1059, 65, 2604, 6273, 3688, 3819, },
			{-3700, -1805, -2621, -3182, 2010, 9076, 6789, 6173, 6058, 3213, -423, -3980, -4002, -628, -111, 1359, 1920, 5467, 5213, -728, -1614, -1969, 69, -778, 953, 636, 1186, 6624, 3616, 1529, },
			{-2520, -2315, -5913, -2765, 9, 5510, 7374, 6912, 6151, 6818, 674, -3226, -5423, 673, 1201, -411, 266, 3906, 3260, 2126, -1508, -335, 1714, -2637, -3159, -1015, 1067, 5501, 7257, 4279, },
			{-3148, -6173, -9689, -6218, -2300, 866, 2009, 1979, 3471, 1398, -2021, -6274, -8391, -4922, -5272, -3505, 105, 4125, 5099, 2941, 771, -144, -4592, -7148, -4195, -6114, -581, 2937, 3785, 1727, },
		},
	},
	{
		{
			{2372, 1569, -1233, 757, -4251, 1542, -184, 3655, 1595, -415, 2770, 891, -2319, -1089, 2991, 1633, 1438, -3589, -6918, -5323, -9431, -10287, -14209, -14454, -9946, -1589, 1865, 13862, 9784, 3430, },
			{-528, 433, -1471, 15, -3426, 348, -303, -2609, -1011, 2417, 86, 2598, -2751, -1757, -1151, 106, 230, -1305, -1262, -3200, -5199, -3488, -9864, -11387, -6094, 2874, 2351, 12786, 9094, 5634, },
			{3263, 1561, 1124, 1752, 999, 3709, 2584, -1366, -2695, 2916, 771, 3508, 1507, -1041, 2450, 4005, 1286, 41, 1245, 177, -3398, -1046, -6084, -9070, -1769, 4139, 4061, 13277, 6104, 6440, },
			{129, 1105, 3463, 1357, -133, 3631, -453, -2670, -5162, -571, -3611, -1528, -3800, -50, -1318, -3950, -2524, -2001, -322, 363, -3150, -206, -1015, 45, 618, 2613, 4415, 12189, 7410, 5129, },
			{-180, 150, -1397, 11, -1239, 703, -334, -4631, -4311, -1230, -3693, -2078, -5938, -711, -4134, -1787, -2711, -1383, 1856, 1419, 124, 6933, 8196, 164, 1751, 2227, 3033, 8258, 3977, 1096, },
			{-1289, -3594, -6539, -2336, -373, -768, 164, -3435, 31, 343, -6446, -2150, -4434, -2000, -1516, -2568, -748, 2080, 2928, 2624, -590, 6434, 3846, -1175, 993, -1586, -2393, 3802, -1643, -2625, },
			{-2207, -1336, -2001, -1115, -1422, -1762, -1433, -2588, 751, -3224, -6532, -6667, -3512, 292, -47, -2448, 3423, 7324, 7013, 3799, 2186, 6688, 7823, 8232, 2699, 944, 3675, 5805, 20, -1858, },
			{1892, -685, -331, -534, -3074, -4804, -2854, -5219, -5450, -2249, -4950, -7516, -3875, 1198, 3980, 1655, 2663, 2640, 7037, 2287, -980, 3948, 3145, 1080, -208, 1044, 357, 363, 1463, -774, },
		},
	},
	{
		{
			{4674, 2869, -1162, -798, -2005, -1435, -3585, -2867, -3205, -992, -428, 5972, 3032, 2800, -1078, 143, 2110, 1132, 574, -4113, -4688, 1076, 1747, 6844, 3813, 7720, 5369, 5867, 4538, 2735, },
			{2424, 2274, -2641, -1355, -1519, -2778, -2785, -3870, -5241, -5248, -3790, -2105, -2539, -929, 440, 1075, -2729, -4813, -5102, -5005, -8269, -1014, 1516, 7405, 3897, 6664, 1788, 937, 924, -2355, },
			{3446, 63, 459, -4613, 425, -1413, 1462, -2178, -3056, -4576, -3078, -1156, -1826, 1259, 5506, 4795, -775, -1751, -3010, -2193, -4557, -3403, -5690, 2652, 3497, 1980, -744, 2817, 1930, 225, },
			{4664, 2284, -359, -2069, -227, 1303, -852, -2259, -1705, -4394, -4561, -2403, -1550, 1299, 2549, 4799, 2149, -158, -80, -2948, -3393, -4849, -7588, -354, 398, -2007, 2778, 3305, 2316, 420, },
			{6198, 3364, 1874, 2578, 5023, 2366, 1303, -3829, -1405, -4691, -3750, 1000, -2743, -2094, 503, 6187, 4323, 3948, 2620, -1828, -290, -3236, -3217, 465, -2900, 2659, 2862, 3033, 1131, 2295, },
			{6494, 4933, -860, -667, 2384, 1917, -117, 1219, 1423, -3091, -4974, -127, -2125, 1300, 2125, 5130, 6109, 7276, 2693, -339, -98, -3373, -1165, -2120, -6376, -1176, -1609, -4929, 234, -485, },
			{5447, 3058, 101, 3701, 5543, 242, 1666, -168, -43, -1021, -1405, 1003, -602, 178, 607, -137, 736, 1467, 2630, -1179, -659, -2213, -3803, -4737, -9364, -6413, -3393, -4680, -753, -1415, },
			{3979, 4768, 3277, 4423, 5620, -596, 2197, 722, -461, 1265, 968, 1181, -54, 2085, 166, -4029, -4546, -2422, 307, -856, -831, 2601, -3797, -5725, -4266, -3640, 864, -1429, -2512, 352, },
		},
	},
	{
		{
			{2497, 1523, -8, 224, 302, 1239, 2614, 576, -2606, -5474, -2476, -1727, -138, -1166, 0, 2343, 1924, -4146, -4751, -8058, -7133, -1626, 3, -4374, -1674, 1149, 3790, 6765, 5189, 5991, },
			{-1582, -1682, -2190, -92, -213, -1484, -1018, -2373, -4071, -4876, -2210, -3595, -58, -2829, -4688, 2634, 1987, -5991, -6000, -6154, -7340, -2119, -421, -2545, -95, 326, 1872, 3374, 3702, 731, },
			{-2139, 112, -3049, -553, -320, -359, -44, -80, -1258, -2585, -667, 2277, 1104, -479, -498, 2086, 1304, -3715, -1927, -3851, -6169, -3301, 1360, -471, 87, 965, -332, -1192, 1838, -567, },
			{-2800, 195, -745, 1192, 1405, 3293, 177, -926, 33, -1599, 253, 1093, 894, -4054, -3438, -148, 714, -2531, 898, -2521, -5808, -3532, 680, 2541, 147, -1341, -657, -690, 320, 220, },
			{-1510, 1275, -412, 3941, 1390, 1320, -436, -1792, 401, -876, 547, 1141, 813, -2249, 871, 1035, 3938, 1507, 4191, -2011, -2750, -5953, 551, 3035, 3350, -1288, 1273, 861, -965, -976, },
			{-3224, 4046, 1052, -552, 499, -104, 967, 112, -299, 758, 1913, 1673, -939, -973, 1159, 3689, 3483, 2464, 2610, -3885, -931, -14, 3097, 2549, 4889, -101, 1937, 1813, -765, 2410, },
			{835, 5400, 3067, 2402, 4133, 2178, 1887, 1791, 97, -1256, 4378, 843, 1875, -958, 798, 3109, 3126, 2265, 3047, -1456, -1269, -1466, 3155, 3464, 4165, -1559, -578, -1575, -567, 2518, },
			{4236, 5615, 3515, 2595, 3892, 3681, 1944, -94, 3715, 3923, 6810, 3297, 455, 1235, 2058, 4477, 6593, 2692, 3410, 516, -5247, -262, 4139, 3623, 6285, 1128, -2634, -3266, 449, 3108, },
		},
	},
	{
		{
			{-364, 3215, -249, 875, 1014, 3342, 3009, 1842, 606, -881, 700, -2793, -2455, -2400, -4717, -3299, -5310, -5143, -7009, -5542, -3875, -157, 3357, 1021, 1482, -452, 5635, 4680, 4983, 4244, },
			{-2392, -1263, 2590, 715, 1123, 1047, -609, -2400, -858, -2728, 148, -1355, -1947, -204, -701, 3772, -1400, -2153, -894, -534, -5007, 46, -2148, -3162, -973, 428, 6662, 2511, 936, -3834, },
			{-2441, -3235, -446, -1106, -1818, -3078, -3717, -2950, -4214, -2635, -1168, 241, -211, 1093, 1365, 5691, 1235, 97, -4129, -3921, -5891, -4121, -2722, -4397, 1824, -1350, 1808, -1435, -752, -3185, },
			{793, -1742, -1780, 613, -214, -1118, -2429, -2445, -1103, -1708, -511, 2302, -688, -1870, -3221, 2164, -168, -3658, -4119, -3830, -2058, 1495, -4055, 557, 2377, -860, 3997, -101, 4271, 633, },
			{4023, -1532, -2157, 520, 3492, 2266, -3192, 2213, -484, 904, 2641, 5184, 3012, -679, 507, 5803, 3484, 878, 622, -3346, -1870, 1166, -2842, 2707, 582, 2021, 3303, -2464, -51, 179, },
			{4552, 5650, 1198, 1834, 2654, 3374, -2362, 1133, -5931, -4737, -33, -422, 3198, 4238, -562, 4898, 5145, 1029, 1083, -4280, -5507, 1386, 1833, 2480, 1222, 324, -2437, -2449, 3608, 4513, },
			{2916, 4220, 4994, 1230, 3891, 1029, -978, 682, -1475, -2954, 640, -3019, -675, 572, -1071, 2227, 5178, -237, 2140, -1077, -334, 6040, 1775, 2504, 1601, -1537, -613, -1676, 2231, 726, },
			{6010, 7791, 8825, 5965, 3836, 2356, 1923, 1304, 1205, 1963, 2142, -134, -3512, 4871, 5633, 4440, 5846, 4412, 6988, -88, 1680, 8722, 5038, 1804, 2219, 41, -100, -353, 1321, -923, },
		},
	},
	{
		{
			{593, 6992, 6258, 858, -1988, -1107, -5019, -4460, -7147, -4001, -460, -2474, -3133, -3038, -2921, -2003, -5789, -6950, -3768, 2490, 2001, 3480, 2791, -486, 1677, -3527, -6310, -216, 691, -916, },
			{2534, 5111, 5493, 1, -4110, -3263, -4772, -4654, -2130, -304, 1088, 783, 55, -2045, -731, -1540, -3022, -3927, 1390, 4233, 1662, -1671, -2691, 565, 4767, -6118, 652, 2679, -1103, -4067, },
			{-421, 3786, 1507, 963, -3818, -6027, -5528, -5680, -3030, -1326, -1529, 155, 610, 3175, -87, -3550, -721, -3416, 760, 4835, 4297, 1646, 1213, 3034, 3207, -4553, -89, 1276, 109, -5362, },
			{13, 4138, 3670, -112, -2061, -2990, -2009, -1823, -2500, 49, -1592, -191, -1376, -869, -3659, -2645, -1866, -6106, 418, 5537, 2109, 4430, -510, 2586, 1653, -3118, -2589, 3115, 919, -6401, },
			{1541, 5580, 5447, -3219, -2071, 71, -515, -1310, 1618, -235, -284, -1765, -3128, -1099, -3520, -1816, -690, -5955, -1114, -829, -1038, 2015, -1378, 1119, 2482, -669, 1939, 6654, 4027, -3261, },
			{4281, 9501, 4296, -1972, -2578, 649, -2028, 1050, 3113, -640, 2674, -502, -96, -368, -910, 2169, 2804, 72, -1634, -2836, -1492, -2669, -201, 1667, 3626, 704, -292, 6318, 2399, 622, },
			{4809, 6619, 5367, 2429, 122, 467, -3155, -1011, 2031, 2300, 3349, 3906, 4749, 738, -1468, 1209, 1929, -1504, 558, -1939, -4467, -3795, -3688, 153, 1772, -2787, 3765, 4149, 3837, -400, },
			{2055, 5596, 3914, 1770, 469, 2215, 2690, 3726, 6929, 4992, 4968, 5563, 4387, 3199, 1469, 2804, 1512, -918, 3476, 181, -4166, -1702, -6646, -1315, 80, -4740, 1009, 1583, 2057, -3215, },
		},
	},
	{
		{
			{1530, 54, 1121, 5333, 3427, -327, 1492, 1403, 3399, 428, 4267, 4950, -454, -881, 2830, 2937, 3318, 4674, 9272, 5357, 2658, 1912, 1138, 823, 3089, 8489, 6570, 10595, 759, 2604, },
			{-2092, 1561, -1461, -3205, -1064, 2499, -877, -1914, 1842, -1362, -74, -2002, -6388, -3000, -4116, 1190, 1673, 1475, 1592, -693, 1496, 1004, -90, 1507, 3712, 3035, 6615, 6053, 1140, 2763, },
			{209, 76, -1390, -918, -1425, 2332, 1534, -397, -1404, 320, -101, -1286, -4854, -4656, -1928, -1272, 1254, 2887, -1038, -1235, -1428, 1257, -2022, 2213, 2327, -800, 633, -2007, 74, -1201, },
			{-1018, -2881, -3387, -2464, -4110, 2484, -504, -1139, 836, -2605, -2085, -2009, -2307, -5497, -408, -2383, 452, -685, -1771, -3134, -6046, -2143, -4372, 1990, -1511, -4744, -3118, -4763, -4907, -3934, },
			{1840, 3872, -1863, -327, -779, 4161, -2816, 2503, 2254, -2545, -6246, -2284, -2949, -344, 3476, 2932, 403, 2289, 142, -397, -5065, -2030, -1229, -1079, -5117, -4027, -3873, -1236, -4308, -3625, },
			{2057, 2229, 883, -1693, -2621, 3986, -839, -778, -1840, 334, -3374, -3254, 249, 4237, 3558, 5134, 3728, 2387, -884, 526, -5454, -2015, -1981, 677, 2103, 1129, 3001, -2245, -3161, 772, },
			{1438, 4660, 1977, 3602, 3832, 4317, 970, 566, 594, -5098, -2792, -3697, 2760, 2697, 6689, 6587, 5511, 2447, 3363, 485, -2204, 2719, 516, 3745, 5672, -4291, -3183, -2019, -3627, -3235, },
			{1713, 2524, 4583, 2553, 1441, 3035, 1656, 386, 666, -2590, -2486, 1089, 2350, 1832, 6356, 3735, -2825, -4102, -3159, -4702, -3891, -1181, 630, 902, 5062, -1649, 319, 1146, -2802, -2273, },
		},
	},
	{
		{
			{9483, 4213, 5877, 1697, -287, 752, 2950, 3067, 1023, 124, -3114, -992, -73, -1065, -2501, 1587, 2396, 4712, 1526, -139, -2416, -184, -1377, -474, 6, 508, -221, -2968, -3381, -1501, },
			{7325, 3406, -822, -4063, -7521, -3285, 3021, 4566, 2117, -1204, -4494, -5558, -2959, -1813, -2213, -3630, -2819, -3358, -4990, -936, -3892, -3166, -1406, -833, -1410, -546, -986, -6290, -5008, -5308, },
			{2503, -792, -2419, -4497, -8005, -3446, 2438, 1784, -1177, -2235, -4598, -5581, -714, -1672, -656, -2612, -4476, -3946, -3886, -1877, -4097, 887, -300, -721, -2022, 1530, -399, -2205, -3273, -1631, },
			{963, -2330, 872, -1749, -4352, -1952, 2419, 5046, 1834, -1469, -2703, -1665, 2244, 1278, -936, -3296, -3116, -3938, 2097, -2512, -886, 966, 2692, -393, 2252, 935, -1150, -4535, -1901, -446, },
			{6788, 5985, 3090, -2091, -4524, -4387, -64, 2191, 876, -1477, -524, -771, 219, 2857, -385, -2850, -604, 923, 1790, 3530, 3047, 666, 1687, 978, 1529, 4258, -331, -692, 1320, 2701, },
			{7966, 3669, 1937, 1442, -4496, -5187, 146, 2491, 1135, 324, 1027, 1673, 1086, 455, -717, -2600, 826, -2450, 275, -468, 1851, 3263, 741, 687, -1443, 3784, 4110, -259, 323, 4060, },
			{11362, 3634, 1753, 3117, -1055, -3322, 2088, 1926, 1527, 97, 2049, 2551, 3855, 1428, -1040, 31, 2225, 840, 1936, -3242, -5206, -1766, 2682, -2546, -2533, 2620, 3264, 1114, 3489, 6059, },
			{11879, 5429, 2533, 3501, -2400, -5605, -6210, -1820, -476, -759, 1632, 5033, 7293, 2997, -1028, -2604, 1097, 3796, 1596, -2809, -2675, -1801, 1390, 537, 2245, 3603, 4354, 4362, 3758, 6975, },
		},
	},
	{
		{
			{-1231, -5592, -5316, -5147, 1764, 2158, 2020, 5667, 881, 3013, 3795, 8436, 1210, 6224, 715, 3398, 4253, 1646, 3395, -1818, -2080, -1914, -112, -1461, -1354, 1595, -2531, 5096, -25, 1782, },
			{-3109, -10567, -2538, -4289, -632, -1139, 2030, 2127, -4407, -1779, -683, 986, -2879, 1057, 321, -3094, -1313, -6152, -4423, -6220, -4213, -4636, 642, -3099, -1972, 2763, 184, 4101, 1028, 3566, },
			{-897, -5543, -1259, 1695, 2115, 216, 2906, 5672, -2770, -4368, 523, 1899, -1036, 2014, -1036, -2395, -870, -3546, -3712, -3651, -635, 414, -723, -4152, 1773, 5541, 2133, 2383, 381, 4560, },
			{23, -4043, -758, -184, 2228, 1144, 3010, 5883, -2161, -4659, -3582, 229, -2213, 584, -2062, -3446, -130, -1835, -3717, -568, 1620, -1140, -1175, -4598, -2078, 2278, 2835, 2801, 705, 3651, },
			{-1483, -3478, 1516, 3198, 4375, 4341, 5691, 5465, -778, -1146, -1220, -1800, -756, 1327, 1090, -425, 2077, 1352, 1278, -4753, 3470, -388, 1732, 894, 1963, -502, 1876, 3003, 665, 5382, },
			{-2813, -569, 3652, 315, 2301, 4117, 5679, 3814, -4098, 1134, 3833, 3174, 3185, 1474, 3027, -664, -414, -471, -802, -5033, 1104, 3144, 7097, 2365, -308, 388, 2399, 10433, 1758, 2493, },
			{-1849, -1310, 874, -3263, -1716, 1983, -221, 1127, 235, 6941, 5612, 4151, 1458, -394, 1006, 4045, -3540, -3606, -5426, -3546, -445, 4945, 7134, 1176, 316, 1271, 2233, 7566, 5712, 1257, },
			{359, -831, -2703, -4412, 127, -622, -3225, -360, -3657, 4537, 714, -2795, -3204, -3234, -6973, -2201, -4975, -3314, -5335, -2832, -1073, -639, 6183, 252, 1839, 3933, -3447, -353, 4261, 928, },
		},
	},
	{
		{
			{-2478, -4416, -4332, -5485, -3267, 2653, 4284, 2574, 3699, 3243, 2187, 367, -1608, -1970, 961, 6293, -2458, -5463, -9324, -1935, -2719, 690, 1673, -2330, -995, -1092, 1891, 45, 2829, 5937, },
			{-3738, -3346, -8700, -9570, -5763, 3479, 4414, -932, 468, 2314, -1835, 347, -115, 2453, 503, 4519, -1071, -9675, -12991, -1853, -1648, 131, 1695, -1763, -621, 1561, 1386, 282, 3174, 5565, },
			{-643, -1384, -3517, -4609, -6236, -589, 5491, -3053, -5458, -4184, -4343, -330, 3259, 3478, 1989, -895, -3100, -11615, -14328, 386, -2944, -678, -3020, -3666, -1935, -166, 268, -117, 3095, -229, },
			{1018, -343, 3724, -808, -847, 9507, 12466, 2657, 193, -2252, -506, 454, 2255, 4982, 9351, 3372, -1785, -5969, -7913, -1524, 4525, 567, 8, 2317, -1020, 559, 2059, -1, -1315, -213, },
			{643, -1385, -212, -434, 1690, 48, 6964, 1289, -4840, -10273, -7207, -4458, 401, 4144, 1556, -2087, -2902, -5936, -6129, 4171, 7311, 402, -524, -433, -1400, -820, 439, 4126, 2459, 463, },
			{1279, -743, 4046, 1976, 220, 765, 7766, -991, -771, -98, -689, 1311, 3601, 6800, 3144, -4263, -3813, -4101, -2545, 7379, 8332, 2399, -890, 563, 3224, 1380, 2213, 7829, 1689, -942, },
			{3832, 1443, 3788, 3562, 1711, 7043, 5876, -1571, 3, -2334, -3889, -3012, -831, 683, -951, -5430, -1379, -4615, -4403, 2362, 3806, -1051, 1662, 241, 2365, -2266, -3453, 641, 1687, 1762, },
			{4282, 554, 4965, 2793, -230, 7033, 9530, 4498, 10947, 8676, 3399, 356, 3316, -1165, -5975, -2307, 2910, -4417, -6797, 2310, 489, 3077, 951, 3719, 2817, 1605, -3207, 719, 1437, -2246, },
		},
	},
	{
		{
			{-3464, 3002, 699, -3927, -3160, -5767, 616, -1630, -675, -2740, 1435, -1497, -783, 3630, 4049, -874, 2435, -2258, -2715, -998, -2146, -2522, -269, -2770, -1340, 1444, 241, 2468, 4762, 9085, },
			{-3482, 3070, 319, -943, -1357, 1097, 4658, 1720, 2220, 554, 1134, -285, -981, 1501, -1340, -1299, -365, -1013, -3480, 17, -1723, -3256, -115, 519, 1744, 2394, 5228, 2541, 7, 5468, },
			{-2958, 10, -2433, 1773, 362, 542, 979, -314, 1166, 1643, -438, 713, 1101, 219, 741, -2568, 1460, -87, -562, -508, -7946, -8699, -1396, -1083, -3298, -4997, -3221, -4097, -1864, 3340, },
			{-5882, 863, -1624, 741, -370, 3849, 550, -332, 4888, -2, -40, 501, 2445, -269, 774, -2269, 92, -189, 3846, 336, -3521, -5377, 3672, 2650, 1507, -1706, -3249, -1564, -621, 2025, },
			{-2917, 6192, 1798, 2962, 2836, 1789, 3061, -398, -2685, -2857, 1006, -1350, -1000, -1291, 2737, -2710, 805, -584, 2110, -404, 21, -1644, 3674, -326, -2191, 970, -1252, -296, -1546, -1496, },
			{-997, 3635, 3749, 3576, 888, -32, 3228, 1846, -1864, -1167, -422, -1341, -887, -641, 4948, -217, 2434, -488, -2494, -3560, -98, -3981, 1853, 1614, 1580, 2295, -1437, -4609, -4136, 544, },
			{1817, 10669, 7211, 1483, 1037, 792, 155, -163, -1632, -1774, 39, -846, 817, 578, -70, -1332, -320, -907, -2475, -5198, -2943, -4635, 4529, 4941, 6314, 2947, 1016, -346, -2518, 941, },
			{1869, 4502, 1894, 2818, 2375, -121, 781, -1029, -3239, 740, 1840, 2292, 1217, 905, -2998, 441, 2978, 2229, 3992, 528, -1591, -2834, 6875, 5096, 7708, 6042, 5330, 1390, 2914, 1101, },
		},
	},
	{
		{
			{670, 6656, 4906, 5277, -1858, -2043, -1450, -4670, -119, 132, -3857, -3613, 878, -2740, 475, -1607, -2361, -4398, -5178, -2822, -1895, 490, -2985, -806, -201, 573, -1028, 468, 1590, 5672, },
			{10351, 15111, 14555, 9475, 1065, -330, 1997, -3684, -3905, -878, -5330, -8294, -3322, -2726, -1966, -2210, -3798, -6677, -1792, -2887, -4696, -133, -1942, 1322, 1774, 3925, 4712, 5934, 3862, 5359, },
			{9020, 11847, 16030, 7560, 719, -2822, -6951, -6270, -1575, -3432, -8372, -11924, -5841, -5451, -6143, -7717, -3291, -5239, -3350, -3529, -2805, 1610, -4275, -816, -323, 807, 2133, 2783, -1098, 4244, },
			{7661, 8143, 9931, 7537, -3368, -7746, -3865, -3882, 132, -3548, -7948, -8628, -5842, -4946, -4389, -928, 858, -1435, -4937, -1378, -567, 1687, -2058, -1040, 132, 1061, 3629, -595, -2006, 714, },
			{1197, 5361, 10639, 4816, -2759, -152, 345, -5637, 738, 1443, -2446, -3000, 688, 704, -43, -617, 691, 391, -1400, -1622, 2503, 3924, -840, 3270, 3984, 293, 1944, 3512, -641, 320, },
			{-218, 4299, 3566, 121, -6277, -2227, 2145, 2221, 5947, 2713, -1162, 435, 440, 1983, 2499, -3047, -2956, -8476, -628, -653, -796, -408, -2025, -2016, -1886, -1303, -1284, 1324, -1852, -493, },
			{234, -651, 2876, 5756, -2619, 3469, 7108, 6622, 7631, 5900, 569, 1985, 541, 1807, 3653, -1567, -2645, -6147, 1847, -1185, -696, 1238, -2436, -6054, -5094, -759, 4184, 2883, 772, 7159, },
			{-2800, -4120, 729, 9019, 6920, 11003, 12151, 10919, 13508, 7630, 2879, 5569, 7539, 3300, 5966, 557, -2307, -2075, -1175, 1828, -3778, -5640, -5588, -7169, -1707, 76, 3411, 4004, 2215, 6771, },
		},
	},
	{
		{
			{-2358, -3011, -3603, -2640, -4333, -3118, -2762, -4945, -3942, -4738, -2332, -3577, 717, 953, 2718, 365, -2239, -1762, -3735, -4684, -3262, -1603, -4834, -4059, -3796, -1081, -3007, -4274, -871, 933, },
			{1676, -2718, -2574, 1470, -1668, -2048, -2822, -6301, -4766, -2980, -1140, -2548, 523, 4272, 6975, 4563, 1038, 373, -4286, -1012, -3740, -837, -989, -1725, 363, 1609, 128, -2582, -617, 4090, },
			{3965, -2402, -1270, 1474, 790, 702, 1207, -5543, -3241, 725, 1167, -2815, -347, 4532, 6057, 2698, -1581, -3602, -6441, -682, -2125, 753, 2732, -1170, -958, -3603, -928, -3544, -1683, 4204, },
			{2329, 258, 2924, 3109, -1328, 3812, 1492, -4436, -730, -626, -3766, -4536, -5602, 353, 1088, -1813, -4482, -2662, 903, 1262, 114, 1136, 2196, 1026, -1156, -1145, 2969, -3234, -4904, 1419, },
			{1067, 3183, 7288, 3364, 809, 2824, 3061, -1376, 229, 271, -3756, -5745, -4841, -1419, 4759, 4650, -705, -280, -1212, 1935, 3634, 9000, 3232, -1928, 435, -752, 3539, 259, -1190, 3638, },
			{4689, 2907, 7254, 5627, 1932, 5488, 4992, 1010, 3973, 5169, -529, -939, -2394, 628, 1635, 2855, -1337, 946, -321, 3668, 4201, 5111, 2395, 55, -1060, 412, 5327, -104, 177, 2046, },
			{-842, 490, 3402, 5640, 2152, -33, 857, -3015, 74, 2037, 143, -1691, -535, 1683, 631, 742, -2530, 846, 1089, 3484, 5676, 2060, 4752, 3297, 311, 2641, 5396, -759, 227, 1334, },
			{-4075, -2880, 2868, 5352, 241, -2208, -1306, -1365, -1254, 2089, 2849, 1901, 1029, 3586, 4275, 2538, 655, 1827, 1911, 1388, 1718, -3997, 2980, -320, 2017, 77, 2831, -1684, -1789, 1363, },
		},
	},
	{
		{
			{59, 1939, -626, -2070, -1215, 5012, 2905, -2078, 2719, -904, -1713, -4947, -4789, -4030, -7330, -3035, -3343, 349, 3079, 4350, 1868, 3167, 4881, -3531, -1840, -7352, -4223, -1800, -5264, -609, },
			{3088, -850, -1591, -3246, -1384, 1258, 945, 1316, 3510, 3287, 2167, -808, -1051, -3371, -4583, -4311, -4895, -2577, 1117, -2072, -256, 2584, 2410, -505, -1106, -6638, -177, 1512, -4580, -647, },
			{484, -1878, -4747, -2687, -2734, -2467, -1265, 315, 4396, 1427, -1024, -1088, -615, -2634, -3548, -3638, -5774, -2717, 1646, 135, 5482, 12884, 12780, 8460, 8651, -742, 1943, 621, -6950, 320, },
			{404, -1823, -1288, -1959, -1334, -182, 77, -346, 2417, 2113, 2480, -509, 2219, -1208, -3085, -4747, -1002, -2110, 733, 7181, 6588, 10977, 10301, 2534, 6461, 2340, 4995, 8721, 1071, 3091, },
			{3719, 4078, 1107, -2854, -2845, 202, 293, -2669, 1087, 1262, 3631, 1253, 3192, 2571, -4869, -3225, -3879, -7141, -1486, -4565, -5976, -3946, -359, 1961, 5993, 6737, 8205, 9141, 1601, 12126, },
			{6040, 4881, 564, -1826, -2636, -2005, -1700, -3945, 2595, 2096, -456, 1851, 2752, 2136, -2631, -350, -447, -4244, -1089, -7910, -5258, -6506, -26, 179, 3100, -2774, 3125, 2290, 2073, 14608, },
			{4410, 3835, 1206, -1264, -3642, -90, -4208, -1748, 2439, 1548, -1052, 6444, 8312, 1534, 660, -1452, -424, -3239, -4322, -13577, -15369, -7735, -984, -1100, -274, 387, 6889, 4162, 579, 7138, },
			{5093, 3967, 2007, -3804, -3139, 353, -4192, -693, 1034, 355, 1783, 986, 3228, 4229, 6543, 1292, -3688, -966, -553, -12004, -13110, -10446, -6981, -5688, 1169, -2689, 2150, 2762, 2568, 3165, },
		},
	},
	{
		{
			{7615, 5085, 4663, 1860, -58, -603, -2654, -2589, -3106, 2358, 314, 950, -198, 662, 2212, -334, 2458, -485, 2087, -2177, -7085, 1154, 952, 1156, 293, -3038, -6788, -3973, -4591, 146, },
			{4628, -2087, -656, -3690, -3187, -9256, -12459, -5486, -5768, -354, -786, -2660, -565, -3307, -2789, -4522, -2990, -5963, 181, -671, -8690, -5321, -6709, -4565, -2020, -6557, -5278, -5157, -5084, -5291, },
			{2950, 67, -900, -4822, 93, -4134, -8322, -2423, -2755, -1397, -2983, -2086, -2524, -4626, -4880, -7220, -3384, -4702, 750, -4929, -7614, -1388, -5799, -2225, 74, -3855, -976, -1392, -2833, -438, },
			{3115, -107, 3824, -1122, 429, -3504, -6800, 172, -140, 2499, -258, 957, 563, -1390, 681, -5227, -2217, -1699, 127, -2777, -1441, 1534, 235, 2621, 1908, 1540, 2277, 2998, -742, -737, },
			{4285, 3010, 4242, -1467, 1619, -1359, -4533, 2308, 3590, 5469, 2687, 1599, 1529, -768, 1178, -3451, 2158, 1185, 1523, -171, 704, 3726, 3953, 5422, 6747, 5569, 5423, 9952, -143, -568, },
			{1892, 1368, 893, -4542, 513, -2255, -3172, 3964, 4040, 4318, 2150, 2216, 5194, -781, 1884, 1063, 246, 704, 2058, -1396, -2853, 2531, 2411, -325, -3234, 1447, 4949, 5991, -367, 1981, },
			{2656, 4709, 363, -950, 1131, -535, -643, 4380, 3515, 7829, 3558, 2207, 4447, 1437, 5079, 3632, 2200, 829, 3073, -1207, -4135, -2249, 1915, -991, 734, 2750, 5880, 1594, -1824, 5622, },
			{3333, 4260, 2880, 665, 2784, -1904, -4137, 5449, 5739, 6898, 6465, 2111, 4817, 3446, 6249, 5491, 5516, 3293, 6130, -83, -4874, -1838, -1951, 1807, 1268, 3776, 5473, 4217, 3688, 4965, },
		},
	},
	{
		{
			{242, -405, -2778, 2594, -1044, -1577, -1620, 3273, -1202, -1729, 2566, 1407, -1768, -3167, -1032, -1837, -4135, 58, -453, -1381, -400, -4278, -1453, -2236, -477, -1226, 1737, -618, 3511, 4588, },
			{-1629, 1673, 42, 1342, -2142, -3490, -4836, -5167, -7676, -2203, 448, -2479, -7970, -8713, -7708, -1900, -5713, -5001, -1456, -422, -3749, -4073, -2947, -1029, 557, -3322, 851, -2458, 484, 4578, },
			{-2339, -1171, -3336, -3554, -5130, -3041, -3591, -4947, -3894, -1991, -2241, -2474, -6485, -4774, -3649, -1495, -2079, -791, 1262, 993, 2474, 94, 594, 494, -598, -3570, -833, -3248, 2871, 2948, },
			{-2090, -1237, -2601, -3094, -1830, -1339, -144, -178, 1557, 984, -1424, -2534, -5341, -1200, -3511, -1326, -3176, -833, 2505, 2629, 5008, 2019, 1930, 2705, -654, -374, 721, -2047, 4044, 3603, },
			{-1336, -809, -1895, -3246, 2870, -2526, 446, 1691, 2677, 6256, 4147, 412, -3944, 811, 907, 2235, -1189, 1263, 4570, 5590, 9249, 2303, 1546, 3657, -1728, 31, -425, -3263, 59, -1479, },
			{-312, -1959, -805, -1062, 3517, -163, 2359, 1506, 6422, 6261, 5414, 2506, -3212, 168, 2256, 2369, 1198, 1666, 3437, 5215, 5039, -669, -239, 902, -1445, -2194, 136, -2969, -984, -319, },
			{-846, 1414, 851, 421, 3594, 354, 367, 3148, 6867, 5645, 7650, 6614, 2050, 3699, 4695, 445, 1020, 355, 2636, 640, 1516, -4060, -1617, -168, -461, -651, -512, -834, 1081, 1560, },
			{2818, 4432, 4804, 4613, 7586, 2508, 4168, 6027, 3963, 3583, 4783, 1220, -3548, -1442, 1065, 2715, 4799, 2144, 4838, 1558, -34, 273, 1165, 1609, 410, 2831, 1418, 4001, 3730, 4245, },
		},
	},
	{
		{
			{2696, -345, 419, -611, -4000, -4917, -3041, 1306, 773, 616, 766, 2603, -760, -620, -3504, -4051, -6989, -6847, -5592, -2931, -1830, -3370, -2629, -3243, -2593, -3429, -1073, -1689, -189, 507, },
			{5389, 2709, -2632, -399, -5898, -5233, -2813, 1284, -789, -1753, -858, 1157, -1819, -896, 553, -101, -5193, -2595, -3748, 955, -1801, -2945, -3772, -3184, -1366, -1135, -2136, -2765, -1439, -371, },
			{3627, 3458, -316, -1962, -4751, -824, -1517, 283, 1238, 1238, 1019, 2979, 1286, 538, 3790, 4604, -3886, -841, -322, 481, 514, -3105, -2082, -1615, -2313, -3276, -3472, -1402, 3330, -1309, },
			{8567, 6922, -2418, -6072, -8349, -1718, 448, 1471, 2703, -999, 1981, 2560, -378, 470, 1744, 1854, -4806, -2713, -1155, 3644, 293, 51, -1953, -3753, -2234, 193, -1413, 397, 1645, -457, },
			{10116, 5071, -5075, -6572, -5085, -2974, 749, 4528, 2179, -1507, -2061, -1436, -2374, -720, 464, 2058, -1868, 316, -506, 1966, -1054, 2520, -1125, -2619, 604, 1996, 3831, 3354, 1780, 2213, },
			{10971, 3065, -3839, -3379, -1815, -2094, 5220, 6690, 5854, -802, -3120, -2235, 635, -160, 1179, 2366, 2786, 2519, -1333, 1020, 1346, -922, -4124, -87, -890, 3708, 5551, 7060, 4290, 1508, },
			{7041, 1739, -3789, -6881, -2417, -642, 4609, 3525, 2551, -212, -3309, -2331, 1696, 3072, -552, -47, -1938, 1322, 624, 444, 1589, -3322, -3735, -2203, -92, 6630, 7594, 5408, 5016, 578, },
			{5098, 3102, -4050, -5962, -4555, 1214, 5299, 3696, 4811, 365, -1393, 1755, 1728, 600, -1999, 570, -1953, 1045, 1752, 616, -1191, -965, -5692, -1407, 899, 6366, 8523, 5545, 5502, -1157, },
		},
	},
	{
		{
			{3442, -274, -4608, 1338, 664, -1303, -1220, 1237, 2194, 2494, -521, -2102, 2629, 1601, -906, 2371, 4095, 1397, 426, 215, -372, 1196, 2581, 2865, -32, -2085, -3901, -2468, -1867, 1723, },
			{-722, -5687, -6155, -2036, -215, -5379, -1024, -2449, 2045, 2992, 1907, -5856, -2323, -4521, 560, 4279, 1781, -2351, -7598, -5190, 1178, 5339, 2415, 890, 712, -2260, -4029, -2932, -1535, -497, },
			{-1612, -2054, -3174, -1678, 45, -1403, -1520, -1233, 186, -1752, 1126, -4092, -2763, -4968, -2388, 1786, 1434, -592, -3336, -2640, 1160, 6142, 996, 849, 1180, 1926, -1671, 966, 977, 4225, },
			{658, -1141, 311, 1637, -612, 73, -1385, -1578, -602, -5864, -3500, -3161, -2842, -5022, -2608, -1318, -544, -2573, -6447, -3078, -343, 2118, -2765, 439, -426, -1461, 1082, 3301, 3929, 5586, },
			{3219, 2274, 3141, 3343, -793, -862, 393, 239, 461, -3407, 565, 1988, -266, -4383, -1235, 81, 3596, 891, -1468, 1483, 515, 242, -2790, -6165, -1451, 1120, 641, 5674, 4070, 4659, },
			{2385, 2538, 283, 1067, -467, -1287, 658, 2959, 1801, -1664, -1510, 2637, -1246, -2236, -4024, 378, 3565, 2334, 1927, -1202, -1759, -2944, -4531, -4871, -3336, -1129, -1301, 3362, 1207, 2509, },
			{3824, 1741, -41, 1292, 3634, 1489, 298, -1058, 111, -2704, -291, 242, -106, -1807, -2100, -2240, 2555, 1943, 111, -1441, -1684, -3275, -518, 425, -520, -2741, -2445, 1088, 2115, 4707, },
			{3254, 5239, 5014, 4511, 5700, 4802, 3478, 579, 2023, 1100, 4337, 2755, 909, -960, -205, -1286, 6606, 5073, 6166, 2960, -1296, 414, 2928, 822, -1478, -4260, -4383, 3685, 933, 5546, },
		},
	},
	{
		{
			{1429, -1324, -1071, -7649, -5195, -4759, 265, 675, 2697, 1167, 8, -1493, 2462, -665, 551, 815, 2435, -148, 924, -4318, -912, 3199, -418, -3227, -2779, -255, 2044, 3037, -391, 2714, },
			{1028, -1717, -4786, -7846, -8875, -8290, 52, -2429, 354, 108, 1205, -587, -862, -2674, -569, -152, 2742, -3561, -2323, -6477, -6163, 25, -5114, -2027, -4730, -2572, 1105, 2820, 638, 2740, },
			{540, 1809, -756, -4927, -6898, -5481, -178, -1493, -832, -189, -2054, -2528, 1910, 264, 149, -709, 1366, -1614, -834, -4165, -1339, 1819, -1027, 207, -3871, 880, 2676, 2481, 1397, -49, },
			{3124, 2170, 846, -4374, -103, -32, 3179, -1060, -42, 649, -590, 272, 1413, -678, 58, 280, -1032, -3691, 828, -1387, 805, 4099, 1236, -397, -181, 1413, 435, 1932, 2401, -655, },
			{9393, 7940, 5574, 4113, 1160, -2300, 777, -712, -1422, -696, 260, 1501, -2602, -525, 98, 887, 326, -1423, -1493, -49, 4213, -448, -807, 634, -449, -1183, 1271, 1788, 504, 3480, },
			{7446, 8263, 6339, 5358, -1268, -2856, -447, -2984, -2440, -3174, -2149, -1778, -1744, -2783, 1058, 1816, -2660, -6889, -3754, -1316, 3650, -945, -2828, -2317, -4647, -4085, -1586, -3736, -3277, -613, },
			{8307, 6053, 7147, 5155, 1506, 343, 3080, -49, 1059, -2681, 579, 3448, 3167, -2689, 3090, 2081, 482, -899, -2887, -1428, 2275, 2870, -943, -1601, -4682, -4295, -2485, -1642, -144, 1014, },
			{8980, 7380, 8661, 5373, 4532, 7189, 7374, 4384, 2517, -2782, -1346, 2217, 3881, 890, 5863, 2374, 3897, 898, -40, 677, 3286, 4691, 2533, 2678, -1743, -2463, -1668, 2507, 4353, 4008, },
		},
	},
	{
		{
			{-522, 4535, -885, 5040, 4792, -3202, -3550, -4458, -9070, -8019, -6925, 2152, 4619, 3138, 967, -1513, -488, -520, -291, -2818, -6969, -6050, -1258, -6122, -2486, 2747, 4303, 6585, 1801, -3166, },
			{-858, 5363, 2551, 7725, 2611, -3007, -4077, -3304, -8348, -3695, -3408, -1207, 632, -489, -1071, 2483, 4856, 553, -3055, -634, -6451, -6460, 36, -3475, -4399, 1541, 4447, 7407, -2695, -3480, },
			{-3625, 2601, 2159, 4233, 3504, 1422, -3338, -1703, -3809, -722, -770, 1601, 2595, -2600, 1612, 4539, 2529, 2925, 2880, 1941, 2604, -1748, 2083, -3764, -4230, 2983, 2869, 2455, -679, -1712, },
			{-4032, 482, -3006, 3853, 5993, 4608, -1885, -4449, -2468, -2947, -848, 1414, -1359, -7079, -45, 280, 147, 1550, 4741, 5259, 6803, 434, -2394, -831, -5582, 1617, 4829, 7569, 5590, 3706, },
			{-1881, -650, -5129, 6004, 8214, 27, 2475, 532, -3673, -1907, 1340, 3510, -3200, -5749, 2706, 1814, 2252, 1759, 6030, 5854, 7341, -2820, -1427, -193, -4233, 2877, 6918, 9790, 6912, 4963, },
			{-2657, -4361, -1461, 2852, 5326, 793, -202, 2661, -102, -3802, -1104, 2096, -1669, -3607, 2946, 1281, 1382, -27, 922, 2546, 4330, -5611, -4525, -1864, -6226, 1330, 5437, 7648, 5126, 2842, },
			{-4301, 2886, 319, 1671, 4067, -1231, -5072, 591, 2900, 435, 1445, -1462, 671, -3155, 1592, 5801, 1087, -634, 22, -3367, -1823, -7906, -5683, -5428, -7329, -5679, -1512, 5077, 1264, 1899, },
			{-382, 65, 2517, 5526, 6298, 157, 2078, 3328, 2724, 886, -1925, -4899, -7755, -9249, -7041, -1048, 6058, 1690, -1508, -866, -6190, -7679, -4730, -3370, -4718, 1475, 1025, 6043, 2614, 1495, },
		},
	},
	{
		{
			{3314, 1616, 6453, 2155, 162, 956, 960, 1524, 185, 485, -1320, 1047, 2382, -3354, -4186, 1481, 279, 2132, -1096, -3658, -3255, 2762, 1693, -5358, -2494, -3506, 540, -2006, -1072, 2814, },
			{5991, -1463, 2101, -921, -536, -2549, -2367, 2217, -1996, -294, -3694, -1754, 633, -4804, -2846, 2695, -1487, 3184, -831, -2570, -3038, 709, 1825, -4648, 38, -2909, -2936, -1586, -1674, 2218, },
			{3998, -1811, -1586, -4584, -429, -1485, 63, 2434, 1641, -2418, -1784, -2818, -2081, -3839, -3711, 1490, -511, 1089, -171, -2808, -4967, 636, 444, -3512, -289, -2506, -1631, -1792, 363, 5455, },
			{1544, -5511, -3257, -6852, -69, -502, 928, 1525, -2776, -2073, 1113, -1035, -3841, -948, -1411, 7207, 2872, 1723, 948, 245, -2474, 59, 3436, -4063, -2489, -3141, 3, 1970, 965, 3733, },
			{-2877, -4794, 67, -3085, -12, -290, 2035, -1674, 654, 1618, 1504, -2332, -268, 166, -1755, -794, 1952, 4060, 7116, 2642, 3577, 2714, 1630, -4141, 290, -268, 3013, 5235, -1612, 1758, },
			{5167, -2454, 3195, 2474, 991, -2846, 4949, 2098, 862, -698, -1451, -2244, -4111, -5052, 224, 867, -947, 1581, 1415, -2125, -733, 981, 1086, -2804, -1967, 2176, 2863, 5125, -2648, -106, },
			{1621, 2386, 6370, 2268, 826, 159, 1724, -51, 2009, 2738, 2983, -1188, -1780, -5672, -1385, 1689, -3306, 544, 1161, -3768, -4232, -1450, 1734, -3129, -5058, 622, 1628, 3691, -1010, 2396, },
			{1267, 406, 2315, 2547, -1548, -3461, 2383, 1576, 2974, 4591, 4099, -158, -315, -565, 1561, 2303, 653, 950, 1458, -1801, -4321, -1415, 3564, 986, -207, 2016, 5358, 8850, 4812, 6019, },
		},
	},
	{
		{
			{6927, 4170, 1962, 685, 2926, 1836, 2336, 1105, -1126, -5124, -2697, 407, -2488, -3176, -3752, -1774, -660, 600, 1809, 3910, 6706, 2200, 5737, 617, 2626, 574, 1886, 6502, 9190, 3324, },
			{874, -6216, -234, -1845, 1143, -1172, -2083, -2729, -4351, -6755, -1771, 1109, -2037, 1088, -3114, -4892, -551, 4148, 1382, -1010, 450, -2878, -1892, -1347, -1841, -247, 4214, 7460, 6674, 6193, },
			{1486, -4980, -3246, -1448, -2067, -4858, -3003, -3404, -44, -1811, -1633, 3759, 765, 3878, -3059, -3838, 444, 1056, 1778, 1871, 493, -2243, -3356, -2929, 2182, 816, 3403, 10951, 3807, 4707, },
			{3899, -769, 695, 3224, 17, -2683, -1508, -3148, 1474, 1216, 396, 554, 1288, 1898, -4579, -5069, 2660, 489, -5414, -1069, -445, -805, -3632, -7427, -5427, -708, 1393, 9456, 2483, 1744, },
			{3, -4442, 2556, 248, 2536, 1214, -2944, -3207, 340, -791, 770, -373, 1101, -2225, -3436, -3545, -4398, -1230, -3850, -3768, -368, -1803, -5137, -3207, -4362, -2836, 2008, -463, -84, 2908, },
			{3479, 1827, 4745, 2183, 3011, 5277, 514, 1112, -97, -1229, 4581, 6282, 4480, 2509, 257, 743, -2448, -387, -2430, 180, -9, 2521, 976, 237, 3533, -2022, -2050, 3489, 4253, 6865, },
			{4911, 700, 4001, 2898, 2054, 5268, 5792, 4828, -434, 2179, 3046, 8439, 4793, 1366, 1437, 4112, -1398, 403, -2814, 2721, 1651, 5838, 2322, 143, -1729, -715, 719, 5641, 9111, 4847, },
			{2602, 6426, 6187, 1811, 3560, 7865, 8851, 6774, 1050, -859, -3293, 2456, 3135, 2830, 4102, 1357, -3668, -1140, 2740, 7724, 3762, 2830, -946, -4408, -1234, -751, -549, -302, 5167, 3030, },
		},
	},
	{
		{
			{2049, 1263, -2260, 2167, 1376, -1797, 1616, -2649, -4295, -5429, -1444, -1758, 1321, 6415, -3401, -891, -3417, -1688, -2366, 2293, 2485, 4705, 2761, 1758, 2767, 45, -1497, 357, -406, 2202, },
			{4274, 1135, -772, 2612, 1485, 34, 1558, -339, -647, -5014, -2795, -2338, -666, -1329, -3646, -693, -2941, -4691, -7086, -1715, 4370, 5044, 5225, 2752, 4431, -8, -2647, 2252, 423, 1170, },
			{3970, 2316, 2165, 4614, 3815, 3316, -325, -2052, -3063, -5614, -1387, -3259, -1058, -2230, -3886, -771, -2233, -4644, -10716, -247, 78, 2942, 2117, 4053, 1858, 705, -1573, -379, 2085, 1066, },
			{-834, -2598, -1085, -386, 4130, 4071, -388, -4129, -1551, -5571, -4692, 1084, -84, 807, 2008, -1199, -427, -5078, -6050, -2465, 504, 1852, -164, 3681, 2655, -2428, -2849, -354, 1030, 1615, },
			{3082, 3069, -609, 574, 1521, -411, 2120, 681, 2247, -5908, -4254, 1027, -2653, 222, -157, -991, -428, -1409, -5047, -4412, -3913, -3768, 215, -621, -542, -231, -734, 4294, 2877, 5775, },
			{827, 2469, -933, 1350, -1433, 21, 2265, 2681, 706, -2101, -1862, -2077, -2762, -2385, 1140, -986, 3333, 718, -1259, -774, -2270, -4382, -1965, -808, 2297, -1553, -4091, 1958, 3942, 6199, },
			{-1100, 270, -284, -1221, 3691, 3091, 1696, 1601, 3729, 762, -166, 601, -500, -3190, -1931, 2294, 5533, 3281, 309, -1766, -8780, -8708, -2707, -939, 860, -908, -1484, 3144, 1816, 9102, },
			{-2761, -1670, -3323, 244, 2859, 3881, 1906, 4780, 6906, 2374, 1079, -346, 237, 2255, -1698, -968, 7476, 3442, 776, -3493, -8190, -9497, -2785, -1551, 1932, 2520, 3458, 6862, 3126, 9711, },
		},
	},
	{
		{
			{7109, 6952, 3555, 3203, 414, 1882, 507, 1881, -819, -661, -204, 1610, -1563, 440, 623, 3049, -4257, -2192, -684, -1010, 175, 276, 4945, 871, -2811, -1550, 1941, 2827, 2691, 1207, },
			{3969, 2045, 2321, 1478, 1821, 1675, -456, -987, 1172, 1448, -1191, -989, -5740, -1084, -885, -419, -4254, -6466, -1728, 3409, 5968, 856, 4097, -1191, -2544, -6163, -187, 945, 955, -1351, },
			{5310, 4277, 1492, 75, -1444, 1876, 1143, -442, 4, -575, 1215, -84, -1061, 502, 706, -1234, -1865, -4260, -1542, 3094, 660, -139, 3450, -1022, -2486, -4346, 130, 1755, 7010, 3591, },
			{9304, 4188, 3403, -1211, 2420, 5112, 385, -2027, -494, -3430, 1016, -937, -2033, 1136, 775, -2075, -385, -1682, -458, 1930, 2775, 5227, 3581, 4969, -1955, -2441, -3506, -633, 4629, 3133, },
			{7054, 4932, 1680, -3104, -497, -1887, -4613, -1083, -2141, -4723, -2507, -754, -2520, -119, 1726, -1689, -1178, -3623, -688, 851, 2068, 1779, -786, -2608, -7335, -1765, -1660, -837, 2383, 2128, },
			{8098, 3330, 772, -3696, -1716, 181, -4732, 501, -258, -3137, -3206, -19, -2669, 137, 810, 1461, 2080, -4236, -4118, -957, -1551, -3827, -4589, -498, -2214, -1215, 2865, 4380, 3461, 4100, },
			{6951, 1787, -4085, -5642, -2210, -1851, -3095, -761, -299, -4768, -3686, -362, -1657, 2124, -1236, 708, 2427, -3221, -460, -771, -3774, -5173, -5967, -1154, 1216, 451, 2037, 3092, 3689, 6791, },
			{4973, 1183, 750, -1102, -1482, -339, -3515, 1483, -1514, -1846, 1674, 1949, 2369, 6244, 587, 2330, 2467, -459, 4082, -2401, -5259, -4897, -3785, -537, 901, 1757, 2478, 2746, 3996, 3351, },
		},
	},
	{
		{
			{7879, 9800, 5871, 3921, 2796, 438, -107, -999, -1718, -2631, -747, 1482, 2501, 1919, 4316, 279, -2437, 2775, -1130, 3447, 2603, 3424, 3907, 889, -2170, -262, -2099, 1233, 5519, 4747, },
			{4643, 4984, -239, 1066, -3056, -6568, -6373, -107, -979, -2687, -2857, -1662, -418, 275, 625, -1815, -5172, -6869, -5404, -651, -808, -3375, -4708, -1285, -6351, -2985, -1692, 1979, 2051, 3875, },
			{5476, 4393, 191, -613, -1657, -3736, -2314, -1029, 1451, -1393, -2328, 857, 1598, 2366, 1444, -1196, 524, -3581, 1277, -2560, -3371, -4335, -1202, -1984, -3458, -5745, -4661, 824, 2332, 4521, },
			{7444, 4953, 288, 862, 429, -1619, 452, 1580, 3183, 382, 1398, 2193, 2279, 1565, -2425, -3117, 2820, -304, 5003, -556, -4730, 325, -2848, -1083, -5187, -4641, -5163, 1992, 2318, 437, },
			{4188, -624, -2126, -6823, -5987, -7950, 1195, 3980, 3510, -756, -117, -1106, 312, -3288, -2638, -792, -412, -3728, 239, -297, -1808, -206, 407, -481, -32, 540, 470, 908, 3767, 4936, },
			{5743, 2347, -455, -2304, -5337, -3632, 3240, 5059, 1969, 729, 1406, 1669, 123, -2988, 676, 1248, -603, -3052, -4151, -1806, 2554, 144, 1003, 127, -710, 115, 2998, 2188, 3207, 7719, },
			{7664, 3807, -1075, -475, -4505, -3377, 1603, 3586, 4197, 1797, 2219, 132, -1171, -4495, -4176, 158, -4422, -2931, -2475, 1456, 1402, -308, -3970, 2482, -2951, -772, 972, -767, 1487, 2765, },
			{5726, 4546, -4689, -3574, -8190, -3435, 3291, 5177, 5127, 1603, 3337, 792, 1577, -2329, -407, 2823, -1432, -5856, 1568, 2779, 1499, 136, -1842, 872, -1256, 385, 1743, -994, 4892, 2948, },
		},
	},
	{
		{
			{-121, -1007, 1407, 4620, 6868, -953, -1762, -1063, -2401, -2402, 2649, 726, -253, -1298, 2770, 1556, 3231, 4268, 3671, -179, -4959, 361, 7427, -464, -2939, -2450, -1645, 166, 1823, 4135, },
			{-1145, -1004, 6361, 5861, 3424, -310, 473, -1250, -2325, 209, -279, -3219, -4465, -4361, 593, -184, 466, -487, -909, -221, -3810, -946, 4182, -296, -156, -3114, -1469, 879, 394, 3516, },
			{-5620, -1974, 3320, 766, 864, -789, -340, -1436, 3256, 730, 1698, 1411, -2385, -5359, 1357, 509, 1038, -2738, 979, 1410, -4532, 1867, 5825, -1046, 252, -1032, -1763, -1826, -180, 8440, },
			{-3898, -3284, 362, 389, 1523, 1038, 71, 309, 1591, 978, 1840, -1718, -5791, -4398, 3973, 817, 5625, 5509, 4144, 2507, -1332, 2996, 5428, 2274, -229, -2247, -1582, 1559, 804, 4393, },
			{-7093, -6730, 1271, 4848, 3631, -240, 415, -2951, -1496, -483, 858, -5207, -5571, -3931, 4217, -2059, 2959, 1597, 4838, 704, 3716, 1236, 4971, 1562, -1375, -4748, -624, 590, -511, 3459, },
			{-2449, -3989, 4536, 7622, 5877, 567, 1216, -990, -364, 1221, -1308, -3604, -3803, -4367, 5729, 1859, 867, -754, -1309, -2079, -3360, -4939, -713, -3762, -5014, -5612, -1256, 1087, 295, 2672, },
			{1504, 2867, 8700, 7182, 3613, -645, -399, 1764, -48, 1672, 819, 426, -320, -2971, 2546, 3352, -109, -2067, -2019, -3945, -5619, -5668, 192, -3428, -5980, -2983, -233, 480, 2660, 9579, },
			{3361, 3121, 9376, 7415, 4564, -730, 3703, 96, 1419, 2016, 1031, -2258, -442, -2745, 1894, 2665, -2179, -5041, -4467, -3906, -8500, -8144, -3750, -3419, -3432, 1457, 1291, 542, 4951, 9603, },
		},
	},
	{
		{
			{4870, 5545, 1954, 2846, 510, -1685, -314, 433, -4699, -6162, -6455, -3957, -270, 929, -1251, -3985, -6982, -4848, -223, -2240, -5400, -4738, -5476, 1238, 3953, -730, -1562, -2140, -2309, -3079, },
			{5917, 5642, 270, 2000, 2337, -855, 389, 2528, -3323, -4999, -4761, -2982, -1193, -3352, -2990, -1511, -4771, -5300, -2067, 2240, 6271, 4429, 2134, 9195, 6557, -85, 1217, 1738, 1659, 2909, },
			{2812, -1008, -2526, -3851, -2140, -4208, 3604, 4609, 2288, 5034, 5423, 667, 2584, -3089, -1998, -2794, -5755, -8824, -8626, -812, -454, -946, -2154, 546, -2121, 1118, 1469, 1267, 4071, 1283, },
			{4979, 1514, -627, -304, -662, 1874, 3513, 6154, 6916, 3607, 5692, 2766, 5958, -538, 857, -1854, -5693, -5404, -6607, -5389, 586, 2983, 5234, 9206, 6852, 3456, 2841, -127, 519, -532, },
			{3512, 5944, -1518, 788, -1088, -4366, 2133, 2477, 2084, -401, 3426, 3981, 2592, -2281, -2365, -1794, -234, 306, -3713, 3450, 2466, -545, 7289, 3940, 2860, -1747, -1533, 1338, 168, 1044, },
			{1241, -1811, 1781, -3349, -3002, -2437, 1762, -286, 1798, -800, -504, -3195, 4968, 1697, -858, -4752, -948, 3373, 2061, 5230, 1900, -2175, 1460, 2262, 2734, -729, -2248, 584, -2849, -612, },
			{8897, -3224, -2593, -7160, -298, 4936, 7498, 5984, 4026, -2502, -4230, -3117, 294, 1318, 1640, -2192, 2819, 2925, 1100, 4559, 8514, 966, 5558, 4550, 2354, -4165, -7086, -193, -1892, 2238, },
			{7738, 115, 557, -394, 1641, 6996, 1711, -596, 6224, -812, -137, 1338, 4224, 2078, -1961, -5251, -3273, -3316, -1859, 5821, 12203, 8196, 6989, 5640, 3411, 2284, -4472, 4270, 753, -987, },
		},
	},
	{
		{
			{-3548, -2825, -6778, -7069, -5241, 371, 764, 1281, 3585, -526, -4725, -3562, -3057, -535, -3746, -1878, -519, -2047, 1871, -114, -1722, -425, -3290, -4682, 482, -1652, 613, 4280, 185, -1533, },
			{-2029, -4013, -3849, 59, 1157, 2427, 14537, 17463, 21589, 8653, 5952, 3474, 5213, -348, -2054, 505, 317, -1396, 2270, 2839, -122, -125, -3724, -2797, -2200, -1573, 815, 1376, -48, -4959, },
			{18, -89, -624, 2701, 7366, 9481, 12562, 16337, 20486, 7056, 700, -1407, 1507, -1544, -3708, -6125, -2953, -1759, -478, -2765, -2359, -4003, -3119, -2801, -5383, -6551, -3039, -2762, -5036, -8255, },
			{-1236, 1845, 1973, 4338, 13379, 10079, 10567, 9313, 12538, 7622, 4328, 570, -1201, -4737, -3191, -988, -1348, 1106, -649, -4764, -2154, -5728, -3113, -2943, -1481, -7007, -2998, -310, -1611, -2999, },
			{-16, 777, 152, 936, 4950, 436, 3342, -2772, 3554, -6877, -540, -2681, -1150, -1718, -916, -3803, -734, -433, -1173, -787, -2143, -719, -2737, -1362, 3508, -3015, -1254, 1927, -1731, -3593, },
			{-861, 1288, 1117, -1575, 30, -1862, 2571, 973, 4462, -7163, -7606, 1099, 3250, 2262, 866, -857, 3703, 4664, 3464, 4439, 2173, 553, -654, 2100, 521, -3720, 2241, 1754, 605, -2916, },
			{-182, 1814, 1917, -3057, -687, -1443, -3676, -4137, -5491, -7213, -4074, 2696, 3862, -215, -131, -1227, 753, 2337, 837, -3041, -4, -1389, -1628, -717, 4222, 2770, 1999, 72, 117, 517, },
			{1126, 519, -4821, -5752, 1429, 549, -864, -1746, -792, -5107, -1199, 1775, 1203, -651, -2359, -1912, -520, 377, -1413, -3747, -1280, -3055, -2787, -2069, 2530, -877, 869, -196, -583, -52, },
		},
	},
	{
		{
			{2614, 5954, 3821, 3134, 3117, 1677, -1919, -186, -2701, -5393, 2543, 5915, 3937, 2386, 304, 2868, 948, 3537, -2475, 574, -2810, -5780, -6508, -8955, -3917, -930, -2102, -485, 1852, 5364, },
			{2314, 2681, 1680, -777, 1632, 1195, -4463, -3865, -7585, -3139, 4521, 3901, 1550, 2357, 542, 1368, 1420, 3553, -2098, -2169, -5751, -5028, -8612, -4376, 419, 977, 1985, 3031, 2279, 3375, },
			{1555, -3577, -3423, -1746, -999, -358, -6264, -4154, -5396, -6550, 1012, -546, -1794, 3337, 1490, 2873, -999, -2290, 1358, -409, -1943, -3923, -4238, 638, 6149, 3139, -1604, 462, -4096, 123, },
			{4603, -202, 966, 1297, -151, -4126, -6030, -3066, -4876, -3098, 4979, 1496, -1567, -212, -2889, 3898, 213, -810, -218, 1859, -90, -3327, -752, -5183, -93, -1466, -5114, -15, -3077, -3322, },
			{1995, -896, 1978, 987, -4133, -582, -2135, -353, -1933, 1223, 6141, 1298, -778, -805, -2077, 3810, 1512, -4826, -1912, -4743, -3133, -1038, 1455, 2382, 4641, 4879, 2409, 4097, -1206, 2580, },
			{6731, 1924, 1298, -1536, -3494, -415, 504, 3579, -3356, -484, 5714, 339, 1339, -1450, -1786, 3485, -2408, -2745, -2423, -6588, -2103, 5042, 9459, 10776, 8916, 6271, 2159, 8243, 2583, 3377, },
			{6497, 4024, 741, 423, -732, 981, -408, -274, -1087, 3727, 3849, 411, -2254, -5164, -6178, 993, -5337, -5542, -4803, -2671, 1771, 4819, 6749, 3084, 1104, 5454, 183, 4366, 1425, -1048, },
			{3030, 3949, 460, 1143, 1478, 1374, 1723, 4197, 1719, 2471, 2884, -2795, -5259, -4239, -4230, -154, -5683, -4676, -41, -2579, -3777, -2185, 1885, 1496, 3917, 4873, 1283, 979, 33, 459, },
		},
	},
	{
		{
			{-536, -2621, -4082, -3408, -4186, -5292, -5446, -3349, 2193, -1317, -764, -3110, -2506, -2319, -4745, -705, -5086, -8274, -7186, -3947, -4685, 61, 2711, 599, -2999, -1437, 2770, 1209, 3187, 150, },
			{169, -962, -1864, -1565, -2410, -2032, 324, -653, 1132, 1202, 193, -1938, -2146, -1898, -3638, -1792, -4673, -7446, -8530, -2409, -7132, -2963, 2625, -726, -4392, -5491, 132, 923, 3189, 3148, },
			{-1346, -670, -1387, -429, -5020, -1244, -641, -3583, -1467, -2690, 264, -1285, -1558, -1129, 141, -3509, -3640, -4767, -8048, -3018, -8432, -4708, -1717, -1821, -4264, -2725, -3142, 2580, 4411, 2654, },
			{-2662, 1600, 5053, -721, -4845, -2260, -8079, -5992, -3597, -5078, -3355, -1854, -1074, 3435, 4266, 2892, -1286, -2583, -2916, -4140, -6370, -2130, -498, 5279, 352, 344, -1424, 2269, 4378, 8084, },
			{-733, 3696, 4404, -1883, -1069, -2780, -2490, -109, -3315, -6672, -162, 2421, -3970, -1422, -1741, 293, -1674, -1576, -4610, -925, -5023, -3676, 811, 33, -5551, -4116, -2177, 4526, 6979, 9768, },
			{-2894, 374, 834, -2676, -3352, -5956, -5320, -130, -449, -479, 986, 1854, 75, -278, -2454, -835, -2559, -2995, -4222, 145, -2897, 365, -2353, 54, -3381, -3289, -709, 1841, 10128, 5070, },
			{1821, 1853, 32, -1140, -1598, -1405, -2917, 632, 2988, 933, 3504, 5810, 4432, 3455, -221, -2124, 1805, 1075, -869, 2158, 152, -549, 279, 2547, 2835, -2675, -1591, 3648, 11633, 7276, },
			{5034, 4156, 2597, 3585, 3102, 3284, 2814, 2427, 7074, 3513, 8425, 5473, 4254, 1355, -830, -2971, 5178, 2902, 2271, 1005, -2709, -606, 4707, 6305, 5488, 2568, 3715, 6734, 9102, 4517, },
		},
	},
	{
		{
			{3006, 8029, 10631, 10002, 3866, 2520, 2967, 1769, 2048, -621, -373, -510, 1695, -1675, -2833, -3847, -673, -1027, -3703, -3989, -745, 1668, -2494, -2481, -6596, -1960, 188, -677, 1380, 2054, },
			{393, 5013, 3465, 2467, -930, -2624, 4553, 2909, -997, -378, -1003, -941, 461, -422, -4431, -2907, -1026, -4645, -7879, -6082, -6608, -970, -3378, -759, -4445, -1479, 1824, -1431, -3214, -2979, },
			{1961, 4272, 2200, 2114, -3063, -7195, -2523, -143, -479, -277, -3916, -4979, -2719, -1197, -1513, -301, -738, -7241, -6219, -4573, -3220, -1812, -2634, 550, -2749, -544, 849, -3577, -6426, -2810, },
			{2719, 6435, 4249, 3936, -724, -6878, -2052, -393, 1319, 637, 481, -3802, -719, 5016, 2415, 4667, -127, -4141, -720, -2259, -578, -2525, -700, 880, 4, -904, 937, -5013, -4691, -2733, },
			{937, 8975, 5280, 1158, -1434, -4735, 1058, 652, 2550, 2412, 1328, -1286, 2945, 4081, 2118, 1014, -425, -762, -2080, -2934, 2413, 2064, 87, 872, -172, 2059, 3576, 3188, -745, -319, },
			{4870, 11099, 5007, 2067, -2528, -3462, 3462, -103, 502, 1535, 515, -205, 3094, 3762, 939, -485, 838, -2097, -867, -494, 3572, 5162, -1472, -3185, -3621, 2318, 6595, 3733, 3233, 2545, },
			{8915, 11146, 5434, 6242, 807, -5547, -660, -567, 1607, 4594, 1917, 1073, 4565, 3589, -145, 1360, 1962, -3036, -1090, -3305, 1992, 1290, -2802, -3415, 361, 6120, 7577, 5712, 2517, 5329, },
			{8176, 7713, 3164, 5360, -2861, -4331, -439, 857, 1647, 7913, 5914, 5780, 6238, 1911, -221, -2272, 4786, 2598, -2709, -2927, -2838, 1024, 150, 2476, 3695, 7492, 7463, 7879, 6199, 5741, },
		},
	},
	{
		{
			{-5654, -1759, -3635, -3904, 5062, -2450, -4001, 1258, 3948, 863, -2350, -3873, -4847, -2467, 2613, 2196, 2883, 10, 3585, 6658, 2724, -7588, -7713, -10640, -3727, 990, 8110, 3108, -795, -335, },
			{-418, 3246, 172, 2049, 6435, -3199, -3054, 912, 2836, -487, -524, -1465, -2310, -5007, -1443, 7977, 4600, -3961, -6952, 3758, 3789, -4651, -5523, -4589, -2283, 1000, 6734, 1717, -761, 3637, },
			{-3941, 1166, 1794, -793, -114, -3296, -7113, -799, 3300, 579, -2488, -1355, -3168, -4278, -3708, 8440, -174, 1679, -6437, 3537, 5704, -3197, -6883, -6771, -4185, 2050, 2407, -3612, 1109, 44, },
			{-606, 5047, -3300, -56, -25, -1318, -6176, -3262, 3468, 338, 4485, 366, -1580, -2870, -3036, 2126, -3884, -3499, -3496, 1250, 6566, -1468, -11093, -6322, -3340, 3919, 2182, -1989, 3298, 1442, },
			{1804, 2967, -4824, -649, -1709, -1775, -5417, 2233, 1821, 3289, 4134, 1323, -731, -2850, -1423, 2911, -2247, -1984, 2079, 4310, 6272, -2521, -7048, -5867, -1886, -80, 3790, -1686, 3294, 6251, },
			{1238, 3044, 376, 2913, 363, -228, -1886, 5346, 3639, 3625, 4720, 4407, 5167, 2774, 1336, 1759, -3753, -3521, -3977, 2049, 5001, -1317, -5842, -4557, -495, 686, 6518, 2360, 4210, 3424, },
			{-1065, 5516, -1506, 4278, 1779, -3472, -808, 4439, 3755, 3221, 2958, -938, -2218, -1505, -3737, -3691, -1567, -2913, -621, 6642, 6140, -2494, -7267, -2167, 2507, 1987, 8114, 3647, 1337, 1311, },
			{2261, 4176, 3731, 3411, -838, 1120, 6078, 7852, 5174, 2568, 2672, -239, -7359, -5676, -5726, -2156, -2889, -3297, -705, 5052, 6944, 845, 3226, 3332, 4027, 4028, 6370, 2668, 5151, 2679, },
		},
	},
	{
		{
			{7683, 3069, -212, 3443, 955, -620, -1576, -2404, -4713, -1709, -2382, 3685, 3880, -176, -313, -2481, -4397, -238, -2251, -1621, -1527, 2998, -1933, 1776, 6954, 6710, 4490, 3603, -26, -4597, },
			{2155, 54, -3998, 860, -1018, -4846, -700, -1716, -3918, -1955, -3190, -427, 4301, 1370, -652, -915, -2585, -2021, -4367, -6844, -7085, -2443, -4512, 3292, 5370, 4408, 853, 3036, 4063, -2021, },
			{1480, -1028, -784, -4572, -4246, -1731, -482, 245, 365, 666, -344, 1314, 2549, -218, -1257, 191, -839, -238, -3186, -6159, -5646, -2026, -4721, -5570, -1358, 3012, 1897, 4510, 6757, 1481, },
			{1676, 260, -1599, -2207, -1402, 2891, 69, -1902, 1363, 650, 28, 951, 4726, 584, 87, 263, 930, 2643, -3222, -1831, -6156, -6020, -4339, -4249, -549, 5976, 7578, 11584, 9709, 5000, },
			{1350, -746, -5362, -4143, -1370, -1180, -2422, -2247, -3063, 1221, 752, 195, 2179, -429, 1425, 1930, 532, 1627, -1785, -3679, -7240, -7607, -9331, -8932, -3968, 3398, 5436, 12861, 10529, 7811, },
			{901, -2610, -2748, -5454, 444, -1005, -1815, 1469, -3053, -843, -788, -2957, 1608, -1878, -1120, -1065, -573, -427, -3577, -6515, -4357, -5323, -10011, -8645, -6236, 774, 2686, 10780, 9251, 2784, },
			{-1034, 2083, 1713, -2104, 1944, 3410, 2541, 4366, -182, 1169, -2803, -641, 959, 2137, 2861, 2492, 265, 3793, -1218, 3675, 1418, -488, -3907, -5062, -5154, 673, 6583, 12865, 12855, 9640, },
			{-309, 1994, 456, -2946, 1361, 1930, -174, -144, -1618, -318, -3714, -1794, 211, 890, 3761, 2965, 93, 3068, 262, 2296, -2441, -4253, -7445, -13400, -9097, -2063, 2687, 9187, 14408, 10058, },
		},
	},
	{
		{
			{9420, 6275, 4016, 3327, 1807, -1590, 517, 3283, 246, -1509, -444, -4515, -5303, -1807, -4011, -5091, 952, -2384, -4884, -5534, -3912, -708, 2317, 1929, 953, 3616, 508, -2573, 3786, 3032, },
			{7877, 5139, -1525, -437, -2748, -3889, 555, 1643, 1787, -2418, -1686, -5423, -8064, -1240, -511, -10954, -3589, -4042, -6076, -2398, -3911, 1176, -1646, 597, 1405, 3308, 2623, -1210, 1961, 1981, },
			{9776, 781, -498, 1943, 2159, 1402, 1532, 2766, 4827, -388, -408, -4578, -3519, -599, -1006, -7069, 3675, -79, -2103, -2799, -3835, -1902, -29, -494, 460, 1022, -1503, -1547, 5492, 4184, },
			{10225, 1509, -337, 987, 1466, 2157, -3117, -242, 1287, -888, 30, 1345, -380, -451, -3845, -10284, 1856, -5671, -2755, -5652, -3727, 1242, -1011, 1866, -170, -1129, -3106, -4483, 630, 1689, },
			{9557, 4301, -1678, -4428, -2528, -3368, -571, -1136, 1050, -579, 481, -2911, -738, -2498, 3970, -6104, 8645, 2949, 3731, 1429, 1187, 996, 197, 1302, 1260, 3322, -3662, 217, 1862, 1873, },
			{5584, -1074, -3457, 75, 76, -2167, -973, 3140, 5957, 95, -2347, -211, 882, 686, 1949, -3251, 1945, -1161, -1495, 3132, 2320, -2158, -2765, -901, -1988, 214, 316, 788, 3728, 7239, },
			{6483, -1419, -3769, -1120, -239, -2104, -3367, 302, 4476, -2405, -2867, -375, 50, 109, -3671, -7565, 3410, 2788, -77, 3784, 1338, 517, 2092, 515, -3172, -3383, -3930, -1618, 3625, 4732, },
			{4688, 1411, -2767, 1376, -2143, -4380, -1867, -923, 772, -1274, 362, 323, -244, -3325, -3193, -4834, 3870, 1047, 8807, 8165, 4984, 1971, 3590, 1211, 2137, -784, -25, -284, 5555, 3609, },
		},
	},
	{
		{
			{-2947, -8592, -5179, -3102, -5440, -10776, -7797, -7365, -1888, -8110, -7797, -7056, -4511, -6178, -8936, -2632, -4386, -1193, 1292, 3995, -263, 540, -4190, -2636, -5760, -7544, -5781, -7846, -2903, -672, },
			{-864, -5798, -5272, 1003, -587, 1671, 1827, 1977, 940, -3118, -2305, -1188, 2086, 4830, 761, 2761, 3093, -607, 4957, 6772, 4547, 2945, -2994, -645, -6307, -6229, 2259, -5150, -4502, -26, },
			{2040, 1399, 872, 5029, 6553, 10960, 12965, 9107, 5806, 6537, 1787, -1098, -1535, 1222, -3709, 66, 590, 485, 3573, 3488, 838, 1742, -4836, -1151, -4871, -4935, 4745, -675, -271, 1271, },
			{1030, 4200, 6512, 1857, 3351, 1505, 6805, 3830, -2098, 508, -4622, -2199, 44, -129, -4439, 1492, 1754, 2208, 3756, 2840, -1817, 1105, -2345, 2443, 400, -1587, 3684, 3099, 1163, -1015, },
			{-386, 3439, 9702, 7864, -1713, -135, 1864, -625, -1229, -444, -83, 3629, 1070, 2818, 94, 8765, 4343, 1918, -79, -1093, -455, -1200, 2242, -2018, -55, 2346, 2898, 6155, 3902, -1092, },
			{5781, 7670, 2988, -289, -2222, -3203, -501, 2398, 1479, -857, -2437, 2550, 3717, 3672, 1925, 8908, 4297, 2098, 1350, -97, 1896, -465, 3363, 1405, 3034, 8873, 6299, 274, -642, 2092, },
			{4740, 4369, 2372, 2263, 2260, -3396, 8512, 8323, 1234, -82, -6818, 292, 2213, 2354, 1535, 2771, -1156, -1384, -3796, -5057, -2788, 2083, 4251, -940, 1109, 5141, 6969, 1342, 2372, 500, },
			{-1696, 2725, 4361, 6916, 3050, 436, 6641, 6256, 1953, -735, -10591, 1472, 3125, -1166, -4204, -2942, -5868, -1340, -7076, -4478, -2434, -2060, -3437, -3665, -5667, 1225, 4570, -2409, -1367, -5329, },
		},
	},
	{
		{
			{3817, 358, 326, -2451, 1703, 2157, -1557, -173, 2024, 1834, 4143, -608, -3507, -6295, 62, 6103, 2032, 1350, 6112, 4162, 3195, 1912, -2021, -1501, -2309, 211, 1495, -566, 1165, -712, },
			{5593, 1644, 3019, -94, 3434, 483, -490, 5891, 4681, 2923, 969, -1610, -4536, -5310, 652, 2904, 1035, -184, 1225, 1483, -237, -106, -3252, 4116, -876, 159, 2051, 3637, 4753, 3421, },
			{4197, 4720, 3893, -269, 1745, -1316, -514, 1173, 1097, -2063, -190, -5084, -2189, -3537, -297, 2429, 232, -86, 175, -67, 281, 2387, -3687, 3206, -1626, 2008, 5150, 5469, 5071, 3357, },
			{1062, 173, 2413, -3824, -1002, 288, 1594, 240, -2744, -1079, 2453, -2598, 395, -5895, 226, 3280, -264, -708, -3660, -2687, 294, 1517, -3182, -2456, -740, 1686, 4512, 3968, 2065, -960, },
			{-1191, -1994, 1608, -1630, 155, 2277, -417, -494, -964, 2994, 2356, -4172, 641, 1152, 6137, 7597, 4476, -315, 128, -3539, -2340, -81, -771, 1682, 3080, -274, 1011, 1157, 3823, 405, },
			{-1978, -912, 2647, -965, -3808, -556, 54, -2886, -4688, 3847, 3197, -2049, -1015, -448, 2665, 3373, -318, -3771, -1454, -3339, -4950, -333, -1771, 1081, 3128, 531, -3619, 2060, 1155, -533, },
			{-3057, -2924, 491, -1096, -2577, 876, -724, -1366, -2797, 1235, -2590, -3158, -938, -504, 4275, 6194, -358, -2427, -1737, -1933, -2463, 104, 157, 64, -3018, -1305, -1759, 847, 3914, 3676, },
			{2060, 3141, 2716, 4112, 4191, 6870, 2721, 1148, 4319, 3658, -3444, -5237, -4295, -2518, 4427, 4630, 1601, 851, 64, -634, 845, 205, -396, -186, 4623, 2696, 4166, 1240, 8044, 5212, },
		},
	},
	{
		{
			{-1911, -3458, -1919, -5126, -1160, -2994, -3441, -4142, 1111, 2746, 7398, 4741, 488, -1000, -1271, 2540, 1416, -13, 1439, 2602, 2223, 5598, 7937, 2078, 2442, 2149, 990, 2753, -1319, -1700, },
			{-2367, -4107, -5094, -6608, -1243, -8643, -6920, -1132, 4791, 4420, 4375, 1864, -7042, -6734, -974, -2103, -8496, -2811, 6015, 1097, -1090, -332, -4964, -11638, -2178, -3361, -2848, -2465, -2428, -3076, },
			{2596, 1449, 102, -2009, 1098, -2341, 730, 1059, 4970, -2358, 4205, -1460, -8118, -8503, -1559, -5480, -8091, -766, 263, -363, -2464, -1279, 1449, -3954, 3275, -6520, -1343, 3202, 1273, 4322, },
			{183, -3380, 214, 926, 3264, -2079, 2270, 387, 1769, -1263, 2886, 708, -7, -2067, -143, -3527, 852, -605, 1037, 5649, 2101, 877, 5253, -851, 1142, -237, 3915, 8569, -940, 1148, },
			{-3724, -3159, 3381, -2593, 2556, 916, 2712, 8073, 7699, 4712, 6968, -2394, -2744, -1591, 1770, 3588, 5916, 2921, 4763, 3486, -332, 3285, -1450, -2815, 2147, -1158, -495, 8594, -2800, -2370, },
			{139, -1012, 1926, 731, 5929, 2644, 3477, 3101, -785, -1437, 3668, 1374, 5984, -2029, 1610, 7165, 4170, 6385, 2285, -4809, -5137, 3062, 620, -198, 808, -1880, -2922, 8744, -1478, -1367, },
