float conv_weight[186][1][8][30] = 
{
	{
		{
			{0.012456773780286312, -0.02517976053059101, 0.2436663657426834, 0.14045001566410065, 0.14616787433624268, 0.229075089097023, 0.16704648733139038, -0.06353998929262161, 0.06554926186800003, 0.08062825351953506, 0.024880772456526756, -0.231764554977417, -0.29927122592926025, -0.39283767342567444, -0.39310818910598755, -0.04506758973002434, -0.23721501231193542, -0.38719645142555237, 0.04037010297179222, 0.16145974397659302, 0.2056543231010437, 0.0638008788228035, 0.21107618510723114, 0.20046570897102356, 0.3410034775733948, 0.5086559653282166, 0.3707101047039032, 0.1387920081615448, -0.30460014939308167, 0.264983206987381, },
			{-0.07659351825714111, -0.0681806281208992, 0.03801938146352768, -0.06481119990348816, -0.01429578848183155, 0.11439540982246399, 0.14451222121715546, 0.0505305714905262, 0.21358343958854675, 0.1884894222021103, -0.11197338253259659, -0.12482234090566635, -0.2763940393924713, -0.3752312958240509, -0.36608871817588806, -0.045360978692770004, -0.14690853655338287, -0.35395634174346924, -0.185359388589859, 0.10327550768852234, 0.2113833725452423, 0.002380685182288289, 0.10648752003908157, 0.18525530397891998, 0.11958135664463043, -0.06326302886009216, -0.21105150878429413, -0.14192698895931244, -0.2666192650794983, -0.0355757474899292, },
			{0.009762067347764969, 0.20270201563835144, 0.09943515807390213, 0.11571510136127472, 0.0470973439514637, -0.10783401876688004, 0.1466476172208786, 0.012865514494478703, 0.11665885895490646, 0.02910742349922657, 0.03936789184808731, -0.03974078595638275, 0.07215569168329239, -0.22522076964378357, 0.014052212238311768, 0.12079990655183792, -0.16540466248989105, -0.2661001682281494, -0.16466844081878662, 0.17542113363742828, 0.3262907564640045, 0.16273711621761322, 0.223573699593544, 0.1403854489326477, 0.14255662262439728, 0.02952858991920948, 0.03793300688266754, 0.07405330240726471, 0.05879046022891998, 0.24458692967891693, },
			{-0.24402759969234467, 0.01676405593752861, 0.27156829833984375, 0.12347791343927383, 0.21469202637672424, -0.05485552176833153, 0.11319582164287567, -0.025253411382436752, 0.05348701775074005, -0.12904143333435059, -0.17284289002418518, -0.20168353617191315, -0.17462779581546783, -0.26715633273124695, 0.019162697717547417, 0.05310152843594551, -0.136208176612854, -0.1802474707365036, -0.02158726006746292, 0.013491468504071236, 0.07355114072561264, -0.17992159724235535, 0.06754656136035919, 0.09867402911186218, -0.004191122483462095, 0.023117773234844208, 0.03459179773926735, -0.12705163657665253, -0.19889648258686066, 0.10501054674386978, },
			{-0.11901939660310745, -0.021434221416711807, 0.08565041422843933, -0.062221262603998184, -0.14454595744609833, 0.015103817917406559, 0.2419866919517517, 0.056226640939712524, -0.12917692959308624, -0.4027683734893799, -0.3470882475376129, -0.1267675757408142, -0.23098260164260864, -0.22795595228672028, -0.013777373358607292, 0.1599227339029312, 0.02982388250529766, -0.1379794031381607, -0.3948439955711365, -0.06925400346517563, -0.12399464100599289, -0.2667926549911499, 0.054759133607149124, 0.3159618079662323, 0.35232263803482056, 0.009272700175642967, 0.16032835841178894, 0.0576343797147274, -0.14743034541606903, 0.4843706786632538, },
			{-0.2070426046848297, -0.03698083013296127, 0.0865994319319725, -0.20938362181186676, -0.18901677429676056, -0.0680570900440216, 0.1779504418373108, 0.03679806366562843, 0.16679710149765015, 0.03805243968963623, -0.010549970902502537, -0.16322651505470276, -0.07397637516260147, -0.2054513841867447, 0.051945243030786514, -0.0067531573586165905, 0.008198730647563934, -0.20085874199867249, -0.16448312997817993, -0.0865592211484909, -0.16848598420619965, -0.25640538334846497, -0.04634211212396622, 0.06914708763360977, -0.10634169727563858, -0.24727699160575867, -0.13776895403862, 0.026760635897517204, 0.13915683329105377, 0.3164445459842682, },
			{-0.2848931550979614, -0.0026125647127628326, 0.0060018436051905155, -0.19663238525390625, -0.017659397795796394, -0.009920437820255756, 0.24963539838790894, 0.3188014030456543, 0.2709951102733612, 0.10134783387184143, 0.23004280030727386, 0.15838372707366943, 0.03803250566124916, -0.17204874753952026, -0.051355354487895966, 0.1452762335538864, 0.2283954620361328, -0.22867636382579803, -0.22921189665794373, -0.11444743722677231, -0.3901745080947876, -0.37490519881248474, 0.04866581782698631, -0.1899266391992569, 0.0280313640832901, -0.2735799551010132, 0.023877182975411415, 0.3091442584991455, 0.1861526519060135, 0.3615218997001648, },
			{-0.05039514601230621, 0.1001426950097084, 0.11230701953172684, -0.12339992076158524, 0.12112611532211304, -0.044784948229789734, 0.11640550941228867, 0.10588345676660538, 0.23456835746765137, 0.09037397056818008, 0.22234681248664856, 0.03498511388897896, 0.1433725208044052, -0.04722106456756592, -0.0917823314666748, -0.012125415727496147, 0.2322157919406891, 0.012010904960334301, -0.06773032993078232, -0.18320289254188538, -0.23048877716064453, -0.04401596635580063, 0.22978408634662628, 0.3644195795059204, 0.40295860171318054, 0.23975889384746552, 0.6659330129623413, 0.643464207649231, 0.2569791078567505, 0.1567087322473526, },
		},
	},
	{
		{
			{0.12058021873235703, -0.22481833398342133, -0.578352689743042, -0.4924330413341522, -0.14785197377204895, -0.2069777548313141, -0.01737027056515217, 0.11446190625429153, 0.20422601699829102, 0.29558226466178894, 0.33992820978164673, 0.09915834665298462, 0.07025830447673798, -0.17989394068717957, -0.3165390193462372, -0.292966365814209, -0.09160416573286057, 0.2846415340900421, 0.09804590046405792, -0.14898648858070374, -0.21921637654304504, 0.13633529841899872, 0.06272557377815247, 0.04713816195726395, 0.2128223478794098, -0.0462622232735157, 0.0718563050031662, 0.14325550198554993, -0.053235795348882675, -0.09231622517108917, },
			{0.15618784725666046, -0.24453695118427277, -0.337321013212204, -0.3496607840061188, -0.20821696519851685, -0.1861874908208847, 0.09808366000652313, 0.424642950296402, 0.5359055399894714, 0.5225720405578613, 0.3240453898906708, -0.12784811854362488, -0.19370968639850616, -0.1803043931722641, -0.7107101678848267, -0.5942742228507996, -0.0058212848380208015, 0.4364621043205261, 0.026776442304253578, 0.17132627964019775, 0.3031620979309082, 0.31029564142227173, 0.3419759273529053, 0.00867984164506197, -0.01565120927989483, -0.037716250866651535, 0.18000470101833344, 0.11055218428373337, -0.09457854926586151, -0.0004037822363898158, },
			{0.08445917814970016, -0.05121671035885811, -0.24635908007621765, -0.2984607219696045, -0.1555221825838089, 0.21993325650691986, 0.27581334114074707, 0.44304972887039185, 0.3631249666213989, 0.2856406569480896, 0.0858195498585701, -0.2745702564716339, -0.22201722860336304, -0.3045099377632141, -0.66231369972229, -0.474270224571228, 0.11708018183708191, 0.3359083831310272, 0.05470525100827217, -0.08332903683185577, -0.09052122384309769, 0.11842690408229828, 0.10174001008272171, 0.031775299459695816, 0.013662595301866531, 0.13521678745746613, 0.19496701657772064, 0.1050894558429718, 0.10408707708120346, 0.05291914939880371, },
			{-0.03726803883910179, -0.16921862959861755, -0.21713292598724365, -0.4018458127975464, -0.38234370946884155, -0.00880108866840601, 0.019885895773768425, -0.06079068407416344, -0.2535788416862488, -0.16139845550060272, -0.02222052775323391, -0.15017668902873993, -0.2675730884075165, -0.49781522154808044, -0.12894797325134277, -0.3443269729614258, 0.2271740734577179, 0.36971157789230347, 0.20164014399051666, -0.08437719196081161, 0.13298101723194122, -0.06653711944818497, 0.0027117670979350805, -0.15195751190185547, 0.15531609952449799, 0.13033527135849, 0.057344596832990646, 0.09189588576555252, 0.13958615064620972, -0.0676465854048729, },
			{-0.0917167216539383, -0.2927587926387787, -0.32467466592788696, -0.25792384147644043, 0.027237262576818466, 0.3357778787612915, 0.7190384268760681, 0.45038411021232605, 0.2950355112552643, 0.31534016132354736, 0.1280687153339386, -0.25953954458236694, -0.37875664234161377, -0.464488685131073, 0.04612400755286217, -0.14985506236553192, 0.4896883964538574, 0.4331391751766205, 0.2747155725955963, -0.13502579927444458, -0.16093893349170685, -0.1462925523519516, -0.17653268575668335, -0.19966933131217957, -0.023862645030021667, 0.07189613580703735, 0.004210993181914091, 0.18787238001823425, -0.18064871430397034, -0.16173934936523438, },
			{0.017620908096432686, -0.1863255351781845, 0.12741804122924805, 0.3642483353614807, 0.30765438079833984, 0.45175009965896606, 0.48398658633232117, 0.43390029668807983, 0.25582778453826904, 0.30012479424476624, -0.07117047905921936, -0.3885500729084015, -0.27615469694137573, -0.39934492111206055, -0.007493663113564253, -0.11361842602491379, 0.43259310722351074, 0.3299166262149811, 0.08141900599002838, -0.3714713454246521, -0.4477934241294861, -0.5187314748764038, -0.4496769309043884, -0.2185697704553604, -0.06796763837337494, 0.023288751021027565, -0.11902680993080139, -0.1297394186258316, -0.2509114742279053, -0.2026921510696411, },
			{0.10059143602848053, 0.0006910369847901165, 0.17499855160713196, 0.3176400661468506, 0.16073989868164062, 0.27100011706352234, 0.2995014786720276, -0.028413768857717514, -0.20862866938114166, -0.14686638116836548, -0.4731615483760834, -0.5023060441017151, -0.2848738431930542, -0.1924515664577484, 0.028759649023413658, -0.05180473253130913, 0.46203163266181946, 0.45177963376045227, 0.0473615936934948, -0.3816474676132202, -0.3700183928012848, -0.4235536754131317, -0.41623976826667786, -0.322124719619751, -0.17835980653762817, -0.13046938180923462, -0.013083282858133316, -0.09709056466817856, -0.17429277300834656, -0.01828688196837902, },
			{0.022604292258620262, 0.2132290005683899, 0.13265317678451538, 0.42599913477897644, 0.4009818136692047, 0.483580619096756, 0.5743381381034851, 0.33034825325012207, 0.1785963624715805, 0.21278011798858643, -0.15152791142463684, -0.32152608036994934, 0.19360940158367157, 0.20574620366096497, 0.14081713557243347, 0.15629132091999054, 0.6536444425582886, 0.6516075134277344, 0.19103862345218658, -0.02922036498785019, -0.0754104033112526, -0.3152388036251068, -0.03426077589392662, -0.2625490128993988, -0.1057944968342781, 0.08631466329097748, 0.2580089569091797, 0.1824091523885727, 0.07931472361087799, 0.0708431601524353, },
		},
	},
	{
		{
			{0.30470073223114014, 0.06689582765102386, -0.21592094004154205, 0.011791344732046127, -0.14417728781700134, -0.07236862182617188, 0.002436223439872265, -0.10432300716638565, 0.26306337118148804, 0.29950135946273804, 0.24379801750183105, 0.09779272973537445, 0.1571982353925705, -0.04204900190234184, -0.02056354470551014, 0.12240827083587646, -0.21858786046504974, -0.09517642855644226, -0.09153994917869568, 0.12194524705410004, 0.08017060905694962, -0.00969549547880888, -0.20395566523075104, 0.14202289283275604, 0.14886997640132904, 0.42999276518821716, 0.23322750627994537, -0.03012683056294918, 0.06444645673036575, 0.003138403408229351, },
			{-0.07994938641786575, 0.09498006850481033, -0.22775138914585114, -0.029816672205924988, -0.1604917049407959, -0.21169935166835785, -0.026073144748806953, 0.01241204421967268, 0.09338518232107162, 0.09741291403770447, 0.07352942228317261, -0.10363376885652542, -0.19177576899528503, -0.21899013221263885, -0.16861465573310852, 0.0472550131380558, -0.29472067952156067, -0.4068851172924042, -0.5276520848274231, 0.004236322827637196, 0.07065488398075104, -0.1251593977212906, -0.5331165194511414, -0.28010112047195435, -0.031517382711172104, 0.10080475360155106, -0.16619613766670227, -0.037454310804605484, -0.025649603456258774, 0.13922716677188873, },
			{0.039512999355793, 0.1809851974248886, -0.06130260229110718, 0.03840971365571022, 0.036497507244348526, -0.08259432762861252, -0.078448586165905, -0.14611828327178955, 0.01675434783101082, 0.12699800729751587, -0.07769071310758591, 0.02203526347875595, -0.0433504618704319, -0.1563037931919098, -0.21111518144607544, -0.1049799770116806, -0.24664174020290375, -0.33201995491981506, -0.3356122374534607, -0.16155529022216797, 0.10077774524688721, -0.1472281813621521, -0.3882714509963989, -0.30539363622665405, -0.15822827816009521, 0.1087283343076706, -0.11100704967975616, -0.11618059873580933, 0.15465588867664337, 0.25208142399787903, },
			{0.03165743499994278, -0.03139667212963104, 0.030892115086317062, 0.18099261820316315, 0.14988453686237335, 0.12420698255300522, 0.13513177633285522, -0.11019916832447052, 0.03975983336567879, 0.15206868946552277, -0.11445669084787369, 0.14370755851268768, 0.1719811111688614, -0.11417420953512192, -0.06208595260977745, 0.1291019469499588, -0.2914216220378876, -0.1599923074245453, -0.3345979154109955, 0.13402126729488373, 0.217462420463562, -0.049110379070043564, -0.30639344453811646, -0.15000274777412415, -0.022560296580195427, 0.2104136347770691, 0.11793740838766098, -0.022666502743959427, 0.25216811895370483, 0.48660778999328613, },
			{-0.022135054692626, -0.16447891294956207, -0.20334786176681519, 0.007343965582549572, 0.06093425676226616, 0.09169580787420273, -0.005090876016765833, -0.1439361274242401, -0.11380176246166229, 0.028843039646744728, 0.012751023285090923, 0.2074609249830246, 0.047095417976379395, 0.01800881139934063, -0.0659855306148529, 0.09768263250589371, -0.4448604881763458, -0.2877683937549591, -0.2809141278266907, 0.28562915325164795, 0.19940094649791718, -0.04675256460905075, -0.17105497419834137, -0.24202272295951843, -0.22449246048927307, 0.02633586712181568, 0.04449854791164398, 0.05477086454629898, 0.25690552592277527, 0.4250229299068451, },
			{0.11945413798093796, 0.07130958139896393, -0.17413711547851562, 0.01349292416125536, -0.1397079974412918, 0.12385274469852448, -0.032349877059459686, -0.24572192132472992, -0.06007729470729828, 0.007393334060907364, 0.07926501333713531, 0.22746065258979797, -0.18273763358592987, -0.019326915964484215, -0.10892943292856216, -0.04252951964735985, -0.4429573118686676, -0.5671200752258301, -0.4060571789741516, 0.10039425641298294, 0.09993170946836472, 0.005742576438933611, -0.3021085560321808, -0.2958608865737915, -0.2118227630853653, 0.020719222724437714, -0.04197312891483307, 0.11348580569028854, 0.237574964761734, 0.3045741617679596, },
			{0.21010491251945496, 0.2830585837364197, 0.1750679612159729, 0.2782873809337616, 0.19814078509807587, 0.17296935617923737, 0.1413804143667221, -0.10437539219856262, -0.22131653130054474, -0.07788687944412231, 0.0466868095099926, 0.013223756104707718, -0.15778657793998718, 0.01058593112975359, 0.009534244425594807, -0.1495215892791748, -0.4740839898586273, -0.381348192691803, -0.028420984745025635, 0.2319212257862091, 0.25799980759620667, 0.20623891055583954, -0.23005607724189758, -0.29984545707702637, -0.3278406858444214, -0.1311432421207428, -0.03079441376030445, 0.07438388466835022, 0.15865160524845123, 0.4951375126838684, },
			{0.16680924594402313, 0.1833738535642624, 0.2801968455314636, 0.2362469881772995, 0.15654060244560242, 0.10442066937685013, -0.033569347113370895, -0.08488384634256363, -0.1371506303548813, -0.11328807473182678, -0.14040572941303253, 0.2818092405796051, 0.2421075403690338, 0.2183072566986084, 0.15544456243515015, -0.019548770040273666, -0.21875013411045074, -0.21800364553928375, 0.02232862263917923, 0.41575944423675537, 0.5124784708023071, 0.3076861798763275, 0.028038492426276207, -0.029642591252923012, -0.16272692382335663, 0.03767971321940422, -0.01819205842912197, 0.1540450155735016, 0.22449804842472076, 0.5426306128501892, },
		},
	},
	{
		{
			{0.030554281547665596, 0.04429459199309349, 0.1694372594356537, -0.1346142441034317, -0.21916349232196808, 0.016034265980124474, 0.09117236733436584, 0.13067126274108887, -0.1289318948984146, 0.09995566308498383, 0.02792900800704956, 0.2428903579711914, -0.0306098572909832, 0.014182262122631073, 0.06705373525619507, 0.2713898718357086, 0.1966361105442047, 0.0950419157743454, 0.28402408957481384, 0.21237587928771973, 0.04979531466960907, -0.5062981247901917, -0.6179213523864746, -0.29602858424186707, 0.2493441253900528, 0.20059213042259216, -0.20144233107566833, -0.056694790720939636, 0.2588704228401184, 0.206605464220047, },
			{0.16346602141857147, 0.007576334290206432, 0.27681058645248413, 0.04462448135018349, 0.00458909384906292, 0.04159092158079147, -0.057915445417165756, 0.2564418315887451, 0.1292351484298706, 0.18952122330665588, 0.07086586952209473, 0.21076415479183197, -0.032853174954652786, -0.05885976180434227, 0.044743917882442474, -0.029105445370078087, -0.24190138280391693, -0.2175927758216858, -0.07808000594377518, -0.06681768596172333, -0.1804078072309494, -0.5149368047714233, -0.4273556172847748, -0.05376185476779938, 0.3430998921394348, 0.15304677188396454, -0.1480231136083603, -0.19419151544570923, 0.2807457447052002, -0.016479233279824257, },
			{0.09800826013088226, 0.16953347623348236, -0.024582089856266975, -0.04122179374098778, -0.33468011021614075, -0.2038598209619522, -0.07210411876440048, -0.12129949033260345, -0.05838318541646004, -0.04235267639160156, -0.08083304017782211, 0.003561965888366103, 0.051992326974868774, -0.05997480824589729, -0.094352588057518, -0.17376407980918884, -0.2389388084411621, -0.36744460463523865, -0.14412015676498413, -0.07998540997505188, -0.16912086308002472, -0.4397205710411072, -0.35950180888175964, 0.06544742733240128, 0.4353143274784088, 0.31099674105644226, -0.1401016265153885, -0.10605067759752274, 0.15382839739322662, 0.15735450387001038, },
			{0.05338640138506889, 0.27307358384132385, 0.12185846269130707, 0.03816422075033188, -0.28819090127944946, -0.10744288563728333, 0.07465165853500366, 0.1469317525625229, -0.0073454296216368675, -0.017836851999163628, 0.16611887514591217, 0.13468974828720093, 0.05378105863928795, -0.004734033718705177, 0.06787586957216263, 0.0663793757557869, -0.02398255094885826, 0.01165316253900528, -0.00019712247012648731, -0.1963041126728058, -0.13089419901371002, -0.31821581721305847, -0.1986178457736969, 0.17427745461463928, 0.5613812208175659, 0.4070168137550354, -0.06465937197208405, -0.10465694963932037, -0.0700845792889595, 0.19020524621009827, },
			{-0.07826200872659683, 0.17653806507587433, 0.332025945186615, 0.07838953286409378, -0.1774446815252304, -0.08707007020711899, -0.015084318816661835, 0.16815532743930817, -0.023519767448306084, 0.12559042870998383, 0.04785093665122986, 0.0430692695081234, 0.033051323145627975, 0.14196954667568207, 0.1743333339691162, 0.18862342834472656, 0.0907835140824318, 0.057439062744379044, -0.025295529514551163, -0.19137755036354065, -0.06953654438257217, -0.2585128843784332, -0.15191364288330078, 0.3846038281917572, 0.8009548783302307, 0.31581923365592957, 0.020449453964829445, 0.09773341566324234, 0.13495996594429016, 0.152736097574234, },
			{-0.09522443264722824, 0.1121952086687088, 0.10116832703351974, 0.054456084966659546, -0.17270046472549438, -0.2425244152545929, -0.05681620538234711, 0.1345154196023941, -0.06294120848178864, 0.10297334939241409, 0.08195386081933975, -0.006184578873217106, -0.011680086143314838, 0.1416199803352356, 0.29058170318603516, 0.3228301405906677, 0.12293005734682083, 0.05521700158715248, 0.18033051490783691, -0.13841333985328674, -0.29948535561561584, -0.39334145188331604, -0.39183759689331055, 0.39561668038368225, 0.7513311505317688, 0.33636680245399475, -0.00481932470574975, 0.2506178915500641, 0.22523711621761322, 0.07024736702442169, },
			{0.024358659982681274, 0.0028023619670420885, 0.06456660479307175, 0.12801721692085266, -0.09304551035165787, -0.024323364719748497, -0.1936403065919876, -0.14946220815181732, -0.160796120762825, 0.06955499202013016, -0.35480043292045593, -0.2614445686340332, -0.2837837338447571, 0.03844698145985603, 0.09675109386444092, 0.16473431885242462, 0.008618483319878578, 0.15414415299892426, 0.12269477546215057, -0.1766512244939804, -0.3097010850906372, -0.49758535623550415, -0.33041495084762573, 0.26320046186447144, 0.6219164133071899, 0.21610549092292786, -0.1785082221031189, 0.09206007421016693, -0.0145105654373765, 0.25489377975463867, },
			{0.12794403731822968, 0.18451771140098572, -0.00861851405352354, 0.10362225770950317, -0.1069653108716011, 0.059415873140096664, -0.048560772091150284, 0.04017631709575653, 0.06240130960941315, 0.18415462970733643, 0.052849408239126205, -0.20154881477355957, -0.22577618062496185, -0.07486256957054138, 0.035615693777799606, 0.2893378436565399, 0.3210010528564453, 0.1854199320077896, 0.011870773509144783, -0.21986526250839233, -0.33303970098495483, -0.33855414390563965, -0.1598721295595169, 0.26113879680633545, 0.9482718706130981, 0.6138830184936523, 0.07606387138366699, 0.046229004859924316, 0.01912338100373745, 0.27427950501441956, },
		},
	},
	{
		{
			{-0.19469796121120453, 0.19477270543575287, -0.03675226867198944, -0.1316235214471817, 0.0543377660214901, 0.10314727574586868, 0.15124918520450592, -0.102419413626194, 0.14859196543693542, 0.23768702149391174, 0.10158150643110275, -0.23596704006195068, -0.17830124497413635, -0.3267872631549835, -0.10404510051012039, -0.18867455422878265, -0.15807469189167023, 0.004093615338206291, -0.03265712037682533, 0.36306390166282654, 0.21632450819015503, 0.2867005169391632, 0.2489945888519287, -0.40913131833076477, -0.3588249683380127, -0.2277439385652542, -0.21940122544765472, -0.25769123435020447, -0.05724190175533295, 0.012120210565626621, },
			{0.08985840529203415, 0.10263702273368835, -0.1347811222076416, -0.07477614283561707, 0.0500921830534935, -0.0593411810696125, 0.015421160496771336, -0.3625156283378601, -0.007920105941593647, 0.23084957897663116, 0.1787724643945694, -0.11608226597309113, 0.09042836725711823, -0.04594574123620987, -0.17508378624916077, -0.03658518195152283, 0.12878738343715668, 0.3531280755996704, 0.2500288784503937, 0.16212406754493713, -0.11307039856910706, -0.12286780774593353, -0.13819873332977295, -0.5203098058700562, -0.36900317668914795, -0.07518549263477325, 0.04848289117217064, -0.11706321686506271, -0.06163643300533295, -0.20186226069927216, },
			{-0.19221080839633942, -0.13137106597423553, -0.14609995484352112, -0.18361951410770416, 0.16487765312194824, 0.011800769716501236, -0.21459777653217316, -0.3569607436656952, 0.015255135484039783, 0.057235363870859146, -0.1178107038140297, -0.06248524785041809, 0.011277906596660614, 0.013382382690906525, -0.08614423125982285, -0.05866115540266037, 0.13534286618232727, 0.4235735833644867, 0.35258856415748596, 0.2526457905769348, 0.3359453082084656, 0.33230990171432495, 0.4650835692882538, 0.2949378192424774, 0.24105437099933624, 0.3574734032154083, 0.3440204858779907, 0.12544965744018555, 0.03517298400402069, -0.05485444888472557, },
			{0.026680462062358856, -0.2070905566215515, -0.008900417946279049, -0.05072586610913277, 0.12750549614429474, -0.008419962599873543, -0.07869463413953781, -0.20126061141490936, -0.21832531690597534, -0.06952633708715439, -0.12236714363098145, -0.020294951274991035, -0.30800509452819824, 0.057756442576646805, -0.03254130110144615, -0.03132464364171028, 0.22193515300750732, 0.1315271556377411, 0.28526872396469116, 0.35992443561553955, 0.44119638204574585, 0.29357463121414185, 0.2601367235183716, 0.0791768878698349, 0.39350104331970215, 0.44166067242622375, 0.3467916250228882, 0.3147781491279602, 0.339282363653183, 0.12595969438552856, },
			{-0.03189254552125931, -0.023459002375602722, 0.14640305936336517, -0.18543311953544617, -0.09735754877328873, 0.04224435240030289, 0.11911185830831528, -0.07320637255907059, -0.09621285647153854, -0.059601567685604095, -0.035399992018938065, -0.06867308914661407, -0.25067344307899475, 0.036602262407541275, -0.12916971743106842, -0.05400054529309273, -0.1860254555940628, -0.23320482671260834, -0.3221152424812317, -0.12905621528625488, 0.052700355648994446, -0.04271623492240906, 0.12461218982934952, 0.0801360234618187, 0.19145427644252777, 0.3081856071949005, 0.46108198165893555, 0.2049110382795334, 0.013879482634365559, 0.1066218763589859, },
			{0.17972911894321442, 0.148926243185997, -0.07482443749904633, -0.010778067633509636, 0.16021615266799927, 0.15904562175273895, 0.04398639500141144, 0.1849919855594635, 0.02369692176580429, -0.21114367246627808, -0.19892007112503052, -0.1477476954460144, -0.07033855468034744, 0.08268826454877853, -0.17172755300998688, 0.01166344340890646, -0.02116791158914566, -0.24823743104934692, -0.2648827135562897, 0.08718082308769226, 0.20439448952674866, 0.05259203910827637, 0.0014824020909145474, -0.212129145860672, -0.10734289884567261, 0.012681794352829456, 0.08277732133865356, 0.138770192861557, 0.12412412464618683, 0.30020275712013245, },
			{0.06236264109611511, -0.1669154316186905, -0.12378445267677307, -0.0074273510836064816, 0.04601437970995903, -0.08249478042125702, -0.008950719609856606, 0.02595270238816738, -0.08204662054777145, -0.23692728579044342, -0.021597648039460182, -0.18179218471050262, 0.0011667974758893251, -0.06860841065645218, -0.23239651322364807, -0.18721163272857666, -0.0422455258667469, -0.24530629813671112, -0.48969703912734985, -0.3517732322216034, -0.06235627830028534, -0.399265319108963, -0.12968409061431885, -0.2393484264612198, 0.17458893358707428, 0.5516536235809326, 0.4310552179813385, 0.3074561655521393, 0.5362675189971924, 0.17386694252490997, },
			{-0.20512980222702026, -0.3090701401233673, -0.012138079851865768, 0.005917937029153109, 0.14214101433753967, -0.018630623817443848, 0.05908865109086037, 0.16462688148021698, 0.21999454498291016, 0.07582040876150131, 0.3071651756763458, 0.047269921749830246, -0.11189354956150055, -0.08067820966243744, -0.038522206246852875, 0.24565128982067108, 0.06480138748884201, -0.1580577939748764, -0.23510119318962097, -0.2668861746788025, -0.006333362776786089, 0.12080733478069305, 0.322726309299469, -0.0340421088039875, -0.142355278134346, 0.0015798733802512288, -0.033832110464572906, 0.1335696130990982, 0.5244073867797852, 0.12056034058332443, },
		},
	},
	{
		{
			{0.31655144691467285, 0.3163744807243347, 0.2927987575531006, 0.16407419741153717, 0.11459606885910034, 0.051173578947782516, -0.28984445333480835, -0.16115036606788635, -0.22027045488357544, -0.26011085510253906, -0.1777125746011734, -0.2715708613395691, -0.2858062982559204, -0.018274996429681778, -0.06792323291301727, 0.044248949736356735, 0.11790402233600616, -0.0012657783227041364, 0.05248601734638214, 0.022232528775930405, 0.27767708897590637, 0.3536072075366974, 0.32024839520454407, 0.03542914614081383, 0.004809623584151268, 0.10732575505971909, 0.020649265497922897, 0.39326757192611694, 0.37995651364326477, 0.21820448338985443, },
			{0.19043992459774017, -0.022293565794825554, 0.3059368431568146, -0.11775130778551102, -0.19409805536270142, -0.28220728039741516, -0.42854422330856323, -0.19925235211849213, -0.18422171473503113, -0.14801204204559326, 0.010061279870569706, -0.16302363574504852, -0.14200609922409058, -0.019527573138475418, 0.09907583892345428, 0.012506941333413124, 0.0687379539012909, 0.017226912081241608, 0.022281469777226448, 0.09021319448947906, 0.16695624589920044, 0.28064244985580444, 0.1515311449766159, 0.09629545360803604, 0.12687106430530548, -0.0348210409283638, 0.1262599527835846, 0.23310495913028717, 0.35384079813957214, -0.3409079313278198, },
			{0.040601253509521484, -0.30887025594711304, -0.0917673259973526, -0.20492175221443176, -0.3273630142211914, -0.47381365299224854, -0.40601688623428345, -0.364209920167923, 0.0066129001788794994, -0.14962762594223022, -0.03476131707429886, -0.1317814439535141, -0.1981314867734909, 0.00013671170745510608, 0.012083896435797215, 0.04701564460992813, 0.07285180687904358, -0.08822774887084961, -0.08555030077695847, -0.05678796023130417, -0.10742060095071793, -0.030032139271497726, -0.14760389924049377, 0.03929264098405838, 0.04790687561035156, -0.07536403089761734, -0.14462026953697205, 0.10354718565940857, -0.10549597442150116, -0.2123768925666809, },
			{0.37517720460891724, -0.11570897698402405, 0.15776923298835754, 0.05891355499625206, -0.1384386569261551, -0.3521973788738251, -0.4303196966648102, -0.1490706205368042, -0.09095106273889542, 0.05529574677348137, -0.011652388609945774, -0.16791167855262756, -0.04378650337457657, -0.10089881718158722, -0.12555508315563202, 0.042278289794921875, 0.2555789649486542, -0.2116917371749878, -0.11935830861330032, -0.13056723773479462, -0.18466058373451233, 0.09129859507083893, -0.014932195656001568, -0.03947266563773155, 0.024111522361636162, 0.003767161164432764, -0.14209850132465363, 0.2699623107910156, -0.051540400832891464, -0.13179001212120056, },
			{0.25341886281967163, 0.10966222733259201, 0.38881582021713257, -0.033103927969932556, -0.055788349360227585, -0.029098810628056526, 0.08176331967115402, 0.13761883974075317, 0.2602541446685791, 0.18683692812919617, 0.23568493127822876, -0.15687212347984314, -0.0065751527436077595, -0.12188584357500076, 0.0012577454326674342, 0.04121042788028717, 0.007113518193364143, -0.1548984795808792, -0.11182837933301926, -0.21002358198165894, -0.005397801753133535, -0.03254253417253494, 0.0627957358956337, -0.11201509088277817, -0.062243036925792694, 0.057915098965168, -0.03957349434494972, 0.2043340504169464, -0.10500182211399078, -0.1695878654718399, },
			{0.315807968378067, 0.1562299132347107, 0.12319102883338928, 0.13286297023296356, 0.01586671732366085, 0.15513500571250916, 0.3750319480895996, 0.3080197274684906, 0.49429261684417725, 0.37660691142082214, 0.32274311780929565, 0.20062822103500366, 0.23007667064666748, -0.14257586002349854, 0.0292969960719347, -0.007873429916799068, 0.06383874267339706, 0.04032032564282417, -0.03556055948138237, -0.052044596523046494, 0.0605383925139904, 0.1449459344148636, -0.1319912075996399, -0.20370979607105255, 0.06553814560174942, -0.033365730196237564, -0.10578040033578873, 0.16730855405330658, -0.03835727646946907, -0.049531519412994385, },
			{0.3187648057937622, 0.19603267312049866, 0.07073121517896652, 0.28855636715888977, -0.14210717380046844, -0.07761681824922562, 0.1533745974302292, 0.2378901243209839, 0.3342060148715973, 0.3100322186946869, 0.12939545512199402, 0.1820501685142517, 0.1686798632144928, 0.019042111933231354, -0.14642737805843353, 0.02776031568646431, 0.18504954874515533, 0.18431495130062103, -0.062162984162569046, 0.09249307215213776, 0.13741861283779144, 0.22714489698410034, 0.19236703217029572, 0.20535491406917572, 0.008785737678408623, 0.10458710044622421, 0.1201293095946312, 0.34959322214126587, 0.37460339069366455, -0.02442239783704281, },
			{0.05183056741952896, 0.21440578997135162, 0.045292872935533524, -0.04516523331403732, -0.1290186196565628, 0.034079812467098236, 0.20263804495334625, 0.35244184732437134, 0.3020533323287964, 0.35956498980522156, 0.17447800934314728, -0.11421716213226318, -0.002864513313397765, -0.021311413496732712, 0.033805280923843384, 0.1199282556772232, -0.07289165258407593, -0.09473700076341629, 0.17065933346748352, -0.11307975649833679, -0.20195145905017853, 0.05078049376606941, 0.09112177044153214, 0.028607845306396484, 0.0007224693545140326, 0.20351547002792358, 0.24972321093082428, 0.3576309084892273, 0.5800203680992126, -0.06538411229848862, },
		},
	},
	{
		{
			{-0.12138448655605316, 0.04839073494076729, 0.18243320286273956, 0.4586872160434723, 0.3705040514469147, 0.09192157536745071, 0.011369293555617332, -0.0862141028046608, 0.13028909265995026, -0.18303821980953217, 0.0740765631198883, -0.20390228927135468, -0.14954189956188202, -0.021584704518318176, -0.2833141088485718, -0.2594715356826782, -0.15266744792461395, -0.14517183601856232, 0.0385655015707016, 0.047875963151454926, 0.13156569004058838, -0.011953984387218952, -0.4999385178089142, -0.20567817986011505, -0.027112716808915138, -0.03755320981144905, 0.05930532515048981, 0.19612856209278107, -0.19799955189228058, -0.13184523582458496, },
			{0.11835242062807083, 0.4077298641204834, 0.26523274183273315, 0.17596058547496796, 0.2989775538444519, 0.06657586991786957, -0.03552447259426117, -0.22620151937007904, -0.01331453025341034, -0.11990107595920563, -0.03191322088241577, -0.3030734956264496, -0.2608472406864166, -0.13771583139896393, -0.13630948960781097, 0.030590012669563293, 0.012432247400283813, 0.004553566686809063, 0.10924633592367172, 0.1776716262102127, 0.31857794523239136, 0.07845017313957214, -0.19431406259536743, 0.3200305998325348, 0.29714304208755493, 0.11589530110359192, 0.45764482021331787, 0.4297593832015991, 0.08570314198732376, 0.1164056584239006, },
			{0.06934865564107895, 0.009666328318417072, -0.002774770138785243, 0.2768996059894562, 0.28497380018234253, 0.2822727560997009, 0.0771753266453743, -0.23059003055095673, -0.00784016028046608, -0.11545085161924362, 0.007617160677909851, -0.1513553410768509, -0.1019696518778801, 0.11087679117918015, -0.01064072921872139, 0.09895087778568268, -0.012528260238468647, 0.24389393627643585, 0.1116330698132515, 0.08716360479593277, 0.19900347292423248, 0.16017542779445648, 0.11409203708171844, 0.25510770082473755, 0.0856216698884964, 0.023019790649414062, 0.18873147666454315, 0.04878914728760719, 0.11528968065977097, 0.21454495191574097, },
			{-0.0777413621544838, -0.04220179468393326, -0.0355258584022522, 0.2497689574956894, 0.24527841806411743, 0.3014068603515625, 0.28272873163223267, -0.02906356006860733, -0.0757063701748848, -0.23262940347194672, -0.2157832235097885, -0.1640072613954544, -0.11692201346158981, 0.09059247374534607, -0.14182722568511963, -0.15995503962039948, -0.20343247056007385, 0.11649248003959656, 0.011065473780035973, -0.1160682737827301, -0.1344088762998581, -0.03299682214856148, 0.03430015221238136, 0.223436638712883, -0.005739495623856783, -0.34089750051498413, -0.05447482317686081, -0.06888241320848465, 0.184326633810997, -0.07906332612037659, },
			{0.01287781447172165, 0.09820491820573807, -0.041076015681028366, -0.09796036034822464, 0.0858747735619545, 0.3035809397697449, 0.09701917320489883, -0.08857433497905731, -0.11316926032304764, -0.3308047950267792, -0.381420373916626, -0.05949662625789642, 0.15118351578712463, 0.27241069078445435, 0.2703448534011841, 0.08612014353275299, -0.0757031962275505, 0.06685014814138412, -0.23144398629665375, -0.27418339252471924, -0.4314930737018585, -0.19024743139743805, 0.10144884884357452, 0.2863836884498596, -0.08240745961666107, -0.3389069736003876, -0.13805416226387024, -0.07608062028884888, -0.13762271404266357, -0.05617398023605347, },
			{-0.17847506701946259, 0.07333563268184662, -0.05212932452559471, -0.1600279062986374, -0.23124532401561737, 0.1998695582151413, -0.02030882239341736, -0.21805764734745026, -0.03476880490779877, -0.1917870044708252, -0.09984660148620605, 0.10678915679454803, 0.3997942805290222, 0.40890029072761536, 0.13585014641284943, 0.042130451649427414, -0.10901249200105667, -0.029515648260712624, -0.20246563851833344, -0.191378653049469, -0.44386693835258484, -0.2634256184101105, -0.08988645672798157, 0.15261851251125336, -0.20191121101379395, -0.41391637921333313, -0.1992390900850296, -0.21625261008739471, -0.19830597937107086, -0.1757875382900238, },
			{-0.35385847091674805, -0.024951370432972908, -0.07797474414110184, -0.11356710642576218, 0.10598762333393097, 0.04237619414925575, 0.11749781668186188, -0.022357160225510597, 0.12971504032611847, -0.1028679683804512, 0.055290769785642624, 0.035852689296007156, 0.14571024477481842, 0.03597516193985939, 0.12266286462545395, 0.07284165918827057, 0.02549418993294239, 0.12719397246837616, 0.09663219004869461, 0.01408497616648674, -0.21630267798900604, 0.0168073121458292, -0.030821705237030983, 0.23326317965984344, 0.17760764062404633, -0.2120315283536911, -0.2978391647338867, 0.0462271124124527, -0.16526857018470764, -0.2765294909477234, },
			{-0.17626358568668365, -0.14821718633174896, -0.07864554971456528, -0.09345193207263947, -0.04729679226875305, -0.03029041178524494, -0.044197358191013336, 0.053714171051979065, 0.3156159520149231, -0.12624241411685944, 0.30474549531936646, 0.4209112226963043, 0.2463001310825348, 0.1205565482378006, 0.181435227394104, 0.12874627113342285, 0.031893350183963776, -0.06446116417646408, -0.027642197906970978, -0.0693994015455246, -0.04066658392548561, -0.09649692475795746, -0.0793917179107666, 0.16777248680591583, 0.1501007080078125, -0.3313795030117035, -0.20230387151241302, 0.10155991464853287, -0.31447967886924744, -0.03883449733257294, },
		},
	},
	{
		{
			{0.4625791907310486, -0.015139271505177021, 0.21589718759059906, 0.01231590285897255, -0.36736178398132324, -0.08745400607585907, 0.08310728520154953, -0.23125940561294556, -0.3540358543395996, 0.17836548388004303, 0.3485104441642761, 0.5664400458335876, 0.37906214594841003, 0.4693765342235565, 0.26119232177734375, 0.18593041598796844, -0.00430033216252923, -0.19577950239181519, -0.15362422168254852, -0.04232954978942871, -0.22686992585659027, -0.02162102982401848, 0.12272153794765472, -0.1369415670633316, 0.17920717597007751, 0.2988291084766388, 0.1187257394194603, 0.09438907355070114, 0.08368762582540512, 0.12089046090841293, },
			{0.27367907762527466, -0.4070136547088623, 0.1637897491455078, 0.00888834148645401, -0.10447194427251816, -0.27440568804740906, -0.12804852426052094, -0.15370921790599823, -0.18579888343811035, 0.3564821481704712, 0.16753767430782318, 0.319279283285141, 0.14629630744457245, 0.13291899859905243, 0.0718531534075737, -0.056379225105047226, -0.21356453001499176, -0.11561033129692078, 0.01587848737835884, 0.2789648175239563, 0.04414874687790871, 0.025320574641227722, 0.06573936343193054, -0.21733155846595764, 0.17505544424057007, 0.40009352564811707, 0.06429536640644073, 0.1823936104774475, 0.2013566493988037, 0.1569465696811676, },
			{0.31042560935020447, -0.1689184010028839, -0.006227569188922644, 0.0161774680018425, 0.10556060075759888, -0.016162987798452377, 0.06399186700582504, -0.15269158780574799, -0.05499165505170822, 0.191449373960495, 0.0720396488904953, 0.19676050543785095, 0.003191601950675249, -0.0982179045677185, -0.27072611451148987, -0.27511611580848694, -0.06205569952726364, -0.018497619777917862, -0.18318107724189758, 0.3451782464981079, 0.04526403918862343, -0.040798529982566833, -0.06372205168008804, -0.21368159353733063, 0.1432771384716034, 0.1692855805158615, 0.0607214979827404, 0.29775404930114746, 0.11515089124441147, 0.3412393033504486, },
			{0.6535632014274597, 0.11790923029184341, 0.37235918641090393, 0.24039070308208466, 0.20185258984565735, 0.09197977930307388, -0.002572299214079976, 0.039495427161455154, -0.011199956759810448, 0.13231651484966278, -0.17218787968158722, -0.04292673617601395, -0.4010251760482788, -0.5085422992706299, -0.4918851852416992, -0.13766832649707794, 0.07205675542354584, 0.004515044391155243, 0.07925993949174881, 0.22423747181892395, 0.08788391947746277, 0.056590985506772995, -0.044631537050008774, -0.33074814081192017, -0.09666270762681961, 0.19476254284381866, 0.017307911068201065, 0.17592929303646088, 0.05433105304837227, 0.19018594920635223, },
			{0.34114503860473633, -0.04513045772910118, 0.2838689386844635, -0.1700824648141861, -0.010454544797539711, -0.4406948387622833, -0.24254974722862244, -0.3190459609031677, -0.13703025877475739, 0.3383670747280121, 0.21167364716529846, 0.07985716313123703, -0.08793152868747711, -0.186407670378685, -0.2220614105463028, -0.17552007734775543, 0.06413044035434723, -0.25052210688591003, -0.048902321606874466, 0.1177000030875206, 0.09702654182910919, 0.1583259403705597, -0.2084105908870697, -0.3363097608089447, 0.025716163218021393, 0.20863348245620728, 0.05288412421941757, 0.20614342391490936, -0.030256308615207672, 0.20095586776733398, },
			{0.1891002655029297, 0.09609830379486084, 0.3804502487182617, 0.017730195075273514, -0.04592471197247505, -0.24628272652626038, -0.08399954438209534, -0.1938733607530594, 0.3089730441570282, 0.4933154881000519, 0.380159854888916, 0.22613157331943512, 0.27641090750694275, -0.23573017120361328, -0.1988019347190857, -0.17947232723236084, -0.13124538958072662, -0.08428743481636047, 0.10570139437913895, -0.10122650116682053, -0.24688586592674255, -0.1443352997303009, -0.14231958985328674, -0.26638397574424744, -0.02578778751194477, 0.2457127869129181, -0.15401031076908112, 0.2985075116157532, -0.055217571556568146, 0.019439052790403366, },
			{0.12592901289463043, 0.10456650704145432, 0.06118766963481903, -0.09470667690038681, -0.05813615396618843, -0.1276392787694931, -0.3900511562824249, -0.21078963577747345, 0.22913318872451782, 0.42411068081855774, 0.023560484871268272, 0.21153061091899872, 0.35121792554855347, 0.07385113835334778, -0.26046088337898254, -0.10909152776002884, -0.2255014181137085, 0.32084035873413086, 0.2794073522090912, 0.026885010302066803, -0.20205344259738922, 0.11331012099981308, 0.043970249593257904, -0.21253444254398346, -0.17563877999782562, 0.10895661264657974, -0.18074022233486176, -0.027702845633029938, 0.11071110516786575, 0.06867095828056335, },
			{0.23850715160369873, 0.1901005059480667, -0.018838191404938698, 0.0075809163972735405, 0.07955411076545715, 0.02215551771223545, -0.33440473675727844, -0.24117916822433472, -0.051544323563575745, 0.4678371250629425, 0.002043654676526785, -0.0030069705098867416, 0.15602023899555206, -0.04967762902379036, -0.20532776415348053, -0.09809279441833496, -0.035347964614629745, 0.16783039271831512, 0.0752631425857544, 0.04684301093220711, -0.25596433877944946, -0.13510796427726746, -0.26969873905181885, -0.4514019787311554, -0.2926451563835144, -0.01043788529932499, -0.2159297913312912, -0.16119690239429474, 0.36799708008766174, 0.25572070479393005, },
		},
	},
	{
		{
			{0.13906152546405792, 0.01250988245010376, 0.13601309061050415, -0.07210907340049744, -0.2681993246078491, 0.014319815672934055, -0.06886046379804611, -0.017263270914554596, -0.14611151814460754, -0.1376630663871765, -0.04825553297996521, -0.2563108503818512, -0.19037626683712006, -0.0025472959969192743, 0.024965161457657814, 0.35411861538887024, 0.34883108735084534, 0.09626787155866623, 0.09091432392597198, -0.08759782463312149, -0.07490286976099014, 0.09772378206253052, 0.0028666583821177483, -0.19585205614566803, -0.06469413638114929, 0.20830117166042328, 0.05574977025389671, -0.3428685963153839, -0.2893476188182831, -0.27721458673477173, },
			{0.23544585704803467, 0.006675564683973789, -0.062126822769641876, -0.08806028962135315, -0.5633594989776611, -0.21084019541740417, 0.0029086668509989977, -0.029283124953508377, -0.18169407546520233, -0.1645583063364029, 0.10606901347637177, -0.12731055915355682, -0.16274119913578033, -0.07330812513828278, -0.07191532850265503, 0.3552607297897339, 0.25417810678482056, 0.13140428066253662, 0.18389356136322021, 0.006058270111680031, 0.014613152481615543, -0.14346840977668762, -0.10996804386377335, -0.19476111233234406, 0.06579575687646866, 0.24382011592388153, 0.2310040295124054, -0.2553916573524475, -0.12419035285711288, -0.018404779955744743, },
			{0.13802295923233032, 0.17610043287277222, 0.055242281407117844, 0.04864038899540901, -0.2558630108833313, -0.04745163023471832, 0.035124678164720535, 0.11935049295425415, -0.11351323872804642, -0.1847025454044342, 0.058161865919828415, -0.2714328467845917, -0.010606021620333195, -0.06311006098985672, -0.03928406909108162, 0.08396686613559723, 0.1886213719844818, 0.19986498355865479, 0.1822250932455063, -0.028512349352240562, 0.09230323880910873, 0.009492267854511738, -0.1099642962217331, -0.3240700662136078, -0.020078884437680244, 0.26261305809020996, -0.02551625482738018, -0.08686893433332443, -0.2905339300632477, -0.04379074275493622, },
			{0.07763422280550003, 0.15350478887557983, 0.0910191759467125, 0.02165311947464943, -0.19605496525764465, -0.1323380172252655, 0.0494789220392704, 0.06420706957578659, -0.2526339590549469, -0.12025932967662811, 0.020226972177624702, -0.1373244822025299, -0.04285584017634392, -0.10933677107095718, -0.3258071541786194, -0.07149414718151093, 0.029256029054522514, 0.23869293928146362, 0.04484502971172333, -0.06209247559309006, 0.0748182013630867, -0.018821904435753822, -0.0035501979291439056, -0.2341984361410141, -0.12918466329574585, 0.0017877041827887297, -0.09758217632770538, -0.154752716422081, -0.3614104092121124, -0.23108603060245514, },
			{0.03383753076195717, 0.18313580751419067, -0.09207280725240707, -0.22438916563987732, -0.37019872665405273, -0.03371379151940346, 0.14870218932628632, 0.10533259063959122, -0.17699608206748962, -0.16958937048912048, 0.052373893558979034, -0.2266208529472351, 0.05347210168838501, 0.07836639136075974, -0.2826135754585266, -0.14132659137248993, -0.10079550743103027, 0.050174545496702194, 0.0662706047296524, 0.03369636461138725, 0.14557293057441711, 0.08225040137767792, -0.08821439743041992, 0.06311464309692383, 0.07930708676576614, 0.09735745936632156, 0.16365879774093628, -0.030797204002738, -0.02444380521774292, -0.07286757975816727, },
			{0.1733340173959732, 0.1221223771572113, -0.03305241838097572, -0.05415842682123184, -0.3065168559551239, 0.008105264976620674, 0.14666908979415894, 0.061442721635103226, -0.0076711755245924, 0.12123563885688782, 0.24719835817813873, -0.04279937222599983, -0.12938949465751648, -0.06431617587804794, -0.4506577253341675, -0.03483122959733009, -0.14312638342380524, -0.2773702144622803, -0.04711691662669182, -0.2883061170578003, 0.03524678573012352, 0.12204568833112717, -0.055190183222293854, -0.011780204251408577, 0.07592452317476273, 0.11389602720737457, 0.11012635380029678, 0.10449554771184921, -0.07103950530290604, -0.13109472393989563, },
			{0.34681910276412964, 0.3824840188026428, 0.35994455218315125, 0.1008499339222908, 0.07753796875476837, 0.3210844397544861, 0.48592492938041687, 0.2736411988735199, 0.024662749841809273, 0.2897644340991974, 0.40364331007003784, 0.13336589932441711, -0.028674189001321793, -0.24126550555229187, -0.3016204833984375, -0.2785102427005768, -0.3386208415031433, -0.3836020529270172, -0.1463303565979004, -0.42782795429229736, -0.12707744538784027, 0.2536093294620514, 0.21363036334514618, 0.006518903188407421, 0.06504329293966293, 0.09729433059692383, 0.282238632440567, 0.05804559215903282, 0.0540689192712307, -0.05942762270569801, },
			{0.3998853266239166, 0.4505944550037384, 0.4849042296409607, 0.19772042334079742, 0.0921763926744461, 0.25000661611557007, 0.5116493701934814, 0.2646307051181793, 0.03317630663514137, 0.31491196155548096, 0.2864520251750946, 0.24482350051403046, -0.07771079242229462, -0.15147201716899872, -0.1361515074968338, -0.2230938822031021, -0.5098716616630554, -0.47535982728004456, -0.24350127577781677, -0.27607640624046326, -0.0015210250858217478, 0.09808817505836487, 0.2661484479904175, 0.13915805518627167, 0.39909037947654724, 0.12714524567127228, 0.44474753737449646, 0.43382319808006287, 0.45556432008743286, 0.28460609912872314, },
		},
	},
	{
		{
			{-0.46680840849876404, -0.42679670453071594, -0.24343031644821167, -0.14015477895736694, -0.027281368151307106, -0.2323804348707199, -0.15624041855335236, -0.02323370985686779, 0.00015778688248246908, -0.07393933832645416, 0.05744700878858566, -0.022214479744434357, 0.15664851665496826, 0.1594855636358261, -0.09848149865865707, 0.05373331159353256, -0.02443058416247368, -0.13751725852489471, -0.25888606905937195, -0.4618203043937683, -0.3016912341117859, 0.004495329223573208, 0.10074938088655472, 0.005554418545216322, 0.10740978270769119, -0.0024745368864387274, -0.1172492578625679, 0.0015788760501891375, 0.29029154777526855, 0.22511109709739685, },
			{-0.6028777956962585, -0.2718072831630707, -0.16740836203098297, 0.08313978463411331, -0.01651681587100029, -0.3015560209751129, -0.2030891329050064, 0.043800994753837585, -0.09246543794870377, -0.19353406131267548, -0.13166674971580505, -0.19841411709785461, -0.015450533479452133, 0.11351693421602249, -0.028539905324578285, -0.040116533637046814, 0.08939644694328308, -0.06218338385224342, -0.23270876705646515, -0.2874416410923004, -0.14937448501586914, -0.022195642814040184, 0.023114679381251335, -0.03232033550739288, -0.019544536247849464, -0.051515206694602966, -0.010517273098230362, 0.06660979986190796, 0.15965792536735535, 0.051442794501781464, },
			{-0.2638235092163086, -0.14981311559677124, -0.19793330132961273, -0.09608878940343857, 0.03939849138259888, -0.1138581857085228, -0.0677180290222168, 0.029551390558481216, 0.030361760407686234, -0.0853256806731224, -0.04897291585803032, -0.025819869711995125, 0.06071718782186508, 0.06762359291315079, 0.06200513616204262, 0.0035291851963847876, 0.25486865639686584, 0.08085386455059052, -0.15932032465934753, -0.2838576138019562, 0.06352044641971588, -0.04806786775588989, 0.062396712601184845, 0.09950216859579086, -0.0027036729734390974, -0.199717715382576, -0.11564002186059952, -0.01207735575735569, 0.010586785152554512, 0.12284381687641144, },
			{0.11405154317617416, 0.07591947913169861, 0.030138760805130005, 0.0822940543293953, 0.32036855816841125, 0.02042277157306671, -0.06722911447286606, -0.04253684729337692, 0.11365514993667603, 0.08396715670824051, 0.06036343052983284, -0.029345475137233734, -0.0036332067102193832, -0.009521030820906162, 0.159891739487648, 0.022681500762701035, 0.3519737720489502, 0.22636842727661133, -0.08820996433496475, -0.2736842632293701, -0.17421898245811462, -0.17831341922283173, 0.024029556661844254, 0.08801478147506714, -0.08306040614843369, -0.17886339128017426, -0.12051347643136978, 0.1198965385556221, 0.15774796903133392, 0.013204419985413551, },
			{0.15346309542655945, 0.21575117111206055, 0.28282254934310913, 0.07347163558006287, 0.28225964307785034, 0.12215117365121841, 0.11013197153806686, 0.0569172129034996, 0.3258633613586426, 0.16963419318199158, 0.1602841466665268, -0.09207125753164291, -0.060007110238075256, 0.005338060669600964, 0.22846460342407227, 0.2855904698371887, 0.39520034193992615, 0.09237700700759888, 0.05020559951663017, -0.12479563057422638, 0.2000475376844406, 0.12771528959274292, 0.0007914563757367432, -0.03944358602166176, -0.22012461721897125, -0.0849049910902977, -0.00881104078143835, 0.03511699661612511, 0.02094363607466221, -0.08953241258859634, },
			{0.43468841910362244, 0.5750100612640381, 0.20107074081897736, 0.20979973673820496, 0.22191141545772552, 0.02591468021273613, 0.0014513174537569284, 0.0701577216386795, -0.016582200303673744, -0.035068023949861526, -0.14292827248573303, -0.030728356912732124, 0.004205054137855768, -0.046290699392557144, 0.13411803543567657, 0.23218873143196106, 0.19601663947105408, 0.024554334580898285, -0.31122151017189026, -0.18843452632427216, 0.1412077397108078, -0.024309972301125526, -0.09176372736692429, -0.05475599318742752, -0.13666623830795288, 0.04452376067638397, -0.06191849708557129, -0.12248319387435913, -0.05516883358359337, 0.06123257428407669, },
			{0.4914848506450653, 0.697607696056366, 0.34662872552871704, 0.28772449493408203, 0.20334875583648682, -0.08077134191989899, -0.08874797821044922, -0.018647458404302597, 0.0020066520664840937, -0.12462200224399567, 0.06602830439805984, -0.20371679961681366, -0.06348957866430283, -0.13231956958770752, -0.0038303860928863287, 0.07915549725294113, 0.3270312547683716, 0.2352152019739151, -0.1577480435371399, -0.10862292349338531, 0.014831921085715294, -0.04926159232854843, 0.006043279077857733, 0.017822274938225746, -0.04034549742937088, -0.03268284723162651, -0.16362586617469788, -0.20493638515472412, 0.03787652775645256, 0.065174899995327, },
			{0.607615053653717, 0.5685689449310303, 0.37945792078971863, 0.30207541584968567, 0.34022852778434753, 0.008406125009059906, 0.12213592231273651, 0.12786126136779785, 0.23799815773963928, 0.02458995394408703, 0.16385021805763245, -0.055595528334379196, -0.016599060967564583, -0.23471669852733612, -0.08861284703016281, -0.13045139610767365, 0.21142347157001495, 0.1534925252199173, -0.03395471349358559, 0.004607104696333408, -0.03394458815455437, -0.10187584906816483, -0.011882866732776165, -0.042863938957452774, 0.13572317361831665, 0.10226774215698242, -0.01798955537378788, -0.14093899726867676, 0.03794640302658081, 0.026730705052614212, },
		},
	},
	{
		{
			{0.04146938771009445, 0.06465452909469604, -0.07416684180498123, -0.2420164942741394, -0.3944433331489563, -0.3763205409049988, -0.2539360821247101, -0.5038397312164307, -0.04604315757751465, -0.06605222821235657, 0.3704525828361511, 0.0826815590262413, 0.12141743302345276, 0.26043280959129333, -0.06466507911682129, -0.18566778302192688, -0.6490015387535095, -0.4455868899822235, -0.10176089406013489, -0.22271239757537842, -0.20326662063598633, -0.12641914188861847, -0.2036847025156021, -0.5324937105178833, -0.6256068348884583, -0.3090645372867584, -0.016551606357097626, 0.01693665236234665, -0.08836250752210617, 0.20273016393184662, },
			{0.17939288914203644, -0.187281534075737, -0.09353705495595932, -0.07439234852790833, -0.2899533808231354, -0.2658536434173584, -0.3777424097061157, -0.5491189360618591, -0.5467716455459595, -0.1545695960521698, 0.14739888906478882, 0.05932432785630226, 0.009816010482609272, 0.07424596697092056, 0.07668621093034744, 0.121479332447052, -0.23335395753383636, -0.17787641286849976, 0.13071411848068237, 0.08286299556493759, -0.2722114324569702, -0.18451493978500366, 0.09672387689352036, 0.0279157105833292, 0.16274216771125793, 0.051268983632326126, -0.10897001624107361, 0.30879995226860046, -0.000972165260463953, 0.28923746943473816, },
			{0.3281765282154083, -0.11622752249240875, 0.15851841866970062, 0.09170547127723694, -0.0023083172272890806, 0.10248596221208572, -0.2570617198944092, -0.3064470887184143, -0.37990105152130127, -0.20227660238742828, 0.028077786788344383, -0.09959468245506287, -0.05965210869908333, 0.17938187718391418, 0.23531484603881836, 0.08469253033399582, -0.13915540277957916, -0.0908505991101265, 0.0071011376567184925, 0.13184349238872528, -0.01734362542629242, 0.07590104639530182, 0.07869796454906464, -0.08236661553382874, -0.267548531293869, -0.21442002058029175, -0.14346982538700104, 0.03784312307834625, -0.1552693247795105, 0.052679918706417084, },
			{0.3860568702220917, 0.18438003957271576, 0.43564754724502563, 0.3132699131965637, 0.15240690112113953, 0.17694342136383057, -0.005141471978276968, 0.017074069008231163, -0.15155380964279175, -0.2517363727092743, -0.08879655599594116, -0.3987290859222412, -0.2907257080078125, 0.38959038257598877, -0.12548260390758514, -0.061206020414829254, -0.1519046127796173, 0.06216292083263397, 0.25471019744873047, 0.22440391778945923, -0.05434124544262886, -0.19304750859737396, 0.04267018288373947, -0.01747196726500988, 0.05927693098783493, 0.20646141469478607, 0.13821832835674286, 0.22943779826164246, -0.4258671998977661, -0.15888746082782745, },
			{0.2336186319589615, 0.0693056508898735, 0.21343421936035156, 0.36966124176979065, 0.35807013511657715, 0.3633117377758026, 0.2339102178812027, 0.025059716776013374, -0.30887219309806824, -0.22545039653778076, -0.22921034693717957, -0.3162713944911957, -0.1605285257101059, 0.22832468152046204, -0.09771963208913803, -0.20345884561538696, -0.036079615354537964, 0.1590602993965149, 0.2653524875640869, -0.0592433325946331, -0.24151882529258728, -0.13207995891571045, 0.40070417523384094, 0.2929961681365967, 0.20412114262580872, -0.12783777713775635, 0.19432702660560608, 0.3775072991847992, -0.03258107230067253, -0.037293437868356705, },
			{0.308147132396698, 0.23483383655548096, 0.49351054430007935, 0.3470631241798401, 0.34914472699165344, 0.4055790305137634, 0.17499010264873505, 0.014537223614752293, 0.017726687714457512, 0.06689014285802841, 0.2617119252681732, -0.183991476893425, -0.12938158214092255, 0.20457804203033447, 0.09105753153562546, -0.0071321711875498295, 0.11695811152458191, 0.1745176911354065, -0.003816337790340185, -0.1482062190771103, 0.1455211341381073, 0.36140644550323486, 0.3848893642425537, -0.08292904496192932, -0.08023325353860855, 0.03545202687382698, 0.42494046688079834, 0.13913774490356445, 0.004057100974023342, -0.006261684000492096, },
			{0.272146612405777, 0.3038598895072937, 0.4482322037220001, -0.004634927026927471, 0.02793058566749096, 0.07580190896987915, 0.08291406184434891, 0.0955623909831047, -0.12293820828199387, -0.10932443290948868, 0.04997941479086876, -0.25349152088165283, -0.12767687439918518, -0.0011766244424507022, -0.044443726539611816, 0.007857277989387512, -0.05266305059194565, 0.043858885765075684, 0.05576982721686363, -0.12777012586593628, -0.07869884371757507, 0.19776076078414917, 0.25959137082099915, 0.13844440877437592, 0.23654034733772278, 0.14239737391471863, 0.4196844696998596, 0.31053370237350464, 0.3513004183769226, -0.20215162634849548, },
			{0.5172593593597412, 0.23962301015853882, 0.1888321489095688, -0.08639895915985107, -0.013586235232651234, 0.12349821627140045, -0.06197546422481537, 0.14399343729019165, 0.07596061378717422, -0.09059467911720276, 0.1450042873620987, -0.1520826667547226, -0.07823479920625687, 0.04103420302271843, -0.04870016872882843, -0.09869232773780823, 0.01641063392162323, -0.07121042907238007, -0.14188428223133087, -0.4248049259185791, -0.3867439329624176, 0.08300035446882248, -0.015867535024881363, 0.1034223884344101, 0.16994978487491608, 0.0041144490242004395, 0.36956676840782166, 0.2749761939048767, 0.40025025606155396, -0.0187453031539917, },
		},
	},
	{
		{
			{0.20041358470916748, 0.18518060445785522, 0.024370957165956497, -0.12474554777145386, -0.2704515755176544, -0.1747949719429016, -0.008599726483225822, 0.1753828078508377, 0.3912932872772217, 0.3041314482688904, 0.34001678228378296, 0.46310970187187195, 0.42794790863990784, 0.46084922552108765, 0.1481662541627884, 0.18033644556999207, 0.3952052891254425, 0.43368256092071533, 0.3796969950199127, -0.08506832271814346, 0.09253174066543579, -0.4177863895893097, -0.759759247303009, -0.452979177236557, 0.07932409644126892, 0.16936661303043365, 0.08707209676504135, -0.17042653262615204, -0.29286929965019226, -0.184037983417511, },
			{-0.025081932544708252, -0.07918640971183777, -0.21491873264312744, -0.23395246267318726, -0.5018115043640137, -0.1969272345304489, -0.0716334879398346, -0.17357495427131653, -0.16479773819446564, -0.21947643160820007, 0.1840544044971466, -0.08843284100294113, 0.10311061888933182, -0.0566600076854229, -0.14783889055252075, 0.08561082184314728, 0.13012008368968964, -0.07591011375188828, 0.03141552209854126, -0.44297921657562256, -0.3022899627685547, -0.36483141779899597, -0.65273118019104, -0.3657885193824768, -0.0683291107416153, 0.12612159550189972, 0.034480150789022446, -0.0581941157579422, -0.33889061212539673, -0.050007812678813934, },
			{0.10301996022462845, -0.09671793133020401, -0.0011185823241248727, -0.06861612200737, -0.28480711579322815, -0.1483861654996872, -0.059072285890579224, -0.3249456286430359, -0.25385528802871704, -0.2475380301475525, 0.10811453312635422, -0.11887983977794647, -0.3076031506061554, -0.12537170946598053, -0.07535199075937271, -0.11483114212751389, 0.04799992963671684, 0.11152755469083786, 0.44527193903923035, 0.022665349766612053, -0.16846142709255219, -0.2642885744571686, -0.47057193517684937, -0.31464916467666626, 0.06007755175232887, 0.13555295765399933, 0.07755812257528305, -0.05385870486497879, -0.282755583524704, -0.11388592422008514, },
			{0.0016365350456908345, 0.20429778099060059, 0.08100209385156631, 0.0021936616394668818, -0.27594342827796936, -0.08131515979766846, -0.10473012924194336, 0.10132429003715515, 0.0546572245657444, 0.004138244315981865, 0.16428329050540924, -0.05216176435351372, 0.0278643686324358, -0.0859936848282814, -0.1461295336484909, -0.04918450862169266, 0.3887159824371338, 0.16545447707176208, 0.28118231892585754, 0.1679459810256958, -0.059000346809625626, -0.052773911505937576, -0.5644574165344238, -0.26241961121559143, -0.04555697366595268, 0.26733237504959106, 0.24050767719745636, -0.07271274924278259, -0.3560831546783447, -0.12246313691139221, },
			{0.12596631050109863, -0.004270538687705994, -0.09174275398254395, -0.09467630833387375, -0.06347132474184036, -0.09262499213218689, 0.026732148602604866, 0.04403681680560112, -0.02762453258037567, -0.045371588319540024, -0.11323338747024536, -0.18458646535873413, -0.25035494565963745, -0.43245643377304077, -0.14865140616893768, 0.11495096981525421, 0.09965386241674423, 0.22799627482891083, 0.3931310772895813, 0.35072723031044006, 0.23736529052257538, 0.15590685606002808, -0.04437827691435814, 0.02721092663705349, 0.049679894000291824, 0.2080027461051941, 0.17962004244327545, -0.012294245883822441, -0.23864881694316864, -0.02332158014178276, },
			{0.36759045720100403, 0.10160919278860092, -0.07386422157287598, 0.1394413411617279, -0.09229280799627304, 0.05895503982901573, 0.04409350827336311, 0.032498616725206375, -0.06845652312040329, -0.21052736043930054, -0.21783670783042908, -0.40716221928596497, -0.447508841753006, -0.5900592803955078, -0.5482658743858337, -0.3003360629081726, -0.008173110894858837, 0.1813196837902069, 0.18670377135276794, 0.3599932789802551, 0.4273541271686554, 0.3380022943019867, 0.1209520697593689, 0.13541443645954132, 0.44070830941200256, 0.312683641910553, 0.2540885806083679, 0.01036143209785223, -0.059935975819826126, 0.11332964152097702, },
			{0.43063825368881226, 0.3769391179084778, 0.06687168031930923, 0.18451648950576782, 0.2513161599636078, 0.16817620396614075, 0.06671227514743805, 0.04346812516450882, -0.07285169512033463, 0.016094015911221504, 0.009577954187989235, -0.28454703092575073, -0.3216511011123657, -0.160066157579422, -0.2711460590362549, -0.05295366048812866, -0.0023318284656852484, 0.02377554588019848, 0.47371724247932434, 0.6818822026252747, 0.5863234400749207, 0.25948819518089294, -0.21433840692043304, 0.14342787861824036, 0.37373003363609314, 0.25621676445007324, 0.19323433935642242, -0.020664144307374954, -0.16726094484329224, -0.0888410210609436, },
			{0.42142975330352783, 0.3207224905490875, 0.2539486885070801, 0.14227791130542755, 0.2798026204109192, 0.2637973725795746, 0.30410391092300415, 0.022780681028962135, -0.17532582581043243, -0.2233562469482422, -0.0014890419552102685, 0.03285298869013786, -0.08865831792354584, -0.18527725338935852, -0.05945562943816185, -0.322482705116272, -0.34146127104759216, -0.28812462091445923, 0.16345559060573578, 0.44424334168434143, 0.3995952606201172, 0.04731060937047005, -0.512000322341919, -0.03954067453742027, 0.17097827792167664, 0.06642752140760422, 0.18637746572494507, -0.017075974494218826, -0.08105719089508057, -0.0008496370282955468, },
		},
	},
	{
		{
			{-0.14751692116260529, -0.07976245880126953, -0.10169902443885803, 0.025397520512342453, -0.03419031947851181, -0.19055092334747314, -0.10134682059288025, 0.03490964323282242, -0.08792823553085327, -0.2374969720840454, -0.13991835713386536, -0.2294245809316635, 0.07992769032716751, -0.004379584453999996, -0.16683702170848846, 0.05306103825569153, -0.036314062774181366, 0.03586709871888161, -0.09371251612901688, 0.0449761226773262, -0.21602125465869904, -0.35742494463920593, -0.3920481204986572, -0.44831210374832153, -0.40138697624206543, -0.31462782621383667, -0.14374591410160065, 0.014001220464706421, 0.10218937695026398, 0.3456246554851532, },
			{-0.18404166400432587, -0.08387338370084763, 0.043106965720653534, 0.10974571853876114, 0.08187489956617355, -0.1454133540391922, 0.0413629487156868, 0.036713335663080215, -0.09515585750341415, 0.03668484091758728, -0.19159471988677979, -0.15761472284793854, -0.1393003612756729, -0.30388614535331726, -0.2577906548976898, 0.10813616216182709, 0.0534268394112587, 0.10685967653989792, -0.21318590641021729, 0.10572212934494019, 0.03816906362771988, -0.2785347104072571, -0.26417332887649536, -0.22846931219100952, -0.18884484469890594, -0.2317710816860199, -0.03713313117623329, 0.09266196191310883, 0.27155372500419617, 0.31276893615722656, },
			{-0.07454127073287964, -0.0045438529923558235, 0.16084608435630798, 0.3122227191925049, 0.23101288080215454, 0.09870545566082001, -0.0023845683317631483, -0.1077989935874939, -0.18523138761520386, 0.03968016058206558, -0.022425824776291847, -0.1399364024400711, -0.13227738440036774, -0.24270012974739075, -0.12013211101293564, 0.040815092623233795, -0.14545878767967224, -0.1856633722782135, -0.38770443201065063, -0.10080690681934357, -0.3105826675891876, -0.40063390135765076, -0.36021971702575684, -0.2862379848957062, 0.01653819903731346, 0.03025646321475506, 0.00858539342880249, -0.018411286175251007, 0.36884573101997375, 0.400031715631485, },
			{0.002539171604439616, 0.07685298472642899, 0.024526100605726242, 0.08446142822504044, 0.13200803101062775, -0.07921221852302551, -0.1349741667509079, -0.15541872382164001, -0.15769580006599426, -0.06855624169111252, 0.1382283866405487, 0.032744139432907104, -0.008146731182932854, -0.011094947345554829, -0.029185639694333076, 0.13399788737297058, -0.28724318742752075, -0.11859680712223053, -0.15292994678020477, 0.06711892783641815, -0.2594709098339081, -0.482829749584198, -0.1753084808588028, -0.14133986830711365, 0.19747614860534668, 0.2217157483100891, 0.05545338988304138, -0.02089485339820385, 0.30608516931533813, 0.32123273611068726, },
			{0.13034243881702423, 0.016727907583117485, 0.00019637546211015433, 0.20873576402664185, 0.05461497604846954, -0.007254489231854677, -0.0895894467830658, 0.04750649631023407, -0.2396775335073471, -0.0922197625041008, -0.09264121949672699, 0.20696420967578888, 0.10771037638187408, 0.0024131976533681154, -0.013055926188826561, 0.2357052117586136, 0.04168996587395668, 0.033633600920438766, -0.14368051290512085, 0.1276872754096985, 0.04907865449786186, -0.21561861038208008, -0.011507795192301273, -0.1326161026954651, -0.0889083743095398, 0.02540690079331398, 0.21757137775421143, 0.06544658541679382, 0.2580326497554779, 0.39863547682762146, },
			{0.198760524392128, 0.009541762061417103, 0.172671377658844, 0.06858447194099426, -0.0033365811686962843, -0.10245926678180695, -0.10255368053913116, -0.031829532235860825, -0.14013972878456116, 0.08574744313955307, -0.014974274672567844, 0.12315250933170319, 0.16867297887802124, -0.1483977735042572, 0.06756942719221115, 0.24490362405776978, -0.22636058926582336, -0.1255178153514862, -0.1986866593360901, 0.030265310779213905, 0.0921216756105423, 0.01298303622752428, -0.004374620970338583, -0.09657170623540878, -0.046305298805236816, 0.09472784399986267, 0.17957010865211487, 0.04165399447083473, 0.16640783846378326, 0.25228098034858704, },
			{0.35229891538619995, 0.3178286850452423, 0.3171362280845642, 0.1142394095659256, 0.07690199464559555, -0.06101558357477188, -0.16754263639450073, -0.14664261043071747, -0.09979215264320374, 0.11097407341003418, 0.08588139712810516, 0.014170732349157333, -0.08508703857660294, -0.21877294778823853, -0.1145963966846466, 0.10919354856014252, -0.23684054613113403, -0.09423618018627167, -0.12809637188911438, 0.050415340811014175, 0.18459352850914001, 0.18191716074943542, 0.002186315134167671, 0.05675933137536049, 0.39231303334236145, 0.29198041558265686, 0.0979299321770668, -0.055300090461969376, -0.10315392166376114, 0.07547757774591446, },
			{0.5857422947883606, 0.24248947203159332, 0.27275705337524414, 0.21120460331439972, 0.0004320448497310281, -0.09384229779243469, 0.07625805586576462, 0.269982248544693, 0.12443413585424423, 0.2548895478248596, 0.14372293651103973, 0.11577171832323074, -0.17261120676994324, -0.09796059131622314, -0.12135998159646988, 0.15268218517303467, 0.08164715766906738, 0.01659437082707882, -0.23082169890403748, -0.15310567617416382, -0.053140897303819656, -0.07387732714414597, 0.4166719913482666, 0.34252285957336426, 0.42508816719055176, 0.45534175634384155, 0.15788662433624268, 0.15786004066467285, -0.024539154022932053, -0.08407608419656754, },
		},
	},
	{
		{
			{0.25266900658607483, 0.05021369829773903, -0.0014366753166541457, -0.0007186500588431954, -0.1738271564245224, -0.14806465804576874, -0.17681415379047394, -0.2647072374820709, -0.09737541526556015, -0.06253030896186829, -0.03366313502192497, 0.10609418898820877, -0.11621562391519547, -0.29748788475990295, 0.017216477543115616, -0.14346513152122498, -0.1468612551689148, 0.2521897852420807, -0.0016922096256166697, -0.0744490697979927, 0.047263842076063156, 0.024109885096549988, -0.261982798576355, -0.13557371497154236, 0.042635053396224976, 0.40213534235954285, 0.2125745713710785, 0.43894392251968384, 0.3474317491054535, 0.2846525311470032, },
			{0.570952296257019, 0.2851810157299042, -0.05830451101064682, -0.20721974968910217, -0.14945197105407715, -0.27089565992355347, -0.3794654309749603, -0.3698354661464691, -0.12764470279216766, -0.2076541781425476, -0.22016653418540955, -0.12969671189785004, -0.24791285395622253, -0.1743890792131424, -0.393981009721756, -0.47402116656303406, -0.526474118232727, -0.2287462055683136, -0.24184948205947876, -0.2537088692188263, -0.14958928525447845, -0.2611072361469269, -0.44974157214164734, -0.2756505310535431, -0.1471407562494278, 0.13239248096942902, 0.02929108403623104, -0.009695817716419697, 0.17698316276073456, 0.044141922146081924, },
			{0.45200198888778687, 0.355613112449646, -0.0822741910815239, -0.4085819125175476, -0.3424622416496277, -0.48033109307289124, -0.27686113119125366, -0.295133113861084, 0.08743514120578766, -0.0759817436337471, -0.08858637511730194, -0.034262169152498245, -0.005903454963117838, 0.18319660425186157, -0.1739984154701233, -0.41855981945991516, -0.3934480845928192, -0.16636882722377777, -0.03186822682619095, -0.011606420390307903, -0.030024491250514984, 0.06344563513994217, -0.34968361258506775, -0.06313111633062363, -0.04622746258974075, 0.18210257589817047, 0.16505949199199677, 0.04904066026210785, 0.16312861442565918, 0.0053676157258450985, },
			{0.39652055501937866, 0.30163106322288513, 0.25488772988319397, -0.01966879330575466, -0.09446847438812256, -0.28398656845092773, -0.20991457998752594, -0.4146798253059387, 0.012662853114306927, 0.11767303943634033, -0.009125936776399612, 0.10576369613409042, -0.14913873374462128, -0.045246854424476624, -0.11569482088088989, -0.15873396396636963, -0.024526655673980713, 0.1629425585269928, 0.3246479332447052, 0.28567013144493103, 0.004985783249139786, 0.3262326419353485, -0.15197840332984924, -0.062044575810432434, -0.13301879167556763, 0.10072509199380875, 0.011695176362991333, 0.205484539270401, 0.22502446174621582, -0.1140810176730156, },
			{0.6801771521568298, 0.8301723599433899, 0.7079434394836426, 0.11335349082946777, -0.21299120783805847, -0.11992891877889633, 0.07991361618041992, -0.1720016449689865, 0.05019369721412659, 0.19699905812740326, 0.16347642242908478, 0.13699275255203247, -0.004715470597147942, -0.019125958904623985, -0.0748165026307106, -0.17710082232952118, -0.08557762950658798, 0.022616883739829063, 0.1016409620642662, 0.0962778627872467, 0.25017714500427246, 0.04339774698019028, -0.14036141335964203, -0.08770665526390076, -0.0366252064704895, 0.11111989617347717, 0.013124081306159496, 0.009535624645650387, 0.09292273223400116, 0.01310175471007824, },
			{0.5666786432266235, 0.9989356398582458, 0.7646716237068176, 0.21942022442817688, -0.4226555824279785, -0.16527196764945984, -0.042448192834854126, -0.18266896903514862, 0.10145613551139832, 0.21107669174671173, 0.10088793188333511, 0.06162313371896744, 0.026790102943778038, -0.038020502775907516, -0.293372243642807, -0.35098668932914734, -0.1634659767150879, -0.010458520613610744, 0.24101749062538147, 0.3743838667869568, 0.1943289041519165, 0.10913954675197601, -0.264078289270401, -0.2428116500377655, -0.21452613174915314, -0.02697085775434971, -0.07724369317293167, -0.1954074651002884, -0.1519319713115692, -0.034449122846126556, },
			{0.4743592441082001, 0.5436292290687561, 0.5827537178993225, 0.655400276184082, 0.042287640273571014, -0.08922883123159409, 0.07426396757364273, -0.02657828852534294, 0.2270413339138031, -0.1564064472913742, -0.05755273252725601, 0.1365342140197754, 0.06606198847293854, 0.06061597168445587, -0.22102497518062592, -0.10496968775987625, -0.12489911913871765, 0.11781416088342667, 0.2240062803030014, 0.25211235880851746, 0.05751350522041321, 0.0573868602514267, -0.21571937203407288, -0.3131474256515503, -0.44280675053596497, -0.10026595741510391, 0.023371869698166847, 0.006079502869397402, 0.10612040758132935, 0.1251668781042099, },
			{0.10673010349273682, 0.23829129338264465, 0.0651869848370552, 0.34931373596191406, 0.27911874651908875, 0.3013291358947754, 0.5065209269523621, 0.14534777402877808, 0.3925003111362457, -0.032106731086969376, 0.02239207923412323, 0.16920895874500275, 0.27730080485343933, 0.24312926828861237, 0.20532344281673431, 0.010424388572573662, -0.0607408843934536, 0.014383446425199509, 0.20920883119106293, 0.0886770486831665, 0.015282639302313328, 0.10133487731218338, -0.14834657311439514, -0.05737792328000069, 0.022094985470175743, 0.1819724589586258, 0.17950452864170074, 0.26936593651771545, 0.34122905135154724, 0.3072574734687805, },
		},
	},
	{
		{
			{0.22990593314170837, 0.2659901976585388, 0.06727582961320877, 0.27255910634994507, -0.08453278988599777, -0.11446644365787506, 0.06523960828781128, 0.3918813169002533, 0.16678465902805328, 0.043509069830179214, -0.15254388749599457, -0.3912072777748108, 0.058046065270900726, 0.15345922112464905, -0.04723956435918808, 0.1717078983783722, -0.24215970933437347, -0.16533184051513672, -0.019037462770938873, -0.0010061459615826607, -0.3452640175819397, -0.0384272076189518, -0.012133440934121609, 0.22981110215187073, -0.013293449766933918, 0.04626611992716789, 0.08572462946176529, -0.005128641612827778, 0.08283636718988419, 0.10126203298568726, },
			{0.2630598843097687, 0.5067875981330872, 0.1477888524532318, 0.20603294670581818, -0.13605797290802002, -0.11957652866840363, 0.1721833199262619, 0.2086661458015442, 0.2912454903125763, 0.07012353837490082, -0.04725867137312889, -0.3373374938964844, 0.0019458734896034002, -0.06320840120315552, 0.0621386393904686, 0.04425555095076561, -0.42722511291503906, -0.20476874709129333, -0.2514076232910156, -0.011089659295976162, -0.2327379584312439, -0.1618543565273285, -0.07692455500364304, -0.2286931872367859, -0.0848516896367073, -0.27596139907836914, -0.17370401322841644, -0.271427720785141, -0.30433642864227295, -0.17103765904903412, },
			{0.05725773796439171, 0.21816040575504303, 0.09218640625476837, -0.024735914543271065, -0.11986155807971954, -0.02085486799478531, 0.1765071302652359, 0.188504159450531, -0.04221923649311066, -0.24094931781291962, -0.08941122889518738, -0.29872629046440125, -0.008846142329275608, -0.3075621724128723, -0.05814625695347786, -0.20834830403327942, -0.27600806951522827, -0.21117548644542694, -0.15854282677173615, -0.17998217046260834, -0.42728060483932495, -0.303398460149765, -0.1226593479514122, -0.060084614902734756, -0.22372391819953918, -0.2651304304599762, -0.04503848776221275, -0.3821011185646057, -0.1110088899731636, -0.18460111320018768, },
			{0.11485845595598221, 0.24820779263973236, 0.059441037476062775, -0.3768680989742279, -0.22099566459655762, -0.0524897463619709, 0.12663112580776215, 0.2649526298046112, 0.14681288599967957, -0.17732760310173035, -0.10357385128736496, -0.059452518820762634, 0.05233287438750267, -0.2794877588748932, -0.13407668471336365, -0.3752272427082062, -0.2857206165790558, -0.2548772692680359, 0.050777506083250046, -0.0027136499993503094, -0.2564080059528351, -0.025357883423566818, 0.011120409704744816, 0.4403217136859894, 0.12639598548412323, 0.18770915269851685, -0.04930942505598068, -0.05062533915042877, 0.0410529188811779, -0.01435794122517109, },
			{0.07570780813694, 0.3055369555950165, 0.026720209047198296, -0.37251392006874084, -0.27727311849594116, -0.2861167788505554, -0.14000365138053894, 0.2958036959171295, 0.060253411531448364, -0.10238655656576157, -0.0651775598526001, -0.10493741184473038, -0.1552506983280182, -0.19325512647628784, -0.10421665757894516, -0.3554806113243103, -0.21490038931369781, -0.0555448904633522, 0.16566310822963715, 0.2276640087366104, -0.07783541083335876, 0.07681039720773697, 0.01742369309067726, -0.21575011312961578, -0.15861716866493225, 0.09914745390415192, 0.15252473950386047, 0.26561519503593445, 0.22975917160511017, 0.016393980011343956, },
			{0.049268998205661774, 0.056310366839170456, 0.023367756977677345, -0.06417660415172577, -0.23369495570659637, -0.07738495618104935, -0.012102553620934486, 0.2823299467563629, -0.15446490049362183, -0.23527435958385468, -0.30887481570243835, -0.22836865484714508, -0.059858281165361404, 0.0683833584189415, 0.08575686067342758, -0.46666598320007324, -0.4290715754032135, -0.2703562378883362, -0.10540890693664551, -0.19611325860023499, -0.4941740930080414, -0.23540262877941132, -0.18598130345344543, 0.012732086703181267, -0.23265771567821503, 0.2190226912498474, 0.402629017829895, 0.27874335646629333, 0.08537128567695618, 0.2876541316509247, },
			{0.32432422041893005, 0.17839518189430237, 0.09507115930318832, 0.2434094250202179, -0.11795347929000854, -0.11103104054927826, 0.00655421381816268, -0.01800125278532505, -0.16405922174453735, -0.16321828961372375, -0.32321423292160034, -0.11837142705917358, 0.07398514449596405, 0.2892702519893646, 0.17253077030181885, -0.31318458914756775, -0.18889722228050232, -0.024516377598047256, 0.10961825400590897, -0.07566758990287781, -0.09819691628217697, 0.17286436259746552, 0.024542249739170074, 0.12366821616888046, -0.010574251413345337, 0.06959144026041031, 0.3220086693763733, 0.3166555166244507, 0.17434461414813995, 0.5332950949668884, },
			{0.10742377489805222, -0.06978471577167511, 0.4405757188796997, 0.39121130108833313, -0.20621031522750854, 0.05674952268600464, -0.12400807440280914, -0.1683478057384491, -0.17369167506694794, -0.04938680678606033, -0.012024641036987305, -0.19689883291721344, 0.20520225167274475, 0.2657541334629059, 0.23389625549316406, -0.25605276226997375, 0.04001512750983238, 0.12094783782958984, 0.31802788376808167, 0.09707128256559372, 0.12871402502059937, 0.3527493476867676, 0.256824791431427, 0.22536711394786835, 0.0013479571789503098, 0.07727403193712234, 0.23233583569526672, 0.41264423727989197, 0.18548066914081573, 0.19464202225208282, },
		},
	},
	{
		{
			{-0.027790401130914688, -0.05388566479086876, -0.0945567935705185, -0.1342657059431076, -0.06596200168132782, -0.12315438687801361, -0.22724752128124237, -0.36191508173942566, -0.22838324308395386, -0.02492751181125641, -0.11191121488809586, -0.2818199694156647, -0.24868188798427582, -0.08942095190286636, -0.3716387450695038, -0.16770336031913757, -0.13849292695522308, -0.12429521977901459, 0.035865213721990585, -0.06504960358142853, 0.01386164128780365, 0.05285669490695, -0.06420547515153885, 0.10239909589290619, 0.2674535810947418, 0.3925882577896118, 0.23291635513305664, 0.26643526554107666, 0.22522780299186707, 0.39629027247428894, },
			{-0.3356996476650238, -0.22594860196113586, -0.19431672990322113, -0.053305916488170624, -0.06888774782419205, 0.11526604741811752, -0.061715077608823776, -0.08949001133441925, 0.022473543882369995, -0.004698393866419792, -0.060939591377973557, -0.05809485539793968, -0.1653338074684143, -0.13490717113018036, -0.3474910855293274, -0.2270290106534958, -0.15702159702777863, -0.36117875576019287, -0.1420334428548813, -0.08228133618831635, -0.05355478450655937, 0.04794427007436752, -0.06412246078252792, -0.14945363998413086, 0.022727593779563904, 0.16191251575946808, 0.04405020549893379, 0.2795746922492981, 0.284650057554245, 0.3320215046405792, },
			{-0.29644957184791565, 0.027374451979994774, 0.15052670240402222, 0.19314710795879364, 0.06713805347681046, 0.12493817508220673, -0.015038710087537766, -0.08253535628318787, -0.1273653358221054, -0.11013665050268173, -0.037962399423122406, 0.05711285397410393, -0.0695609375834465, -0.0008563968003727496, -0.20536525547504425, -0.12583321332931519, -0.10618606954813004, -0.3600914776325226, -0.15892796218395233, -0.016117112711071968, -0.11914211511611938, 0.03811077028512955, -0.11097122728824615, 0.025896254926919937, -0.04209645837545395, 0.31010475754737854, 0.28991782665252686, 0.19372177124023438, 0.3189966082572937, 0.3054640293121338, },
			{-0.34022706747055054, 0.006031867116689682, 0.12108942121267319, 0.2563462257385254, 0.2207970917224884, 0.15995490550994873, 0.05342413857579231, 0.07504133880138397, 0.13178589940071106, -0.019274558871984482, -0.1468106359243393, 0.15661409497261047, -0.04475284367799759, 0.004144014324992895, -0.07679126411676407, -0.11652688682079315, 0.009731029160320759, -0.14866021275520325, 0.18936076760292053, 0.017514143139123917, 0.14303378760814667, 0.14288973808288574, -0.10301852971315384, -0.06906405091285706, -0.16215504705905914, 0.023401636630296707, 0.05177135393023491, 0.036648403853178024, -0.009553315117955208, 0.3141721785068512, },
			{-0.34817662835121155, 0.025195369496941566, 0.20238782465457916, 0.1938486099243164, 0.03909943252801895, -0.19146843254566193, -0.01069666538387537, 0.07529767602682114, 0.09194418042898178, -0.16091515123844147, -0.08978019654750824, 0.11328096687793732, -0.0456911064684391, 0.029020285233855247, -0.0602785125374794, -0.09977598488330841, 0.1174103170633316, 0.030051635578274727, 0.132319837808609, 0.23365463316440582, 0.25226086378097534, -0.058464113622903824, 0.025063442066311836, -0.15441294014453888, -0.15333905816078186, 0.00028913142159581184, -0.046669330447912216, 0.13006044924259186, 0.03381189703941345, 0.17433997988700867, },
			{-0.3296577036380768, 0.024306409060955048, 0.15998193621635437, 0.20703577995300293, 0.012508925050497055, 0.06225610896945, 0.12315858155488968, 0.19369228184223175, 0.22215229272842407, 0.06091209501028061, 0.1969289481639862, 0.1303887814283371, -0.24135935306549072, -0.08786172419786453, 0.016431206837296486, -0.033663611859083176, -0.04921948164701462, -0.0887024998664856, -0.07664307951927185, 0.06698237359523773, 0.07691967487335205, -0.13705655932426453, -0.26547375321388245, -0.3279796838760376, -0.189284086227417, -0.17961066961288452, -0.06532739102840424, 0.08202236145734787, -0.07336139678955078, 0.015201625414192677, },
			{-0.08699502050876617, 0.0027270070277154446, 0.043070148676633835, -0.04649645462632179, 0.15060098469257355, 0.17694145441055298, 0.1925743818283081, 0.15072818100452423, 0.30588027834892273, 0.14698202908039093, 0.27057552337646484, 0.2375302016735077, 0.038458142429590225, -0.08159270137548447, 0.030090872198343277, 0.2043415755033493, 0.28941968083381653, 0.10036712884902954, -0.003439901629462838, 0.03249184414744377, -0.008647646754980087, -0.21446511149406433, 0.006945430766791105, -0.45111581683158875, -0.47025248408317566, -0.44315874576568604, -0.3171248137950897, 0.015954330563545227, 0.06205637753009796, 0.25988760590553284, },
			{0.042139746248722076, 0.128444641828537, -0.00910127442330122, -0.07828328013420105, 0.22729460895061493, 0.20488077402114868, 0.04669886827468872, 0.15218891203403473, 0.32706546783447266, -0.0020361493807286024, 0.10828574001789093, 0.08630330860614777, 0.12264148145914078, 0.10148055851459503, -0.1730780005455017, -0.09297189861536026, 0.2494792342185974, -0.059266410768032074, 0.17335014045238495, -0.07890570908784866, -0.14153049886226654, -0.18142637610435486, 0.15542644262313843, -0.0053648678585886955, -0.19884942471981049, -0.259755402803421, -0.21786150336265564, 0.22732847929000854, 0.23423625528812408, 0.3026154339313507, },
		},
	},
	{
		{
			{0.31645673513412476, 0.31195151805877686, 0.296306312084198, 0.1722593456506729, 0.27642014622688293, 0.09323325753211975, 0.22734856605529785, 0.3003977835178375, 0.23011335730552673, -0.04331149160861969, 0.15750470757484436, 0.1950729638338089, 0.26184478402137756, 0.31696730852127075, 0.29260823130607605, 0.20656843483448029, 0.1450636088848114, 0.0357811376452446, -0.0982166975736618, -0.1990339457988739, -0.043312910944223404, 0.17997188866138458, -0.03680647537112236, 0.08849387615919113, 0.11397864669561386, 0.2995786964893341, 0.302303284406662, 0.46219581365585327, 0.021607138216495514, 0.0015214135637506843, },
			{0.08185821026563644, 0.06792441010475159, -0.017693348228931427, -0.08974134922027588, 0.024355996400117874, 0.1789732277393341, 0.12054792791604996, 0.29201385378837585, 0.2566905617713928, 0.16311268508434296, 0.14327821135520935, 0.3175695538520813, 0.21775706112384796, 0.07393673807382584, -0.14016997814178467, -0.22811196744441986, -0.19953227043151855, -0.3596642017364502, -0.3843918442726135, -0.22927843034267426, -0.07052918523550034, -0.009828832000494003, -0.043015383183956146, -0.1546468436717987, -0.2151138186454773, -0.04549553990364075, -0.27762481570243835, 0.09466993063688278, -0.2618657648563385, -0.1914617270231247, },
			{0.06257764995098114, -0.08938717842102051, -0.19390884041786194, -0.2679029405117035, -0.12488123774528503, 0.051389288157224655, 0.13754574954509735, 0.10068755596876144, 0.10937947034835815, 0.0593373104929924, 0.04378695785999298, 0.025701768696308136, 0.15551511943340302, -0.22872135043144226, -0.4583842158317566, -0.6041902303695679, -0.520567774772644, -0.5271601676940918, -0.4838503897190094, -0.19270874559879303, -0.07775165885686874, -0.2420663833618164, -0.3098752498626709, -0.29703202843666077, -0.18868672847747803, -0.015389387495815754, 0.10842174291610718, 0.1404131054878235, 0.0438595712184906, -0.18427224457263947, },
			{-0.049993325024843216, -0.10948476940393448, -0.15714223682880402, -0.14510715007781982, 0.07017749547958374, 0.2303481101989746, -0.16187138855457306, -0.08556066453456879, 0.17905639111995697, -0.0013403968187049031, -0.0392291359603405, -0.08232705295085907, 0.121938556432724, -0.09734112024307251, -0.174405038356781, -0.3848497271537781, -0.33227184414863586, -0.17526787519454956, -0.10077212005853653, -0.1537589132785797, -0.03518780693411827, 0.01719115860760212, -0.11386466771364212, 0.26099449396133423, 0.06223919615149498, 0.10027369856834412, 0.13603323698043823, -0.0745123028755188, -0.16612273454666138, 0.04179924726486206, },
			{-0.15438131988048553, -0.005972894374281168, -0.19677048921585083, -0.5584033131599426, 0.10832951962947845, 0.07009531557559967, -0.10369613766670227, -0.3120710253715515, -0.046292420476675034, -0.3642536699771881, -0.18827040493488312, -0.14536431431770325, -0.3301801383495331, -0.43099772930145264, -0.12881307303905487, -0.0739380493760109, 0.007462079171091318, -0.03282608464360237, -0.028711380437016487, 0.11584574729204178, 0.20148536562919617, 0.14180287718772888, 0.27341073751449585, 0.04368778318166733, 0.05281614139676094, -0.09194760024547577, -0.20680005848407745, 0.15052807331085205, 0.0382329598069191, -0.11317665129899979, },
			{0.12665876746177673, 0.14363127946853638, -0.013996689580380917, -0.4253896474838257, -0.019583014771342278, -0.045011743903160095, -0.05683336406946182, -0.22214116156101227, 0.18085877597332, -0.20439326763153076, -0.33933737874031067, -0.31963974237442017, -0.12458699941635132, -0.09487855434417725, -0.14836327731609344, -0.16040708124637604, 0.08818992227315903, 0.025221742689609528, 0.22129811346530914, 0.05230081453919411, 0.03400227800011635, 0.14957182109355927, -0.1308603137731552, -0.20233163237571716, 0.028957029804587364, -0.01458066701889038, -0.14126725494861603, 0.09486912190914154, -0.11986323446035385, 0.025836138054728508, },
			{0.38100969791412354, 0.1580783873796463, 0.053016647696495056, -0.3165167570114136, 0.1896306872367859, 0.23952879011631012, -0.01543403323739767, 0.0072103082202374935, -0.052467260509729385, -0.1449337601661682, -0.37279853224754333, -0.4194633662700653, -0.003356034867465496, 0.08584155142307281, -0.5333673357963562, -0.3937874436378479, 0.20143850147724152, 0.24689200520515442, 0.2127877175807953, 0.045966360718011856, 0.026582853868603706, -0.05452481657266617, 0.1525934487581253, 0.24989141523838043, 0.2389538735151291, 0.14468152821063995, 0.16368570923805237, 0.4312926232814789, 0.3015173375606537, 0.43681156635284424, },
			{0.42042189836502075, -0.04240052402019501, -0.021013755351305008, -0.30891042947769165, 0.17687556147575378, 0.06143135577440262, -0.18597370386123657, -0.301509827375412, -0.07740423083305359, -0.07938314229249954, -0.15309983491897583, -0.11089227348566055, -0.018677134066820145, -0.09262074530124664, -0.2604001462459564, -0.3018881380558014, 0.27845484018325806, 0.09344268590211868, 0.4208795428276062, 0.268731951713562, 0.12059425562620163, 0.2757067084312439, 0.37374332547187805, 0.20661653578281403, -0.046755772083997726, 0.1832723617553711, 0.39529407024383545, 0.4462544023990631, 0.4902005195617676, 0.17647060751914978, },
		},
	},
	{
		{
			{0.516961932182312, 0.40086278319358826, 0.20496916770935059, 0.07202033698558807, 0.1686536967754364, -0.06781009584665298, 0.14813703298568726, 0.2543765902519226, 0.10644632577896118, 0.008161590434610844, 0.332576721906662, 0.43011370301246643, 0.20413163304328918, 0.23174326121807098, 0.08136612921953201, -0.272378146648407, -0.3116097152233124, -0.21035093069076538, -0.10105660557746887, -0.10506531596183777, -0.10243386030197144, -0.07309988886117935, -0.10715119540691376, 0.14218299090862274, 0.17355865240097046, 0.030934466049075127, -0.10587451606988907, -0.0033073744270950556, 0.1126135066151619, 0.1842527985572815, },
			{0.26888155937194824, 0.18361607193946838, 0.25056448578834534, 0.1603778451681137, 0.10705739259719849, 0.12315460294485092, 0.053178951144218445, 0.18244287371635437, 0.168866366147995, 0.14445067942142487, 0.22171780467033386, 0.49785229563713074, 0.2129812389612198, 0.1926814168691635, -0.01859322562813759, -0.2954631745815277, -0.8155142068862915, -0.7136958241462708, -0.41287487745285034, -0.10895070433616638, -0.00987391546368599, 0.13815447688102722, 0.031053658574819565, 0.19621163606643677, -0.06930121779441833, -0.08968845754861832, -0.2459346204996109, -0.12209056317806244, 0.10022259503602982, 0.108498714864254, },
			{0.26841676235198975, 0.2850974202156067, 0.10993149131536484, -0.14367961883544922, -0.012578778900206089, -0.027348993346095085, 0.021089008077979088, 0.06847541779279709, 0.14610177278518677, -0.026460371911525726, 0.13625288009643555, 0.06194361671805382, -0.14229488372802734, -0.1494840830564499, -0.516507089138031, -0.5745733380317688, -0.8265741467475891, -0.719551682472229, -0.5241660475730896, -0.24910442531108856, 0.058942731469869614, -0.11824139952659607, -0.14505913853645325, 0.00015515615814365447, -0.0557405911386013, -0.10110846906900406, -0.1711619347333908, -0.1740548461675644, -0.011471636593341827, 0.19833694398403168, },
			{0.3268352746963501, 0.2654857039451599, 0.17985399067401886, 0.08747109770774841, 0.06760167330503464, 0.23620697855949402, -0.06747909635305405, 0.08983873575925827, 0.142475426197052, 0.1444353461265564, 0.38069215416908264, 0.16794881224632263, 0.02434159256517887, -0.35506054759025574, -0.4259358048439026, -0.12211915105581284, -0.3571357727050781, -0.2309183031320572, -0.020041879266500473, 0.02021006867289543, 0.1661795973777771, 0.22282621264457703, 0.08594313263893127, 0.2185259908437729, 0.024835707619786263, 0.0909513533115387, -0.005669465288519859, 0.08439614623785019, 0.1348820924758911, 0.10778897255659103, },
			{0.136020690202713, -0.18308815360069275, -0.21920181810855865, -0.3520510494709015, -0.014902631752192974, -0.023025332018733025, -0.30172112584114075, -0.1825968474149704, -0.26825588941574097, -0.1915406733751297, 0.005156605038791895, -0.022518843412399292, -0.2204662412405014, -0.572609007358551, -0.13378427922725677, -0.06124570593237877, 0.02564152702689171, 0.27968400716781616, 0.30703315138816833, 0.34653863310813904, 0.4494737684726715, 0.15930022299289703, -0.16404332220554352, 0.05050258710980415, -0.11868596076965332, 0.22957733273506165, -0.02569844201207161, 0.027818216010928154, 0.12470424175262451, -0.12286365777254105, },
			{0.2626989781856537, 0.07251421362161636, 0.014779836870729923, -0.2832869589328766, -0.08024396002292633, -0.31823718547821045, -0.318580687046051, -0.23843170702457428, -0.20290659368038177, -0.4706733226776123, -0.340836763381958, -0.38589781522750854, -0.287883460521698, -0.4573257565498352, 0.01771724224090576, 0.02975238859653473, 0.2357265055179596, 0.20797871053218842, 0.5821154713630676, 0.44289177656173706, 0.46493032574653625, 0.1084047183394432, -0.20998160541057587, -0.1497761756181717, -0.2059142291545868, 0.029852768406271935, -0.28262704610824585, 0.013129493221640587, 0.038313597440719604, 0.14435304701328278, },
			{0.3697381317615509, 0.22857439517974854, -0.033311232924461365, -0.23808565735816956, -0.008225427940487862, -0.09857873618602753, -0.1633394956588745, -0.04415696859359741, -0.0655273050069809, -0.13986049592494965, -0.2523026168346405, -0.28706714510917664, -0.3529978096485138, -0.5288161039352417, -0.11171940714120865, 0.1958715170621872, 0.11002368479967117, 0.06237867474555969, 0.2924949526786804, 0.5843081474304199, 0.6133430004119873, 0.07989557087421417, -0.4684428572654724, -0.29545876383781433, -0.0703381896018982, -0.29066693782806396, -0.2530115246772766, 0.15625633299350739, 0.0897674486041069, 0.34409916400909424, },
			{0.40749937295913696, 0.1958996206521988, 0.0633508637547493, -0.26153814792633057, -0.08537086099386215, -0.020435679703950882, 0.050620004534721375, -0.01301734521985054, -0.1460471749305725, 0.12022320926189423, -0.071169413626194, -0.011943014338612556, -0.2154196798801422, -0.3697699010372162, -0.0952717587351799, 0.2787269353866577, 0.05604502186179161, 0.18828430771827698, 0.7171532511711121, 0.8754086494445801, 0.7068487405776978, 0.400325208902359, -0.19278450310230255, -0.04049555957317352, 0.1645888388156891, -0.09530393034219742, -0.20367297530174255, 0.30083924531936646, 0.46154746413230896, 0.13237981498241425, },
		},
	},
	{
		{
			{0.1715485155582428, 0.14211280643939972, 0.06807032972574234, -0.09732190519571304, -0.2915698289871216, -0.3401867747306824, -0.22749431431293488, -0.11719180643558502, -0.20964916050434113, -0.19108587503433228, -0.16717629134655, 0.0788688138127327, 0.18543532490730286, 0.20916864275932312, 0.03989099711179733, 0.01896367222070694, -0.054454512894153595, -0.15089771151542664, -0.2531638443470001, -0.24876463413238525, -0.08488639444112778, -0.18111321330070496, -0.027082767337560654, -0.1158357709646225, 0.09868083894252777, 0.013501888141036034, 0.06482294201850891, 0.12511055171489716, 0.11220395565032959, 0.04797527194023132, },
			{0.12009145319461823, -0.001474943128414452, 0.09542454034090042, -0.16533279418945312, -0.277272492647171, -0.3389703333377838, -0.23610353469848633, -0.18849408626556396, -0.08020123094320297, -0.09954456239938736, -0.14789600670337677, 0.08942601084709167, 0.2117280215024948, 0.13921785354614258, 0.20466046035289764, -0.08171921223402023, -0.21640519797801971, -0.16592060029506683, -0.16271980106830597, -0.0952286645770073, 0.11533426493406296, 0.14133983850479126, 0.42436569929122925, 0.11904284358024597, 0.017742451280355453, 0.009282642044126987, 0.0019242678536102176, 0.2956494092941284, 0.4106598496437073, 0.060357511043548584, },
			{0.42887991666793823, 0.03375899791717529, 0.2269819676876068, 0.028582556173205376, -0.1817370057106018, -0.3287319242954254, 0.0035325654316693544, 0.11230914294719696, 0.08198152482509613, -0.001891633146442473, 0.17074395716190338, 0.1161901131272316, 0.2718055844306946, 0.2769065797328949, 0.21348883211612701, -0.006833038758486509, -0.39608368277549744, -0.48971959948539734, -0.41358092427253723, -0.00040315318619832397, 0.11813405156135559, -0.06418824195861816, 0.09276174008846283, -0.04115036875009537, -0.12030579894781113, 0.22966717183589935, 0.01439178828150034, 0.4269706904888153, 0.5464401245117188, 0.39942407608032227, },
			{0.5900371074676514, 0.17305602133274078, 0.11749598383903503, 0.1402837187051773, -0.21952438354492188, -0.2133169323205948, -0.09873543679714203, 0.07682602107524872, -0.0697903111577034, -0.04205522686243057, -0.05666329339146614, -0.08054715394973755, 0.08886794000864029, -0.08466143906116486, -0.023435836657881737, -0.049222152680158615, -0.2816188931465149, -0.35514241456985474, -0.4087238013744354, 0.17088475823402405, 0.38192304968833923, 0.26083600521087646, 0.30694499611854553, 0.05426100641489029, -0.21202541887760162, 0.075839102268219, 0.19997531175613403, 0.2921985685825348, 0.2615271210670471, 0.14104026556015015, },
			{0.1694130152463913, -0.10542518645524979, -0.07596904784440994, -0.21200518310070038, -0.1488078385591507, -0.40866348147392273, -0.1305021494626999, -0.10292501002550125, -0.025747032836079597, 0.10544604063034058, 0.15737284719944, 0.29500383138656616, 0.12956911325454712, -0.10121526569128036, -0.3779379725456238, -0.5853999257087708, -0.4366191327571869, -0.3817790448665619, -0.1659751981496811, 0.06398449093103409, 0.3801257610321045, 0.40039917826652527, 0.15302519500255585, -0.42760682106018066, -0.47346803545951843, -0.37858617305755615, -0.21750330924987793, -0.18303203582763672, -0.2145996242761612, -0.3488812744617462, },
			{0.14082610607147217, -0.22725307941436768, 0.11677983403205872, -0.18710783123970032, -0.0838410034775734, -0.1308445930480957, 0.015340553596615791, -0.0032136389054358006, 0.17781400680541992, 0.3832021951675415, 0.4150305390357971, 0.36098524928092957, 0.12123239040374756, -0.20834685862064362, -0.20179562270641327, -0.508990466594696, -0.5160237550735474, -0.40110278129577637, -0.07947534322738647, 0.07356079667806625, 0.4159664809703827, 0.3971080183982849, 0.2666650414466858, -0.2636597752571106, -0.1300259232521057, -0.08281993120908737, -0.08254174143075943, -0.0850459411740303, -0.14484935998916626, -0.2820650339126587, },
			{0.3972802460193634, 0.08421424776315689, 0.2221931368112564, -0.220999076962471, 0.04050459712743759, -0.02982197515666485, 0.09637501090765, -0.01283610612154007, 0.22123096883296967, 0.4512173533439636, 0.09439433366060257, 0.2059011310338974, 0.006684229709208012, -0.07360314577817917, -0.20161239802837372, -0.24253715574741364, -0.28440800309181213, -0.21864496171474457, 0.13105155527591705, 0.3192106783390045, 0.659335196018219, 0.45803579688072205, 0.38472455739974976, -0.035525161772966385, -0.01988803781569004, -0.2495415210723877, 0.002943572588264942, -0.0725170224905014, 0.059829916805028915, 0.002408957341685891, },
			{0.4069384038448334, 0.05624701827764511, 0.14250461757183075, -0.08293316513299942, 0.06926561146974564, 0.1232861801981926, 0.15388993918895721, 0.06585147976875305, 0.2447558492422104, 0.45874491333961487, 0.3444865047931671, 0.2754424512386322, 0.13826438784599304, -0.20637156069278717, -0.41075798869132996, -0.2469015270471573, -0.23940014839172363, -0.1426122486591339, 0.12294981628656387, 0.3301372230052948, 0.448443204164505, 0.4258957803249359, 0.27718108892440796, -0.10008390247821808, -0.04872196912765503, -0.0644545629620552, -0.10106771439313889, -0.10380980372428894, 0.0556236170232296, -0.14981211721897125, },
		},
	},
	{
		{
			{-0.14476332068443298, 0.11564388871192932, -0.011120547540485859, -0.08399447798728943, -0.23564568161964417, 0.1190900206565857, 0.2760965824127197, 0.08217146247625351, 0.13447268307209015, 0.14359112083911896, 0.1515987664461136, 0.159534752368927, 0.020616836845874786, -0.010757673531770706, -0.1365310102701187, 0.5028862953186035, 0.0775371566414833, -0.2619415819644928, -0.13586415350437164, 0.01938990317285061, -0.2900143563747406, -0.101372130215168, 0.19901861250400543, 0.23429858684539795, 0.1466318964958191, 0.0876268669962883, 0.052077826112508774, -0.22557002305984497, 0.15120849013328552, 0.054421354085206985, },
